-1.150402861506913954e-01 1.582877845345806792e-02 -2.532066580939306907e-02 -4.981001176337004899e-02 -6.604796733684696608e-02 -7.857139584413606881e-02 6.982668897890161042e-02 9.589098245567923007e-02 -3.654878464068769817e-02 8.059906765947777441e-02 3.139112511889138868e-02 -1.045552963994410833e-01 3.275160847709811252e-02 3.104205455352531534e-02 -1.212809989365617458e-01 -2.400440158263808868e-02 7.749410783466299801e-02 -8.332682739519806092e-02 -2.772172549323817167e-02 -4.574508108015541002e-02 -1.119989232653906541e-01 -8.454708763558500817e-02 9.068592460815292494e-03 -7.134443202424256558e-02 -9.580123063844836820e-03 5.575681550900107863e-02 -4.959670968910578209e-02 -1.563271380781497888e-03 4.119153082686221462e-02 -3.439013920237531802e-02 3.609281587034427613e-02 8.930545303253080436e-02 -1.080855053946095344e-02 -2.713642048576970708e-02 2.889982905623198969e-02 -3.843025040020477817e-02 -7.499603529046389161e-02 1.018933873754935236e-02 -1.373823852929255129e-01 -8.544017162915958086e-02 3.049573309704012303e-02 -9.623797209658165042e-02 -2.293098403893710155e-02 -3.011960895226179630e-02 -9.960321252219593580e-02 1.765164879720686544e-03 -1.472906277244527377e-02 -7.838877262302322568e-02 1.493594537717039643e-02 1.255704052695489070e-01 5.732791240216304762e-02 -9.228253058043432711e-02 3.132053756418975987e-02 -5.202496381352746807e-02 -5.775725438553556967e-02 -1.649567836340232532e-02 -2.632399793570315213e-02 -7.069623430902438610e-02 -2.059859905359152921e-02 -1.354852917918582811e-01 -9.946066509314033591e-03 6.825044127191649823e-02 2.831318791355913814e-02 -1.116352848385238766e-01 -1.353845882927388194e-02 -5.393132876322077190e-02 -1.459401260130633038e-01 -7.442418718704606802e-04 -5.714327933755338623e-02 2.561682116248457930e-02 -2.400187347314474903e-02 -6.561922171067249843e-02 3.394674671352868739e-02 9.838147545115454029e-02 -3.421586066887213895e-02 2.940817392880890752e-02 4.788924253792954493e-03 2.108179928085768262e-02 -1.105574331546600036e-01 -6.429405414285942373e-03 -1.090895064383571866e-01 -8.359947324161834392e-02 -2.632259359750997729e-03 -1.481998684997809235e-01 1.273218385912802154e-02 1.087779888577931030e-02 -5.315287849395732706e-03 2.325120027005444026e-02 1.340320954419351937e-02 -8.154817593043139912e-02 1.451365300903822986e-02 2.139385833298360767e-02 -1.403991507993024648e-02 -8.059735276408862281e-02 -2.751154490433579611e-02 -8.904603700466957872e-02 -5.973272630940643785e-02 8.669607117234637284e-02 7.488772536517138145e-02 -2.426339324461782368e-02 1.140870821872762564e-01 1.959996536851066340e-02 -3.504313833026735658e-02 1.698451625212334462e-02 -1.167519895803984659e-01 -3.127229179172247298e-02 8.190954274878478603e-02 -4.707341719577380623e-02 -2.690060754826486666e-03 1.741928469083567355e-01 -1.085402079585805375e-02 1.213290177581838152e-02 1.167576573467158166e-02 3.658161253317696038e-02 -8.280832639852188370e-02 4.395999339161504871e-02 2.662892213041842884e-02 -2.064962153915689269e-02 -2.303997191468525746e-02 -6.097450228057818555e-02 -3.838130037724970384e-02 1.054529216164152849e-01 -3.900305773854023661e-02 2.531319979590634581e-02 1.304588446088004658e-02 1.662215363908709290e-02 -6.993330925325344505e-02 3.595190889981041832e-02 -7.126924099816181468e-02 3.038599638680052062e-02 1.055437235198642409e-01 6.890067075252699624e-02 7.729449053624253690e-03 1.049094468699709876e-01 1.413145034162050125e-02 7.947035177446939980e-05 1.377671039806396547e-01 5.013837652459277733e-02 5.191424339769395296e-02 1.068892817357154079e-01 5.240112338628375582e-02 -7.945268978409875116e-02 1.392006255103413713e-02 -5.829190701717704148e-02 2.641048930962816912e-02 1.384973009491557161e-01 6.092462741674049831e-02 5.051729159255077817e-02 1.461459609153010764e-01 2.970103875646830718e-02 2.060433698710988776e-02 1.082021203933584835e-01 5.937957598069672910e-02 -1.138032806101803296e-01 2.619930258153687491e-02 -7.234833986717395526e-02 -4.579884391194508075e-02 1.654415990894703148e-02 -4.524071245622654502e-02 2.254117838537339838e-02 -1.332839205906326437e-02 3.565565655076503859e-02 -8.260748904232931289e-02 -5.976140915782240243e-02 -1.268829904699258215e-01 -1.397258221114100474e-01 -8.884279350776108641e-02 -2.706491734631745819e-02 6.192336460806117243e-02 1.133999873535937453e-01 6.458025396500388648e-02 -5.960043652447634052e-03 7.453814649988105279e-02 7.419523873476133180e-02 -3.692348496329901641e-02 1.223978220886326324e-01 5.119698178102835562e-02 2.627135577706871117e-02 2.854065764256996998e-02 -5.865725854602137079e-02 3.279607220239075943e-02 6.521565056826884865e-02 -2.187910853534705616e-02 -5.289360135238691668e-02 -3.990183065010119434e-02 -1.326841975094898707e-01 -1.239070292103571086e-01 -4.725730161238616417e-02 -3.736518564627806099e-02 -4.697702895053267047e-02 3.720942597230342264e-02 -8.664041451333567845e-02
8.670441701745530694e-02 5.781969882752349688e-02 -7.604425290026041451e-02 -1.705500056115998725e-02 1.982690403053372075e-02 3.421796349946265581e-02 3.152662501325513567e-02 8.715163026456630019e-03 -6.219689210577557248e-02 -5.596336371150315708e-02 7.167066156866438997e-02 4.901595568404072678e-02 -4.892187518393468354e-02 -5.255054858152358871e-02 -7.778132392513423254e-02 -7.695703050066651785e-02 -4.072782985791918720e-02 -1.218814257941338020e-01 1.410807325905235471e-02 2.271713404223371299e-02 -7.361184950165312879e-02 6.056771705752811950e-03 -2.404843677917010980e-02 -3.746457881466713769e-02 -7.586528590659988303e-02 1.124276508694063009e-02 2.435172087004148708e-02 4.149286557643457746e-02 -7.239532291952158194e-02 2.220234423365837623e-02 -5.125647208152208506e-02 4.816879084333821476e-02 -8.698169063197150330e-02 9.843917703306989675e-02 -7.308036737647366867e-06 -7.419512541466245781e-02 -6.123551199442440335e-02 8.719854139165568452e-02 3.899811909823851230e-02 2.115819039500459534e-02 4.987230993859740474e-02 -8.606314503227863177e-02 -4.849240576245948675e-02 -1.079896227201889852e-01 -5.577022215030214003e-02 6.653585724787069826e-03 7.567310855497680344e-02 4.313701727177694095e-02 -8.737353304042032309e-02 -2.119400175589318189e-02 -6.876386433880561644e-02 -1.024887380669611270e-01 -8.667236480790334319e-02 -7.500712244386133210e-02 -9.489505692885655611e-03 -1.070717250089853051e-01 -1.125647475343281995e-01 4.009862121507044852e-02 1.046436061745696991e-02 -4.511158003104855096e-02 -3.277501080088903590e-02 6.520975001028157803e-02 1.439389459643168091e-02 -2.796212009509536911e-02 2.723459980746173806e-02 4.180437378193289921e-02 -5.602135222362109035e-02 -4.216522001163997002e-02 3.284619772782410713e-02 -4.902813239406592083e-02 7.233221416876117749e-02 -2.116411765819025889e-02 1.575584721668484359e-02 -9.261621537017161732e-02 1.563283184040117901e-02 -1.542673848845008688e-01 -8.205816354311219751e-02 -1.041723716323602472e-01 -7.744594004707355817e-02 -1.268451155158972221e-01 -1.081250370131934396e-01 -1.368285657683326606e-01 -8.756103124248776348e-02 -1.522740101250027837e-02 -4.882352915060238219e-02 4.870641244100401557e-02 -9.783150081481419014e-02 -2.370871742198852813e-02 1.083701996923082736e-02 3.797391575883166028e-03 -1.515266087555342672e-03 -5.043578592495313873e-02 -2.554615234543727506e-02 -1.297634544933010288e-02 -3.867539477756493788e-02 -1.040411814298492464e-02 4.738202494120528213e-02 3.556942741541580660e-02 -4.348197957064114244e-02 1.442295186667247320e-02 -1.238808140265696689e-01 -9.348284891787128625e-02 3.839057087700267941e-03 -1.311331105017917997e-01 -3.722185998893239728e-02 -1.448406324582594551e-01 -6.067840472429859855e-02 -1.173015972344959232e-02 -9.777454783549632822e-03 -8.635779625152312233e-02 -8.286058101166977885e-02 -5.849538133856094224e-02 1.550807025624461460e-02 5.917078713577687832e-02 -6.559474848226340415e-02 -5.424272951871361714e-02 -4.567686305403210328e-02 7.389775900924336338e-02 -3.542677506162535128e-02 -7.911592785797942617e-03 2.846027322284578470e-02 -5.401928295902699156e-02 6.102959332624253302e-02 5.379856824959493300e-02 -2.883035252697736112e-02 -1.390752299650271744e-02 -1.129160173935570520e-02 -1.777469289953460471e-02 3.451488724756252707e-02 -1.293214170992486867e-01 -1.134892540877656258e-01 -3.252126978748779568e-02 -2.192981831233848516e-02 -5.047288166013711580e-02 -4.271345915147651412e-02 -6.350407406059689619e-02 -3.223525760736319773e-02 -2.222986142236016080e-02 -1.035640822058983557e-01 -5.294589357663877227e-02 2.882578980604194249e-02 2.700451080864663903e-03 7.981128779991115973e-02 1.210288378952498467e-01 5.312892891031168602e-03 -9.111012209090291886e-03 3.390911834683894843e-02 4.866278067611115414e-03 5.369104313383647742e-02 5.318863776968620755e-02 -2.723571448765541719e-02 -1.082325903615004858e-01 -1.325979764676581997e-02 -1.153553910198821392e-01 -1.203976373936548605e-01 -2.305556229672807780e-02 -1.627639238889009576e-01 -1.336892355770333829e-01 -8.757596263772407519e-02 -7.449730900523467148e-02 -6.046314019298899139e-02 6.013098974289100493e-03 -1.111337509785086525e-01 -3.347426099196142840e-02 6.437937983623362448e-02 2.348707299882243568e-02 3.994689631303932620e-02 5.687136621812208942e-02 4.469101970694402959e-02 -6.640364456731639997e-02 7.213918329484297898e-02 7.624210342089558778e-02 3.587186773742117273e-03 3.395854599051963130e-02 5.239908760660213355e-02 -9.925277246502424433e-02 7.463256401361945125e-02 -1.554212501200906982e-01 -1.203280448141457321e-01 2.361894995052265731e-02 -1.188077366204464969e-01 -2.901755385387454200e-02 -4.737506537400465456e-02 -8.286695170732036320e-02 -1.105518157163200843e-01 2.852074246592438758e-03 -1.021624132643359634e-01 3.408379339805183350e-04 -2.879390649205552585e-02 -6.318642670308571851e-02 1.595033203413851255e-02 1.364813531053346851e-01
2.410693407116447709e-02 4.669038995275148068e-02 -7.083373673542385507e-02 -2.179048099518442194e-02 -1.041177986694323127e-01 -1.077956957243320080e-01 8.794168370238990284e-02 -9.142979090850476831e-02 -1.298927293836456553e-01 5.016072194181969701e-02 -1.148988755321849187e-01 -9.735629153748455444e-02 6.311881475228744987e-02 -6.292548676786513355e-03 -1.384475771198840355e-01 -1.622743802197590401e-02 -1.281322431242698512e-01 -1.348333935150093643e-01 2.064261746975203440e-02 7.402266061508734965e-03 -3.496961267406799301e-02 3.167639708760070644e-02 -6.875149883442538412e-02 2.722303297341698708e-02 6.243831603430623212e-02 -8.047911445486097270e-02 -1.123144545236443997e-01 -2.406986196477590642e-02 -9.851476481610958735e-02 -1.443515637534552587e-01 7.948420018898338935e-02 -9.404633691326058642e-02 -7.658488044013904428e-02 -2.745408173429726706e-02 -1.079503346598904012e-01 -1.970620166437420939e-01 -3.174830123034303592e-02 -1.890267866480769068e-02 3.361759236427134395e-02 2.335800782860947972e-02 3.877793648644339841e-02 2.822946318240356772e-02 -1.066101838888911385e-01 -7.716963140647645214e-02 -7.960502055984449224e-03 1.058982213975296072e-01 4.684754996056948576e-04 5.030448455412046826e-02 5.492550761010016325e-02 -9.303639226312343524e-02 -1.997219609035990120e-02 5.749898120627092851e-02 -5.943276480680151352e-02 -4.040519411121967081e-02 -9.078954901460473126e-02 -6.261299915137197303e-02 -1.269323076354127861e-02 1.302120762112735780e-02 -3.311328580855067705e-02 -1.222821991794186269e-01 4.307746446200944740e-02 -1.043695236988413239e-01 -6.374414083798227160e-02 -1.619748619608755644e-02 -1.342733759835169627e-01 -7.603783246795037254e-02 4.498357549515745457e-02 5.821603575740883635e-03 -8.990940127286009553e-02 -9.687478338611468787e-02 -3.992424524463601687e-02 -1.025544496737569727e-01 2.297525916569326601e-02 -5.802066555294362396e-03 -1.105856340675998167e-01 9.983432816564223600e-02 7.509185148367829993e-03 5.384586481927395446e-02 -1.102054311454239016e-01 -7.470139685832924425e-02 -3.645803224570742102e-02 9.956950828035895928e-03 -4.857923774159127184e-02 -7.403711681125869914e-02 -3.250371091859101391e-02 -2.931582201703278670e-02 -6.467684726522821004e-02 4.243067720485751981e-02 3.584440476265491476e-02 -1.193598338285446585e-02 -2.691105151710721649e-02 2.843761546084309227e-02 -3.679545660281447611e-02 -4.284061587860428337e-03 -8.679953089612174599e-02 8.241241413734716470e-02 1.017730665014817404e-01 -8.596458490874360481e-02 -2.413307225573965015e-02 6.997148017768138606e-02 -6.876486359468622633e-02 -9.763203104528861420e-02 -9.993706822852696514e-02 -1.278086744888519977e-01 1.419579407885891535e-03 4.764096101561279828e-02 -1.017454404947271268e-01 -7.130449992279200289e-02 7.683487032118045679e-02 2.290075403768766782e-02 -6.982499189918986437e-02 1.066083810772117668e-01 -9.616876149643481531e-02 7.520145565076111205e-02 3.893582102157589712e-03 -1.482382549971630013e-02 9.579023624748142507e-02 -6.840253370818853706e-02 -2.343511771527284973e-02 -9.653560279174715208e-02 2.890732223711841090e-02 1.648779342588138283e-02 -2.363242980992448072e-03 -7.991620269579847655e-03 -4.257760864558310376e-02 -2.672200370567968594e-02 -5.574383920386274949e-02 -7.527769842010954837e-02 -3.882572446176384834e-02 -1.019119274521951106e-02 5.787634653732449085e-03 6.182814629177080246e-02 7.297179342927506696e-02 3.376371540191977494e-02 7.796468630087405316e-02 8.135744744422425401e-02 -1.675996889728946504e-02 9.536057206254089369e-02 3.193318146469323326e-02 -5.075484117652427629e-02 -5.186628351354954231e-02 7.407931788928955041e-02 1.504085491446452254e-02 -2.085997757038867903e-02 6.066940296097809993e-02 8.647313017483544348e-03 -5.575804960607449318e-02 -3.618813905954939431e-02 -1.093237498954195835e-01 5.087729705313407541e-02 5.364726807784746948e-02 -4.043702771936399931e-02 5.277764237917121010e-04 -3.539365099212363197e-02 2.918419073189642068e-02 5.868157943229275475e-02 1.039654485184351579e-01 2.737637951106331943e-02 1.035276017381522723e-01 9.848916719328962288e-02 7.793990821477217619e-03 -6.921829923964914477e-02 5.848392664301314131e-02 -3.286947921426649349e-02 -5.498579533622869470e-02 -3.769731853378786163e-02 -3.351758408849538073e-02 -7.596704364355866788e-03 -3.996304399048352524e-02 -2.134600673094682807e-02 4.568645442652500416e-02 -3.801180959716182750e-02 -1.458070418306124487e-02 -4.337056441669694118e-02 -5.906671669190261681e-02 -1.255161801911289232e-01 6.025955872958788095e-02 2.011772496111901773e-02 -2.752844167170305847e-02 9.151886787140343926e-02 6.619540561892101049e-02 -5.385221580880645599e-03 5.449029299147490485e-02 -8.624449830172596643e-03 1.962359922915620988e-02 -3.147736092122556395e-02 9.086629795060230386e-02 6.587610679801280192e-03 4.227216033221460612e-02 3.008582268884229041e-02 -8.084033178054775282e-02 -4.144147371007440156e-02
5.390654101101204770e-02 4.447951362286740873e-02 1.927156585166763664e-02 7.738180835428989934e-02 -1.430800296375943532e-02 1.050253404943928826e-01 6.109494025957393909e-02 4.223188271517280823e-02 6.808766716978489897e-02 3.812947136565907578e-03 4.058092080388995063e-03 3.898201011526238047e-02 2.586062809359138820e-03 -4.746139859635514074e-02 2.235703503540165463e-02 -4.243740916394123097e-02 -3.643579482234861507e-03 8.109052366355344599e-02 1.894016946124209982e-02 2.354267142759443668e-02 8.286588392071236875e-02 -1.006384221115800004e-01 3.303836735416803422e-02 1.538158082785954228e-01 2.912968484119840204e-02 8.420681941591748321e-02 1.629023831166234856e-03 1.077342805465926062e-01 6.483972870589736759e-02 2.848708476437278314e-02 1.086976436525324552e-01 -3.554069835181458692e-02 1.077590854609780380e-01 4.272419662741786667e-02 2.110098845359485720e-02 4.956691333065593036e-02 -7.385011306900596262e-02 -4.225404591202474441e-02 2.694799312238345748e-02 -6.731964144462329602e-02 -4.218854462401058075e-02 9.343476997108350612e-02 -4.614317413374900700e-02 5.868704860282394561e-03 9.149623613770309360e-02 -9.134736711152316446e-02 -5.468380865341077035e-02 6.298678419171002685e-02 8.680724885516964348e-03 7.696215577424753151e-02 8.105593049007875361e-03 -2.058336648306178726e-02 6.328457166404664359e-03 9.671161561821276301e-03 -4.180561800086300683e-02 -1.178852850260838497e-02 6.103333769041443396e-02 -7.556296488833097458e-02 -4.521317164220305107e-02 3.710606480668555973e-02 1.977404204284519476e-02 -1.002139874021538563e-01 3.952645350639991811e-02 -7.685328512909690712e-02 -9.002202794755194415e-02 -2.869234307129408384e-02 -3.565036147221053997e-02 -1.088243995197670372e-01 3.931918969476917713e-02 -7.549773448073206217e-02 -1.368120656273335844e-01 5.278200304752823230e-02 9.163401832525421009e-02 1.946804117902956391e-02 -1.999800458723607552e-02 9.077525419776241722e-02 -1.646397682176172980e-02 7.484123976875151074e-02 -2.456168860669937296e-02 -7.030674358753058462e-02 5.254316932994776423e-02 -8.693079918228510672e-02 -7.316748289279448314e-02 3.348948705560686467e-02 -7.645427914436742078e-02 -5.442034630590104893e-02 9.398793084876153059e-02 -7.943957800075913955e-02 1.793683841292070119e-02 8.651148537340448696e-02 -8.787828140094790241e-02 -3.493315265877889458e-02 1.291143092479165866e-01 -2.379856128028431592e-02 -4.517741754886306360e-02 1.269560080997262086e-01 6.357942351654996549e-02 2.910020945299018197e-02 1.505857969993658063e-01 2.475894368114235633e-02 4.291718901441681638e-02 2.392475853010805203e-02 -1.193626761570867022e-02 -2.292474422574256043e-02 4.658700481773864893e-02 -2.753281989510904595e-02 -1.220654493900574095e-02 5.183442695350370943e-02 -5.612804606871762796e-04 1.276800399424953686e-02 1.339826231448555116e-01 -4.527627754183262410e-02 7.413904076720145668e-03 1.037737670797456158e-01 -4.076223605725077387e-02 9.674592257832910491e-03 1.254715955374137992e-01 -6.428295926818983208e-02 9.696476009374266347e-02 1.859268178242764191e-01 1.065419540686247946e-01 1.082361886559435604e-01 1.339274120646775645e-01 4.581927745353615161e-02 9.963505143013758059e-02 1.418414941436212939e-01 -6.828688364619133790e-03 -8.156562441094745985e-02 2.820739347170812816e-02 -4.684177586864648329e-02 -7.508011487849074184e-02 5.026499662803858917e-03 -1.010508441282798042e-02 -3.367915385764168323e-02 6.820199064144577550e-02 -3.754625437992663121e-03 -9.038324154485674611e-02 1.187289193539541599e-01 -2.915168225522235534e-02 3.264021214236575985e-02 4.779927096140834664e-02 -2.124861874062990499e-02 -6.963294929085587191e-03 1.747842981668154272e-01 4.750374453430252636e-02 9.360836062184139938e-02 1.725759268347853426e-01 -2.668108610685392817e-02 -5.817250192934166064e-02 5.718484252739335777e-02 -3.503488687321815870e-02 -4.871477676824124969e-02 4.432690543201051742e-02 -6.209462720533417968e-02 -5.883054274827754365e-02 3.743670385829717118e-02 -7.064721617442751289e-02 -6.266779561589048975e-02 1.290403550249433380e-02 -1.919094931134888039e-03 -9.752659063568912268e-02 1.125879227296818774e-01 -2.923965980423835070e-02 -2.300313806998905211e-02 1.173849229479561329e-01 -5.855119123501789299e-03 -1.909560393526786928e-02 1.199004038348587126e-01 -3.447224606968681687e-02 9.284026598505128181e-03 1.044096415323758770e-01 3.232307806184759463e-02 4.253834550086291189e-02 1.257736573194142282e-01 -4.414527957302662869e-02 -6.635555170300760919e-03 6.796587119662442222e-02 2.451105717094815423e-02 -1.137542246909634402e-01 1.120645427896057172e-01 -1.133414195977542754e-01 -1.047909134467880643e-01 4.454691617530120995e-02 -9.153870690113499742e-02 -7.876929135126209403e-02 3.334936723663969177e-02 -2.488909728644579655e-02 -4.850157546841728229e-02 1.359207339739176568e-01 -8.301931897745083722e-02 -6.718717311441110840e-02 6.844872942136721872e-02
8.662611979429428802e-03 1.296139597131322659e-03 -1.221988528203518248e-01 4.651582010885993088e-03 4.663988277035837487e-02 -5.657543666270054700e-02 5.676728873258679586e-02 1.208041960003633335e-02 8.847924086949284644e-03 2.933742916042538298e-02 1.029556023844730717e-01 3.074350634425097178e-02 -1.165524311813148813e-02 6.977380720372150513e-02 -5.075812692149213323e-02 8.864874395572285015e-02 6.404198948690678628e-02 -8.281626717015709224e-03 1.425406107165461955e-01 1.506620822005803328e-01 3.261992182879348140e-02 5.238112530183479387e-02 1.360876599331161674e-01 2.850927575028005048e-02 -9.156389007642586064e-02 -8.758958197191767103e-02 -1.257522589435499383e-01 2.687928078794349016e-02 -7.799677092047795079e-02 -1.030458722220569806e-01 9.534876921536490635e-03 -3.329153006662014663e-02 7.180807747995014223e-04 1.180679728350947783e-01 2.389127652993401282e-02 3.252509085826144064e-02 2.157749120380930002e-02 7.653022826440214477e-02 6.744701311199226279e-02 3.330306106721189069e-02 9.395858021700283225e-02 6.402122252880759756e-02 5.360545640242839194e-03 1.447231760884838125e-01 5.401924719023621507e-02 1.390078229355018458e-01 2.038244288744274213e-01 6.575698853506184438e-02 -6.145228481583271674e-02 -1.993323395571862042e-02 -8.103332020113235279e-02 -9.253515387477165288e-02 -7.147092480675948378e-02 -1.121220890274765986e-01 9.732814198397356231e-02 9.056665731073753819e-03 5.093355666500939266e-02 4.225162179536506857e-02 1.183997363083592047e-01 1.595179276791931777e-02 1.045525431086808538e-01 1.127128981275938996e-01 2.182939152811423297e-02 5.154734684249485249e-02 3.437656088651853958e-02 -4.260073480434402315e-02 9.358587678807663013e-02 7.349647688572837068e-02 -3.635161560466135255e-02 2.315601283220961731e-02 -9.583630444087824773e-04 -4.806838406476604542e-02 3.597234150260952834e-02 -2.838009348791764933e-02 1.876814227724557180e-02 1.276638727946352754e-02 6.332853509005768877e-02 -3.824344042199084859e-02 9.126972733314482611e-02 2.920937319531909798e-02 -9.313442015674692348e-03 1.907627745389073662e-02 6.034046748096166118e-02 -7.548212690139838310e-02 2.338204282719185886e-02 3.476894839360698125e-02 3.562147157296970124e-02 -1.019730761106415334e-02 1.481361620485164253e-02 -3.784822336712028584e-02 -2.204384306365129997e-02 -4.568617092634010696e-02 -3.351309399546684858e-02 -9.746271755710352036e-02 -4.532249298145977351e-02 -1.091363858220780053e-01 8.729081651125376873e-02 -1.045759011223108435e-03 9.870137342530432845e-02 1.380549485580600533e-01 1.289831616392229652e-01 7.129583199390546189e-02 8.321012074483320753e-02 1.296603118895796602e-01 5.006971203164049117e-02 3.739502521320444556e-02 1.036365778913457374e-02 3.958623752717604222e-02 -3.818619355974503526e-02 7.320269553802280851e-03 2.380157865723378161e-02 -4.663424428920030090e-02 -5.837926475893411016e-02 -2.164529026143978754e-02 -2.174216942243377762e-02 -1.197027639055698867e-01 -9.877308688110825186e-02 -3.394785239920008330e-02 -4.058588946122244911e-02 -9.542273742732686193e-02 -1.722908731860272463e-02 9.107201164519722336e-02 7.881625762426554271e-02 3.173114109964892543e-02 1.390680984387041574e-01 6.795441058959597602e-02 -1.872149478104210077e-02 7.234974143327772833e-02 9.699120117136374175e-02 3.565017181461389156e-02 1.151925626899586302e-01 7.237742620715535702e-02 -7.221835797889974984e-02 -7.654188070731705353e-03 -4.528994171381508366e-02 -1.108350402339016716e-01 -1.485482061503691498e-01 -1.106447752290765224e-01 -8.562987959716689135e-02 -4.389987229897447663e-02 -1.086935943962024642e-01 -1.380450855321342651e-01 -5.786569870287338810e-03 -1.196931922200943077e-01 2.564211885677823710e-02 3.310709585699777744e-04 -2.402780093172338441e-02 -1.791967024262519723e-03 -5.298211061017706058e-02 1.912579695421876697e-02 2.628085331453774640e-03 -4.768104683579485470e-02 6.728500730133415986e-02 1.725173346840894878e-02 -2.830794717999104634e-02 8.851095675486776726e-02 2.738691710673658939e-03 -1.284088847845197938e-02 6.114800280327234612e-03 -9.880780698158476982e-02 -4.338718295786365281e-02 7.411286977557387905e-03 -7.900338105723404836e-02 -5.842059707708817384e-02 7.014762520611265983e-02 -6.791599615952877145e-02 -3.373054673983575530e-02 -1.369767390650841743e-02 4.598276252663146407e-02 -4.952192577605417367e-02 4.698648627962941776e-02 -6.355671751414375403e-02 -5.797234367385312170e-02 -8.712692283697374973e-02 -5.972138953910223480e-02 -9.225677133976888100e-02 -5.160660723343748341e-02 6.026881628446113109e-02 3.469741112375113179e-02 3.925921706102330350e-02 4.398263913878132370e-02 2.075986403276024704e-03 4.286216467089739440e-02 6.080682108609854891e-02 -6.664604553269492908e-03 7.392118802968818125e-02 4.743634361346289047e-02 -3.658213934640812404e-02 8.776694542459949344e-02 -3.221977327452237722e-02 4.721782675465469731e-02 6.294597274899262074e-02
6.121111460739373780e-04 3.060168189853067211e-02 8.636714879643515863e-02 6.460515264469475494e-02 5.764627333501280010e-02 5.526467172903333502e-02 2.900396966214821917e-02 6.290680787261526685e-02 1.050984544529961900e-01 5.512922615377746638e-02 -4.565539621529250691e-02 -5.299492647249626209e-02 7.906622588815635441e-03 -9.540558507881490014e-02 -7.304114757423665893e-02 -7.629347680882942774e-03 -6.656262341004470784e-02 -7.930023639115119094e-02 -6.478278410044949198e-02 -5.515704373150016188e-02 -9.531035449810536242e-02 -3.244235966363386708e-02 7.049558753955298407e-03 -6.239077292905213963e-03 -7.835205426983153296e-03 -3.759060698175782644e-02 8.803566542808544115e-02 8.981225334441489405e-02 1.775703870698461251e-02 4.844825383324001533e-02 3.409128323894956847e-02 7.466101343739142693e-02 4.588522766937865732e-02 6.406082658400892582e-02 -4.548677688556833354e-02 5.415349884193443319e-02 -6.039502204894491022e-02 4.708247403099503903e-02 1.410837014762179702e-02 5.983545600613830208e-03 -4.949908618528008064e-02 -6.835928138697250356e-02 -3.755242836086823471e-04 -4.631257556928441294e-02 -4.027389601337287572e-02 -4.131617348235116366e-02 3.676497964416500924e-02 8.021840100181823474e-03 3.681860604236587148e-02 -1.181311734180364170e-01 9.980399417610879079e-03 8.550093626678142988e-02 -7.536326606260822236e-02 9.211782534710358239e-02 1.064724712900228520e-01 -6.257600346434975813e-02 -7.179999566912428910e-02 8.777087785224386984e-02 -4.590436823486522544e-02 -4.589931525689745426e-03 -2.462374248412412328e-02 1.794988310968510109e-02 8.752114852818590127e-03 8.718351983090387447e-02 -5.639396831634806151e-02 7.126144695779144944e-02 -4.105039659254976908e-02 -2.503359174056964814e-02 1.068889484201771163e-02 8.183458511251796852e-02 1.959067033346038877e-02 8.357912728002979408e-02 2.808598136731098663e-02 -8.643315141851294625e-02 8.244674231713974843e-02 6.606480343569488822e-02 1.644447078895661454e-02 1.234991844382034992e-01 -2.280129188374189694e-02 1.856288332681689524e-02 1.182677160702250985e-01 6.957372207772270778e-02 2.671082145288566911e-02 9.543078860621941051e-02 1.108581408586189337e-01 1.064500512116802432e-02 2.068663382117265012e-02 -2.554314492243147522e-02 -2.481004397933950570e-02 1.656903854666422204e-02 5.251176264965237879e-03 3.444448306127283893e-02 -1.152407776431440579e-02 6.284878329933277219e-02 2.991737369868757712e-02 -1.661141997290111957e-02 1.074735298249507032e-01 5.248023649597006318e-02 1.039474146707212304e-01 -1.751263725596564208e-02 -8.473656008217970992e-02 -4.869190778137863300e-04 3.438690031005730424e-02 -7.194964180922704122e-02 8.985514282691468846e-02 8.243787759319728958e-02 3.691845212464845566e-02 9.910914099936944666e-02 6.459564533764186600e-02 4.260921842450183378e-02 -4.300051604864733173e-02 3.191048369449199507e-02 -8.064265614910941238e-02 -2.052232676466774972e-02 -5.713735043113010725e-02 -6.717319858731300719e-02 -1.061876084768002522e-03 4.909069884178370036e-02 -5.595510515332850071e-02 -2.744402497925782156e-02 3.623435441500757331e-02 -1.230075571846380722e-01 6.663537142150141590e-02 1.333222406786665204e-01 -1.592216250994944182e-01 7.238745741257804345e-02 1.101880030205950600e-01 1.304602238605935202e-02 1.069010396702238241e-01 1.138116723629294669e-01 -5.914968124105429714e-02 6.337496636876568945e-02 1.110502432509739706e-01 -2.773646716997823364e-02 4.743262449450677543e-02 3.502967652364732259e-02 4.000060446556566451e-02 -8.990095858994351374e-02 8.609751739230529777e-02 -5.108496901548201935e-02 -9.947078882840058867e-02 3.245281985767282940e-02 -5.569039833320671429e-02 -1.219363089265747824e-01 3.455880807656046272e-02 3.374005412236299323e-02 5.861446802551674440e-02 7.361168236484591509e-02 -1.229189172619295396e-02 6.879088996989361771e-02 1.186534824804353211e-01 -4.932368767303563217e-02 9.398105331957470887e-02 -2.231226307860081567e-02 -8.439084458976829628e-02 -2.947219723508411049e-02 -2.598584156982936336e-02 -1.348047448755097522e-01 5.188837129196766096e-03 4.904354826267267459e-02 -1.727563598366511910e-01 -3.880214916418322363e-02 -2.927088316501485349e-02 -1.188392290694143122e-01 -9.682810558766470621e-02 -5.791728889451581291e-02 -1.607246890563842345e-01 -3.505148710124575406e-02 4.276774793593467183e-02 -2.287299535943755971e-02 1.489562612587090051e-01 1.115009241638260790e-01 -4.421352511374206096e-02 9.717548255746125130e-02 8.952289948827374388e-02 -4.236726189115230107e-03 5.864659618556785498e-02 7.699207192704555017e-03 -8.639272231274730540e-02 7.431711311928314301e-02 1.095745356398098724e-01 -1.292423037380494577e-01 -6.413373322871179782e-02 8.600247945394495774e-02 -2.862922716475059179e-02 6.299804938570571951e-03 -8.018232511991665867e-02 -5.920795541155310371e-02 -1.631860579819009033e-02 1.865569587870224283e-02 -7.856294958234380510e-02 -1.303014360724956133e-01
-1.240478429906428232e-01 4.329645776336268903e-02 -2.744123771149355531e-02 -2.237216219409080692e-02 2.475461917457323982e-02 3.469429060724623509e-02 8.011237735229395640e-02 5.227178829981379143e-02 5.878292373038725149e-02 7.007299093683268254e-02 4.705554018360711202e-03 7.981061918348442141e-02 3.844478138885991381e-02 8.497694118177745448e-02 1.644643802007370870e-01 5.256923561032615655e-02 7.488639772992775057e-02 1.627098710603601117e-01 3.222663749294914226e-02 9.392647909742751766e-02 1.779759619477231936e-01 -3.517150506565031726e-02 1.247128146569696262e-02 1.251947471690615654e-01 5.245038865421097068e-02 -5.321088062907966543e-02 -3.889314060550728980e-02 -2.271972247745701959e-02 5.140831440901423230e-03 5.552221154659163493e-02 8.301661369070319554e-03 -3.455654129319566531e-02 7.956190585578386265e-02 -4.269652690559435498e-02 -4.303275352648685409e-02 9.312839210739218276e-02 3.793893290430302989e-02 1.985235469090770866e-02 1.004938360277424364e-01 9.956296633059052992e-02 6.633515634375514169e-02 1.883983402380843830e-01 1.096892786942003373e-01 9.120141714803400509e-03 2.034988909766047571e-01 2.416764431556639101e-02 3.504934414789927233e-02 1.985988910179733169e-01 9.497466382358103060e-03 1.748367238550779107e-02 8.728786209765269921e-03 -3.594712847217244184e-02 -7.177648083384974287e-02 8.577582057107745184e-02 -5.084764404543434119e-02 -6.573847589998131624e-02 4.816489173521408540e-02 2.341179098827622304e-02 -2.935466861179148249e-02 -1.699458117364920431e-02 -3.118121946677972212e-02 7.994604685484950346e-02 1.334559103236006572e-01 -5.139222628208487548e-02 3.958927065014877789e-02 1.414378625212614204e-01 2.802182008901668922e-02 -2.905340722493929446e-03 1.483642093156114228e-01 -8.980124080491744265e-03 -1.281415258316856605e-02 7.822496452834172553e-02 -5.138869804204432984e-02 -5.076936176218357216e-02 -1.672612117811936583e-01 3.684493457053222842e-02 -5.121765006933880898e-02 4.728550872266116742e-03 -8.178659224782873494e-02 -8.500697176443375302e-02 9.076641898678220258e-03 -2.102612888323780391e-02 1.283942911962812454e-02 -1.432411905610642654e-02 5.077853507539179662e-02 -1.007266028648507589e-02 9.273722755550843633e-02 4.920484185135870492e-02 -3.668766573035848327e-02 7.385854962388581357e-02 -1.859901257509470260e-02 -6.305052946469009989e-02 1.065827946502254098e-01 -2.939314148136736027e-02 -9.039152676026526723e-02 -1.502970518328155397e-02 -8.443164808404012012e-02 -3.362283016652176798e-02 -1.605199025237963040e-01 -1.272902795379778351e-01 -7.111967052727460881e-02 -1.723089207235613540e-01 -9.002122648015103978e-02 -3.165308360328002169e-02 -8.668146481302148321e-02 1.377108450072963425e-02 6.002783628814643835e-03 -2.703935373692184507e-02 -4.942440507480678341e-02 4.279264470452865537e-02 -2.980740494889231804e-02 7.367790018721893930e-02 -4.343624055891916885e-02 1.645820195562206975e-02 -6.317056588301649123e-02 -2.290350620907953549e-03 5.239947843451094739e-02 -1.256688850645893418e-01 -1.417171982482123282e-01 -1.511756736576897776e-02 -3.806087407568092829e-02 -5.480222394216661269e-02 -5.237962147676177710e-02 -1.854594360021847091e-02 -1.189313013488405013e-01 -9.803470908199939104e-02 -5.222749186164041962e-02 -9.454303351130498301e-02 -8.129504806428110297e-02 -1.929610140788638045e-02 -1.063609864373073850e-03 3.171209289278856258e-02 -2.702785057622122261e-02 -1.673347647955929218e-02 2.026928917322663032e-02 -2.593895350779125766e-02 4.518218564879340760e-02 -1.049168539205559691e-02 -4.945165495870715994e-02 -1.010288554167303315e-01 1.889006695666346509e-03 -8.101989110997659393e-02 -1.318460230118019549e-01 -1.377370595507211026e-01 2.101722868910498032e-02 -3.896581082289470727e-02 -7.332527503010598247e-02 -2.813328939790232450e-02 -5.974169836046964825e-03 -1.258880917771371677e-01 5.316977484786391400e-02 -2.952144740803380740e-03 6.265047192007351141e-03 -8.496727517283654552e-02 -5.087837318271448001e-02 -1.036619936627551364e-01 -3.427804228445969353e-02 -3.793592113424094914e-02 -1.214310941516852371e-02 -5.025913311097298525e-02 -2.438245449948605106e-02 3.527099599384563716e-02 6.645721106602714119e-04 -7.310243021772638849e-02 -8.323782010997156366e-02 -3.899851127988229749e-02 -1.002797307740260491e-01 5.421658151501442674e-03 -5.362233502804152757e-02 -6.962539208316550002e-03 -4.804329279064082497e-02 3.536078972656789970e-02 3.663412501272036298e-02 -9.981451995076658090e-02 7.684345648588565558e-02 2.744761624128782759e-02 3.524988016575449079e-02 7.910991835398738237e-02 5.953765926174989925e-02 -7.580675923087430712e-02 9.650658966396989669e-02 1.673497116753148647e-02 1.511942944999058493e-02 -2.732657280811495726e-02 -3.870481119715298013e-02 -2.812320869758705780e-02 -3.300418284894097304e-02 1.595063540193217277e-02 -3.717801973633435425e-02 -5.761106806627302318e-02 -2.766679177014334107e-02 3.903368181703261580e-02
9.339914702712685812e-02 9.065429059415645863e-03 3.958391091227188990e-02 2.502029399757995515e-02 5.207826749730523619e-02 -1.399200910728311785e-02 3.262990533597121684e-03 -8.503733543317938681e-02 5.297877983010900599e-02 1.545038452207051979e-02 -7.163367885986186845e-02 6.384459351038397623e-02 9.260414113270569458e-02 2.895268193864167922e-02 5.590030342824729714e-02 1.070649095975133129e-02 -4.685345051273713535e-02 -1.170544779751308238e-02 -2.773784338257239204e-02 -3.716882001883738129e-02 -2.937166403979570451e-03 3.228893117104367910e-02 -1.335191707745019274e-01 -4.095689001520934347e-02 1.395616903025695410e-01 4.980850908581027636e-02 9.300993043905647628e-02 5.904877947559077078e-02 -2.437970734613527715e-02 -1.157438735267471951e-02 -1.594085739243640207e-02 4.821655562681394225e-02 5.751214894878122624e-02 2.780700971397368458e-04 4.516293642062927521e-02 2.791331484671233029e-02 4.282375028620511587e-02 -6.139202607743416860e-04 1.118906531702145227e-03 -2.712134488541348420e-02 -6.220344983174434794e-02 -7.052823247212106073e-02 -6.197942795810994915e-02 -7.380613650605691300e-02 -7.733141504086277207e-02 6.464240160424232495e-02 4.501946512585915279e-03 -1.625833146259074110e-04 9.174910555544441709e-03 1.031806498579211639e-01 1.240554344227053629e-01 -3.574310056054362528e-02 4.307779651438210788e-02 1.088602578417128819e-01 4.123571126584533314e-02 -2.067421140114575340e-02 8.145213184066875389e-02 -2.661212360504513347e-02 5.330455596950801900e-02 -3.400821356600395445e-02 -5.779690138152081269e-02 2.137116903718341843e-02 7.664655976010814609e-02 -4.722128088216523412e-03 -1.158175653182302346e-02 -8.805218688614051270e-02 8.504134346909188180e-02 2.892509050557273351e-02 -8.779298822128123875e-03 5.057679616178488435e-02 1.236788494504032498e-01 6.030516490722363787e-02 5.307263721284193048e-02 1.469349570518611592e-01 8.083624486547690002e-02 3.879798281156545542e-02 6.505787959414923230e-03 1.020709530690974282e-01 1.980459090121955076e-02 -1.873330920940834490e-02 -8.948858527978192923e-03 5.541721049685820882e-02 2.873082865322341972e-02 -2.818566859431257884e-02 -4.413560821895624181e-02 3.055029678049468386e-02 3.206306419246055667e-02 9.825002718868790230e-02 -3.748354079042143239e-02 5.923988985259669160e-02 8.848938246562008947e-02 -3.887761331240992962e-02 5.885070663807300678e-02 -7.077692371390877264e-03 1.524768911798853217e-02 1.170513562553134879e-01 1.071173981764743793e-01 2.580292795670326503e-02 3.934836819985305933e-02 1.580625350538597540e-01 8.180286788325479008e-02 1.346786028650653888e-01 2.553327832615025217e-02 5.097304442055981821e-02 4.141358222466706707e-02 8.396234240788234826e-02 4.227178113919924374e-02 1.064528028548238602e-02 8.866782557620055127e-02 -2.357530713696552940e-02 1.206575776657835830e-01 5.682644559598452882e-02 6.260956467000805895e-03 1.126888705010485603e-01 7.698601284813337553e-02 1.322229892088932490e-01 4.823910846933707024e-03 2.289646765694780886e-02 -5.547011204605621637e-02 -2.757894001704633627e-02 9.158478795715711829e-02 6.363787210234816971e-02 1.885121098771024364e-02 -9.747879222205170155e-03 4.564529182255375878e-02 4.633763142484169373e-02 3.547411101572375131e-02 7.255186572774603715e-02 3.630961390488274265e-02 -1.243022270831625579e-02 -3.175232508255505098e-02 1.909690384238819580e-02 -2.760419239064259428e-02 4.052585548156563411e-02 1.125239485196478512e-01 1.207623233766594133e-02 -3.489449914209271503e-02 -2.896052445057645947e-02 -7.575903734413329260e-02 1.052642942916481340e-02 1.032408713182111082e-01 -1.483164698752174049e-01 -4.026340601535128433e-02 -7.020486881590372145e-03 2.754687623076774658e-02 -1.040521274385179107e-01 -1.070691888235960308e-02 -5.257043587857027078e-02 -4.495600603543706275e-02 3.192271459014353607e-02 -1.023080987231849148e-01 2.472943648873416819e-02 5.807721532491003785e-02 -2.670190540084101116e-02 -5.526184795245198816e-02 -9.324624377583140208e-03 3.392602408881331688e-02 1.355444861567037945e-02 -4.198665740340888630e-02 -1.211262764803182762e-01 2.594488116118784035e-02 4.998865084497930433e-02 -1.208383632221816384e-01 -7.162510926660262123e-02 -2.942865267516520111e-02 -8.426573404394614719e-02 -8.230898777874771921e-02 -7.416301069191719164e-02 -1.371579971710339962e-01 -1.256994179460800831e-01 1.606913819409061528e-02 -1.553150075198081112e-02 -1.006123869690365713e-01 -1.216482771333929486e-01 -1.663357201613684111e-01 -1.308960722132211096e-01 -1.165442103404096541e-01 -1.252785490220325315e-01 -1.117642729299394080e-02 -1.188510938619580237e-01 -1.118558075942952396e-01 -1.687869536618452409e-03 5.077942248115212970e-02 -1.164298591696214802e-01 -9.440213598912915172e-02 2.919094828638207559e-02 -1.281904676980727131e-01 -1.628087333749036192e-01 -1.210590486261995807e-01 -7.621168456590743379e-02 -1.406506166186439200e-01 -4.390013324783759857e-02
1.271593414877138506e-01 -3.893859348787961222e-02 7.924139259993664974e-02 9.223279323156953480e-02 1.050747821647927960e-01 -9.395150074512530203e-02 -2.234208692313276526e-02 5.580552318408803919e-02 7.566266743669007588e-02 -3.832436193696803217e-02 1.402488666804159456e-02 -5.281664561881886655e-03 -3.103084364731307013e-02 -1.274339640894344913e-02 7.075279004676129913e-02 1.767638917854045741e-02 8.315920025956642647e-02 3.060763615043308322e-02 -1.764028543915538210e-03 9.391683798519262494e-02 1.214216156686985688e-02 1.241672370296787072e-02 2.104155832249724953e-02 8.472249920120227679e-03 3.038787656109186858e-02 -6.293277343199767115e-02 -2.550773873719092491e-02 4.345737886888560025e-02 -6.457152047677422457e-02 -9.191232006252584089e-03 -2.239541968401502492e-02 -2.269627922661317243e-02 -7.378083905165494505e-02 3.793101525171112959e-02 -2.317040925837849513e-02 4.595763527766782292e-02 1.082165667891244049e-01 1.664213851170165057e-02 -5.496302998128873435e-02 5.252325349129564891e-02 2.904009728678884003e-02 3.784437295716068690e-03 -6.194240373551258144e-02 2.425267156715052094e-02 -6.307609090261714901e-02 -4.929525070914222984e-02 -1.144314619676225497e-01 -1.257296289395530842e-01 1.194795363957117662e-01 8.297513290749343462e-02 -3.581717258977264867e-03 8.642541321944274824e-02 3.323108950275131812e-02 1.344335148763219729e-03 1.116625605289098266e-02 -1.234576558827055713e-02 -7.110827822965602729e-02 5.964191415080608016e-02 -7.346399194525569942e-02 6.183169439157386316e-02 -7.702154510869474446e-02 -2.652299130020614390e-02 -7.988372428548295989e-02 5.556370068574912474e-02 -3.572109580113286970e-02 -3.819724182247721117e-02 -8.192480575438232382e-02 -6.786504415142276259e-02 -1.248983049708271521e-03 -1.003940466714587643e-01 -4.615384754012333973e-02 -6.646220947963747683e-02 1.054353206738714854e-01 7.437245644380069409e-02 -1.670641370859971345e-02 -4.699138217384037086e-02 1.885035140243003504e-02 -6.369175568233706453e-02 3.004356629512400581e-02 3.603000357155766026e-02 -1.372936747962676396e-01 9.034562502703298581e-02 -1.377763207840511026e-02 4.417729075069259936e-02 3.758113581856328128e-02 9.767414476883864299e-03 1.268707722210217907e-05 -7.856280225236188242e-02 -8.369592518226963429e-03 -4.411941719114287341e-02 -9.773757894859434747e-02 -1.083965161943611644e-01 -1.158157295388199393e-01 -1.605774588556989901e-01 5.833261207158500598e-03 -9.142902451239616479e-02 8.506002291761412260e-02 8.575831098075932524e-02 1.931854794521994934e-02 9.387261464099457692e-03 -1.562640002278315593e-02 -4.546597172928936587e-02 5.279594397026242392e-02 -1.003616132127252147e-01 -1.213230466796266643e-01 6.619992400862854953e-02 -7.445435260281121903e-02 3.504896449791432278e-02 7.622185780726929705e-02 -9.349433752807347064e-02 5.217003275062713497e-02 -4.757258773557960368e-02 3.949380468261117633e-02 -8.196004105761763026e-02 -8.739303249144003694e-02 -4.958545339870489010e-02 -4.838738733824704541e-02 -1.258118728261481238e-02 -1.514450385457467851e-01 -1.523528981595935645e-02 1.576135964561005964e-01 -4.048231742507396748e-05 -7.853404081338344334e-02 -2.405336593934028974e-02 -4.812810918419668099e-02 -2.782492086467904663e-02 4.328355372828564251e-02 -7.592876979267455806e-02 -6.196104023405151623e-02 5.533558539241099222e-02 -1.286117191251459624e-01 -7.320214585327247669e-02 -5.118628359996220401e-03 5.295065627768986288e-02 4.370800168597574475e-02 1.522744939584137584e-02 5.705108844773335713e-02 7.507877319095551671e-02 4.783050996173733582e-02 -6.658734619440227764e-02 9.066553526141328534e-02 -1.018214627841277781e-01 -9.288272727745568169e-02 1.406118864787887822e-03 1.427817710273168172e-01 6.732517631711180950e-02 9.304373806770573074e-02 1.026433163624570488e-01 -1.519298850553853393e-02 -2.662974965180029546e-02 -1.627564411786418599e-02 2.511412690646173604e-02 1.985564862689835619e-02 -2.867214931869518577e-02 -5.935311942971224775e-02 4.119823538685248726e-02 6.408775600123234328e-02 -2.231235757663568159e-02 7.983847101380765754e-02 9.811829072956988751e-03 8.799001916127251188e-02 1.044275447706382864e-01 4.205240730328052567e-02 -2.211011476710202442e-02 8.596546815825534260e-02 -1.936426484758928951e-02 -2.451424415702390183e-02 6.491904345668124410e-02 1.474147044832973819e-01 5.289837893970560784e-02 -8.034950368865817136e-03 8.693283784594353636e-02 -4.205540107871481859e-02 -4.636119864764624843e-02 7.606514014075300978e-02 5.718135728067991197e-02 2.176559544894569181e-02 -1.884888809014583638e-02 7.992412197326000112e-02 2.579448263437903247e-03 6.933394985715871095e-02 5.192556763265956249e-02 1.382495827537766064e-01 1.126406852412871751e-01 1.304438016593892080e-01 1.506325058405114381e-01 9.691493428523802189e-03 8.054488975064780232e-02 1.528649304203808790e-01 3.691339490330382278e-02 1.493260090559689161e-02 5.846111410831401900e-02
-1.189333164523448741e-02 -1.430535434373415848e-01 -1.051919312688932434e-01 -1.092034711763955335e-01 -8.841164648444253815e-02 -4.990860619121396946e-02 -6.962469659841939718e-02 1.467749255918753340e-02 -6.089088451946662872e-02 1.966346137552692913e-02 1.759827522718721698e-02 -8.843385864940314645e-02 1.111196545820674134e-02 -8.025056546901421228e-02 -6.729380998328245156e-02 -8.745269626118655146e-03 -6.113697715360129348e-02 3.910445668951393478e-02 4.837490299375252906e-02 2.929688114330552748e-02 -4.619721967582464395e-02 2.864336903670285442e-02 -7.780903644377543116e-02 5.816238661319474493e-03 -1.388596923349171564e-01 -5.166088093215858573e-02 -9.746241478274102199e-02 -6.975300432017432495e-02 -1.113345764390518827e-01 -1.166903730131053224e-01 6.260100375243029570e-03 -7.601837927913988879e-02 -4.743822228152904524e-03 2.533655346665495203e-02 2.671752258625760892e-02 7.891860602445532891e-02 -7.304164125030643100e-03 -4.728958269626426514e-02 3.468702855722843176e-02 7.042622264297007662e-02 -2.668196238231201542e-03 2.391320141420912732e-02 7.325745518132101286e-02 7.087123632446798438e-02 -5.385111194703075428e-03 -4.880456767635824034e-02 -5.956340152766517043e-02 -3.878060313132688369e-02 -5.599429929000126344e-02 -6.457792274618034956e-02 -1.091887822571020461e-01 -7.335727632982749769e-02 -6.877756637736719136e-02 -1.003095154348666029e-01 -6.950116334172382060e-02 5.257906559143052383e-02 8.136316814959332973e-05 2.152049343919228662e-03 -5.607291473130910676e-03 4.786292773908383535e-02 1.350133536500431608e-01 -4.258824668965841692e-02 4.143043123813167777e-02 1.475312543520318209e-01 8.491081519401118619e-03 6.660472846739994013e-02 3.847375249386134760e-02 4.328015785874563676e-02 2.694482116109429143e-03 5.506289716464939088e-02 -7.968458276316548947e-03 8.654546495238817127e-04 -3.615242809687087971e-02 -8.257702548343895388e-02 -7.433537374088183824e-02 -7.040817823099326800e-02 1.485487514473354288e-03 -1.075214357293179518e-01 4.873767759769444957e-02 9.074174141023625892e-03 -3.312303291459368915e-02 7.218636242929625524e-02 9.423024822495515429e-02 9.742594294091552753e-02 5.029321316312378859e-02 1.011771511794188616e-01 8.382180709361841675e-02 7.340780872998506346e-02 1.251721430475346564e-01 4.021701260604836070e-02 -3.299724469974778945e-02 3.581031135245628383e-02 7.741315820721417218e-02 -2.254404635305985727e-02 -4.588674837670926598e-02 -2.529915254833911900e-02 -4.030161268691567766e-02 2.994220191762712868e-02 7.349066293993297694e-02 -1.210418690275050224e-01 -5.488960571497149277e-02 -9.208235846844602113e-02 6.766610769069361653e-02 -3.217277224969639082e-02 6.379631018663497154e-03 3.334090536164580065e-02 7.030892780824002375e-02 1.105782861783447951e-01 1.285637422964971133e-01 3.187299824044376021e-04 1.450388184333892549e-01 3.265505263494426769e-02 -1.945005988869437027e-02 -6.543864120609137192e-02 -1.895823626987677007e-02 -9.088453035255053547e-02 -2.490152032481503588e-02 9.075659661323423610e-02 4.091899834915102563e-02 -2.075655659451957138e-02 3.895666082025053129e-02 3.125242599124300469e-02 -4.438651155623336841e-02 -8.276163209069235804e-02 -9.755021210324905934e-03 3.892728252654110987e-02 3.854035130155740452e-02 -8.204639184096940499e-03 -7.031299965087738080e-02 6.528533297059692375e-02 -2.615975632697325678e-02 1.495031874457550605e-02 -8.042762400216428575e-02 -9.174521054851228485e-02 1.860861531846331324e-02 -8.061951438224701505e-02 -9.880197261147552479e-02 1.364015439059669196e-02 -6.771371018248277529e-02 -1.194039916162531051e-01 -9.637190524842779993e-02 2.696459790024855266e-02 -1.157099171761918621e-01 4.978990216257635909e-03 1.859501183927056434e-02 -5.032572343027196839e-03 1.140505266909960097e-01 -7.804964989727768143e-02 -2.940700531978785587e-02 6.068480743470714561e-02 -1.245093414106675789e-01 -3.739645532224400437e-02 -5.730694451460612016e-02 -7.419354715465684494e-03 6.424304895709044561e-02 -4.456815975850857148e-02 1.679461438040995291e-02 -1.484204311998552593e-02 -1.434321038605813059e-01 -4.768369953592019317e-02 -9.122045347509628865e-02 -2.628522938457972247e-02 -1.626271895246494611e-02 -1.094278693731792901e-01 -6.706850941369736641e-02 -8.890791333159528409e-02 -8.976457539367596605e-02 -1.387839787228563604e-01 4.762199534366631792e-02 4.185005667143407160e-02 -6.162518226837589153e-02 3.854709600046260509e-02 -7.693681033054523832e-02 4.589072635172995740e-02 -3.869042764961863612e-02 -3.116641359590725802e-02 3.072063053037990543e-02 -4.173722487642227141e-02 -8.183682798527258662e-02 2.893739761000326677e-02 -4.953022279545577639e-02 2.236554631788639433e-02 2.582014070949104415e-02 5.935512927717642717e-02 -2.813826095552004330e-02 -4.476937495771342312e-02 -3.585910180168127431e-02 -7.615022860006966099e-02 -7.606959864564476204e-02 -1.162027803229058881e-01 -8.301149782089051188e-02 -1.614009517023090035e-01
7.787239265517251208e-02 -4.214848817474520920e-02 -4.471449503935266516e-03 6.300363710370128489e-02 9.287435451150664878e-02 3.329909536132214659e-02 7.377315335477831193e-02 4.995934999446516485e-03 3.064121559374128820e-02 9.251650755953158556e-02 7.443487514895237578e-02 4.103876133771946003e-03 -1.886977993967841119e-02 -1.478354333747665568e-02 6.368551388606276398e-02 -1.416563525988287151e-02 6.294653425058810078e-03 2.910473331051106199e-02 5.897998406322952497e-02 9.591832568110478588e-03 -4.916331549072268381e-02 -2.102940562998537738e-02 5.277870129951112155e-02 3.848674161877357197e-02 1.108207535466002869e-01 -7.069707441644874912e-02 1.556592976009895865e-02 7.300520529872137065e-02 -5.474000070388377465e-02 -2.662912742121245971e-02 2.300959346878667100e-02 -4.805310489807773644e-02 9.634603414996837506e-03 -4.336333435254777907e-02 -6.043388657322053964e-02 -1.023653396483878153e-01 6.358900140576564941e-02 -4.937551165732455283e-02 -8.238642654561097178e-02 -8.563078177947466840e-02 -2.663425858454106926e-02 -8.720808563437958127e-02 8.410766473479821398e-03 -5.231968920216784058e-02 -3.392759741162107434e-02 -5.310165370901268056e-02 -6.452933551698659953e-02 -6.934423311902022935e-02 -4.763808430887538775e-02 -1.011538924748613261e-01 -6.750653765764333403e-02 -5.449534483047378808e-02 -5.691352629660363649e-02 -9.750906151744800909e-02 -9.986566350092124233e-03 -5.952636952211553395e-02 -9.681470704883268774e-02 4.547302915447754001e-02 2.113687722587702031e-02 1.250604674475253725e-02 -5.962854777705662440e-02 -1.013335040779799051e-01 1.016679910373616920e-03 3.382726283184055854e-02 3.018535672636447550e-02 -8.660348749711457850e-02 1.862892748150115144e-02 -5.955020112652292114e-02 -5.415575529325002829e-02 -7.350796696751163428e-02 -7.654657932661719510e-02 -1.293643067598684304e-01 -2.255969782566035961e-02 -2.094845302346419295e-03 -1.000251645929389477e-01 -6.232730054833256900e-02 -4.527406669178435372e-02 -1.075339999454905798e-01 6.876234972558034619e-02 -3.970575756056284045e-02 -3.202483174105785757e-02 -5.159565692922358886e-03 1.055772293830821440e-02 5.533223429808285798e-02 3.484310738712190908e-02 -4.456541792891206312e-04 -5.602716883548117255e-02 -6.552434670613238588e-02 5.237883290704094252e-02 -6.513549263223121499e-02 -9.754496148352098661e-02 -4.853868808457578038e-02 -4.708038572420188833e-02 -3.247510331896533847e-02 -3.291052569611214312e-02 -9.255985728365256904e-02 -2.134834302643575515e-02 -2.107703451501514828e-03 -9.760307232984666292e-02 1.009860164616972894e-01 -2.386958839378956754e-02 -1.280710114822287277e-02 6.859754814663113209e-02 1.421305371620675689e-02 -1.895618105204890588e-02 2.725278749892055125e-02 4.978134269694037273e-02 1.158251727809181258e-01 1.012569316662123853e-01 1.032558154540210715e-01 5.885235833675170336e-02 1.602875496503901320e-02 8.123558780027093388e-04 -1.248762476535809213e-02 3.846539946532547168e-03 -1.166346547234354582e-02 8.492922933401854391e-02 -4.273212579154977986e-02 1.182710067048241553e-01 8.505403520091819880e-02 2.506071211758748377e-02 -5.848302903355317300e-02 -9.772446452789240734e-02 7.269350797953810783e-02 -3.016373565717630871e-03 -9.093617417143966264e-02 6.652242349681564137e-02 8.023578918661747328e-02 6.924922219353008002e-02 3.547315919426382441e-02 1.110867854481772388e-01 6.995508305690822937e-02 4.722670744450403746e-02 9.459328800041941210e-02 9.976418274868270597e-02 -4.768398837574367582e-02 -1.293895972237908004e-02 9.558046990920168740e-02 -1.820731137311324766e-03 4.989716259270231095e-03 -5.041943902964022423e-02 -3.470274967426335150e-02 -5.656213301929887555e-02 -2.941836124781246290e-03 -1.333578761548531461e-03 -1.201544873945998154e-01 -1.406746530593732669e-01 7.216766683207412325e-02 -3.655437172192493173e-02 -1.068678096580712999e-01 1.120591506045836572e-01 2.371797642333652381e-02 5.279946860605534004e-02 6.732898350055852021e-02 6.360472718239638945e-02 2.410475460080224730e-02 -1.108273654049798523e-01 1.004561223168976003e-02 -6.603323262954047257e-02 -7.247207268695705917e-02 -2.954108767911182987e-03 9.500933675827273953e-03 -1.124013756354977495e-01 1.644937024072262374e-02 7.126054043218996159e-02 2.858571169304885418e-02 7.644665894679311680e-02 5.506368009078774911e-02 6.704774125468175583e-02 -1.046233540939821016e-01 -1.262787089083999836e-01 -6.447087402390461880e-03 -1.922387101649146793e-02 -1.508149756041983827e-02 6.311444725228428088e-02 3.912167840645500855e-02 -4.608685041196255994e-02 2.643347865925022543e-03 4.716175354003873492e-03 -2.435757113973626570e-02 -1.181215106874098503e-01 -8.207207174001884820e-02 -9.424614018037050234e-02 -1.317279829187322504e-01 -7.861263610347898889e-02 -6.601117554250392205e-02 1.622203550963305374e-03 -7.614424770763709993e-02 -8.312239727347292551e-02 -9.879365261993576508e-02 -5.901252225780112548e-02 -6.718183372283845212e-02
-1.007082351803466197e-01 -9.307917177199409586e-02 2.280731249444237219e-02 -6.140190302825716817e-02 -5.933049656843725206e-02 -3.917331968458405422e-02 -1.137301896092007547e-01 -4.495106288532795674e-02 9.581829482719926572e-02 2.750667721570114466e-03 -5.320059441388316768e-02 9.829665034538111190e-02 2.128415229868013681e-02 8.028753756071020653e-02 1.143377474410315064e-01 -4.620779282182327363e-02 -4.108246442653836730e-04 2.970707643312502609e-03 -1.035029771573782731e-01 -1.420084380428626725e-01 3.100962965857569087e-02 -5.819671218281605857e-02 -1.330884152018686761e-01 -1.046480219891307295e-01 -1.184841819139087482e-01 -1.310719690763517686e-01 2.141102744026043836e-02 -1.603708009691159064e-01 -1.411074086406108041e-01 -3.315254398737510488e-02 -7.988039221182272054e-02 -9.706522538728451152e-03 7.584340899808214576e-02 -6.714002688802531149e-02 3.860724253127414962e-02 4.169850781182329186e-02 4.721704537129218365e-02 -3.543743811989447795e-02 6.322220469196818127e-02 -7.220428523985365776e-02 5.517874295526497413e-02 6.477876073384015998e-02 -1.457091212069613340e-01 -7.439821073714833477e-02 -2.882949065784945475e-02 -7.232083794006251287e-02 -1.299650181884459410e-01 -5.780388598765808655e-03 -1.663226887459045081e-02 -8.037663426916710763e-02 8.141894547750137823e-02 -1.100486125436193757e-01 -1.240776279389345510e-01 4.016537737630554439e-04 -2.181143198157576429e-02 -4.826136432950300925e-02 4.185153049527483293e-02 6.944054396280229836e-03 2.477162601644223444e-02 9.866002102925454376e-02 4.247412358273463390e-02 -9.482452442672933621e-03 1.519818106707025163e-01 1.348864285172201270e-02 2.355368866697661948e-02 1.138853392764411360e-01 -5.788900086998655797e-02 2.092096377680771266e-02 -2.527387327003460110e-02 -1.488224012829707510e-01 -1.219806578244937434e-01 -6.809285190385568065e-02 -1.100309043037134699e-01 -1.830632801951255842e-02 1.168712631402871877e-01 -1.031768918294007076e-01 -1.460149849446777236e-03 2.536627323814300006e-02 -8.059592564703775552e-02 -2.678705110677804743e-02 3.043193585325905393e-02 -1.991785557072696736e-02 -1.722060293461798175e-02 2.563948384663040925e-02 -3.074679813293531780e-02 -4.842904200596172964e-02 3.223651548705840086e-02 1.024761088437581985e-02 3.007935201322988611e-02 1.321638996007014066e-01 -4.041865349084956816e-02 -4.711289560980896213e-02 1.311659957991724926e-02 -1.453049236175382175e-01 -1.479049277512613780e-01 4.934972889521571648e-02 -5.614983282157159222e-02 -3.126934524159813433e-02 -3.630521685572837376e-04 -6.561036943308677823e-03 2.694932469468167349e-02 1.330534796406683540e-01 -6.138427613711175401e-02 -7.929191492855116458e-03 9.415401442981112534e-02 -2.361760587430354608e-02 -8.859218486245482027e-02 1.508093425742880814e-02 -4.067318892598922875e-02 5.036994889705680156e-03 -1.127239292820619333e-02 -3.081105148512841910e-02 -5.474147170406122587e-02 1.355804272734269789e-01 3.739906767682449340e-02 -5.525350875943218359e-02 1.203047733180786089e-01 3.120136901498622630e-03 -8.737853408299672830e-02 8.646744017154577716e-03 -3.363580186166824360e-02 -1.330911760394354153e-02 3.692705703691243763e-02 -4.243980179307554196e-02 -8.675150916086090194e-03 3.028146754587184020e-02 -6.546487869947964500e-02 9.207855824368481323e-02 4.673485179847811782e-02 -2.930792113276564984e-02 -1.054427425097356763e-02 1.215314003442140717e-01 -7.710243219184280405e-02 -4.879260107307330924e-02 5.916254955260683013e-02 -7.384607823772527946e-02 -4.192341176493565025e-02 2.384969716769603024e-02 -9.036885644486016347e-03 -1.243141022777214527e-02 4.771598977794719310e-02 -4.147934872621982655e-02 -6.329948678082980562e-02 2.928595763960687576e-02 5.420073341319191738e-03 -1.346968241127896072e-02 4.098132271353853440e-02 4.668888962395416342e-02 3.201483063195489920e-02 8.546951940643238155e-02 3.861493691195169720e-02 7.844583538146039647e-02 8.731769643957286442e-02 4.806159394945202362e-02 8.917391271015415177e-02 1.420551020049910795e-01 -3.881480479732463129e-02 -2.893985862666874007e-02 8.337467458736320947e-02 3.280547955248815355e-03 -4.228613330145874344e-02 -5.221106725303178986e-02 -1.766290214772619355e-02 -4.208781251577331517e-02 8.002388985340552763e-02 -5.834053765820268467e-02 -1.071952537124094967e-01 1.059779511583447582e-02 9.176612368231117089e-02 6.743060863695264640e-02 6.707434492698093054e-02 -2.186334997245011416e-02 6.709469884664202161e-03 1.458939102276526623e-01 4.584992181799658201e-02 4.113621475623002038e-02 5.566984283250737964e-02 2.010133122357804156e-02 5.343607063723135320e-02 8.207218592250201117e-02 4.214792288817363619e-02 2.291924248805224384e-02 9.496461055775319571e-02 3.451668949568693912e-02 -3.699413455459336225e-02 2.072765195937162006e-02 -2.064894583617641905e-03 -6.201648472043333471e-02 1.403182180519738434e-02 -5.658076915213086470e-03 -4.933750415443424048e-02 -3.770783804869439620e-02
-9.471655636933157263e-02 -1.244731059625099057e-01 -1.307951898247750044e-01 -5.074319501629454693e-02 -7.674568015323184056e-02 2.384632938391387930e-02 2.955682804724210633e-02 -4.250278870802848274e-02 -1.010681533456711002e-02 1.089894998215868577e-01 -5.651142543542975877e-03 1.015365057457082165e-02 8.106379894472034997e-02 -1.192018946657748615e-02 8.258278484019755672e-02 -2.522690415945696985e-02 -1.744567145993967255e-02 4.527661482504549001e-02 -2.104534642733560043e-02 -9.155400079376617428e-02 -1.046711334451652931e-01 -5.299712627937514658e-02 -7.784532923876533173e-02 -1.184230859193502600e-01 8.714840995204179222e-03 -1.291154706873052505e-01 -3.158260296554734475e-02 -2.026357536855519226e-02 -5.675067271474645847e-02 -2.820700834099830120e-02 2.897873075188019468e-02 -4.804288192367192796e-03 8.141395194314123007e-02 -6.335225552504546165e-02 2.118183680961493315e-02 -2.201504260537375315e-02 -1.364533619762101427e-02 -7.372635927516631160e-02 1.406752391631804419e-02 -3.847914723805816173e-02 -6.793783150074947375e-02 -5.923575189886667175e-02 7.598112042402178912e-02 5.364689949455156426e-02 -3.016613562120716747e-03 2.405545270332672472e-02 2.127122958502308814e-02 -3.889428799412120163e-02 -2.464094461890693408e-02 -1.130244157841545083e-01 -1.825229345410057241e-02 -9.867315131549098117e-02 -1.136486548814779340e-01 4.930620442114518054e-02 -2.920666138981178536e-02 -2.074688218365381906e-02 3.591861441879150036e-03 -9.604452942553824701e-02 1.832841012241489403e-02 -5.674844311446124862e-02 -3.606066394496125482e-02 -1.021224741578420914e-01 1.538375104130665014e-02 3.704331468519673088e-03 -5.402713673775078745e-02 -6.204658601003834595e-02 9.708267280276579314e-03 -8.116570209318592355e-02 -2.342279621756245944e-03 1.166615398858455999e-01 3.043025130542056748e-04 -2.578829211435891555e-02 -9.541924213230562613e-02 -1.201374039703814317e-01 -6.318652963713253246e-02 1.141985768149022390e-02 -9.545578734882202709e-02 1.040350299579259757e-01 -1.851348650643470581e-02 -3.675029134382423041e-02 -5.608077479643366198e-02 -1.313379141802389558e-02 -2.606905691120918814e-02 -8.241936284569456594e-02 -5.829811433619198902e-02 -8.516899583636668158e-02 -1.122315648745108030e-01 -7.078101661668869705e-03 -1.426375129225771476e-01 -7.914849582884891932e-02 -2.956607280727440237e-02 -6.959418579951216766e-02 1.206464192671127637e-02 5.030295001929896426e-02 8.814726578378738074e-04 -8.069166056348087146e-02 -5.215616239752612210e-02 2.020502499387471021e-02 -2.443282628418189453e-02 -1.104689058777194588e-02 -1.869444817204821488e-02 1.888540137475048716e-02 -6.576759997814572711e-02 1.736109991509307560e-02 2.700013147377589365e-02 -1.411094968019725379e-02 -7.870915846217406420e-02 1.646083991959197733e-03 -6.227731525583391631e-02 -2.531236286319070786e-02 -1.064710805023442661e-02 1.051887243389871933e-02 -7.420085919585213408e-02 -5.476447486939250986e-02 4.757158900072162161e-02 3.509079074168516138e-02 -3.596338601830462167e-02 3.469920123702938813e-02 3.379036036007412175e-02 3.142526545573354896e-02 8.196744211749025510e-02 -1.499293149054686846e-03 7.238904825595560144e-02 -2.385515198784170579e-02 -3.270068991494606142e-02 -4.215786906538196432e-02 -5.775695851367349670e-02 -4.629168887110719777e-02 -1.263825064248840988e-02 -1.698139025012714368e-02 -7.751902516500526474e-02 -5.322823202262990175e-03 -9.861859980028221673e-02 -9.938166852065340173e-02 -3.988397522505321424e-02 -2.818115131555557623e-02 3.735098260323684721e-02 3.358553861203322083e-02 -6.192488171471009079e-02 -3.200533769930343636e-02 -6.059323332469539192e-02 3.953997940147804813e-02 1.328515660016593193e-02 -4.286217862561346459e-02 -2.833886390138140587e-02 -7.177317340243720423e-02 2.422411802532980704e-02 -1.310878506246381490e-02 3.881655657633181072e-02 9.459980118310530595e-02 -3.061459064056231208e-02 3.957329083906416939e-02 1.173304103395179376e-01 -3.216071423623985404e-02 -5.563371661769047488e-02 -1.164352651774632347e-01 -5.561897384598338268e-02 -9.977136901612140840e-02 -1.120399366322757384e-01 -5.085039833728623171e-02 1.916911449624732547e-02 8.081723090959699873e-02 1.158671002460828214e-01 3.338864956282693031e-02 2.937797031992744196e-02 1.717291089967013240e-01 1.645007201877624337e-01 9.795616900799965221e-02 -8.191970890121268167e-03 -2.046842320633751947e-02 1.126837947717760496e-01 -1.514040951633252412e-02 -2.153052489021123339e-02 2.136243710160478856e-02 -2.376747935968604938e-02 -3.192627809589064503e-02 4.794650726366450622e-02 3.830430302400701648e-02 1.273947972135245840e-02 3.789370373276613330e-02 2.068726061397752405e-02 6.312722987118613016e-02 6.486090425377492689e-03 7.295845617616900092e-02 8.136665204114978955e-02 8.367855830620737900e-02 1.333642176468804175e-01 7.200565317258753040e-02 1.617365041025314587e-01 6.025332934607578045e-02 1.807120686539477883e-01 1.193398475774804929e-01
-7.018296570450881233e-02 -8.939236537616554457e-02 -1.063728575426874101e-01 -1.165759189145247066e-01 3.846495248368959636e-03 -4.939894499989902358e-04 -1.139168587810255318e-01 -5.396350967354721778e-02 -1.072440290467559926e-01 -1.694911698084831386e-01 -7.472701203825941885e-02 -2.024069004287016582e-01 -2.119196602758720294e-01 -1.260859903697956752e-01 -1.302589225071354440e-01 -1.265480489723263269e-01 -1.814480640910570985e-01 -5.813345863830062660e-02 -1.056035810562736682e-01 -4.426134836002668972e-03 -9.130963758569540789e-02 -9.805164323094374412e-02 -3.025848769470509264e-02 6.491399756127401270e-03 1.037482596843921669e-02 -2.522623682563801539e-02 -5.974070545313786562e-02 -4.454207191352500816e-02 2.185272529954864276e-02 2.797211659935644815e-02 -1.812457121371458327e-02 -8.926912180331458835e-02 -1.079437672597581832e-01 -1.268170081114514403e-01 -1.086293126094760031e-01 -5.564661732450667392e-02 -1.013031453578014801e-01 -1.306681045342986680e-01 -1.518263082951638865e-01 -1.273995777557347941e-01 -1.185072639031754249e-01 -7.473828245484548383e-02 -7.883261067119066989e-02 -5.836560268086751074e-02 4.901983748525281376e-02 -5.485499160413843250e-02 6.061952931367107361e-02 7.407616675230217773e-02 2.293418716625991380e-02 8.000894298604076943e-03 1.568090227186851038e-02 7.553622869077900037e-02 4.263022536128104750e-02 5.367496677607020567e-02 3.750896666524591860e-02 1.034266731053527615e-02 3.002101031669676331e-02 -5.032749864721512006e-02 -3.104451195356706245e-02 -4.810017558704488688e-02 -9.511447315261202518e-02 -3.222332615740160916e-02 -8.389555131880771510e-02 -1.057433991031985904e-01 -5.090980818705764105e-02 6.794451639940639331e-02 2.999257231846832669e-02 -7.877215540041361541e-02 3.823324944223178978e-02 5.310112989781459042e-02 -3.371349165456421181e-03 1.162582169193938086e-01 2.193595488504809440e-02 4.033337054751380546e-02 -2.986732939692764502e-02 1.747496497303679258e-02 4.077053999329427469e-02 -3.219826580045011266e-02 8.175993051065608141e-02 6.202424485392014214e-02 4.132759736843803766e-02 7.844999271100145874e-03 4.898732315015788541e-02 1.888821221162681821e-02 -3.240626887932193082e-04 -7.485795906518096648e-03 6.405002220985769879e-02 -1.965139546416644692e-02 -6.124301783022287338e-02 -8.287765728909147339e-03 -3.193194554415618776e-03 -1.025072343524718876e-01 6.719932415064264197e-02 4.123895348820506845e-02 4.825583081803570817e-02 2.783243256854857003e-02 -3.516986328462703287e-02 3.249586713782357666e-02 -6.870153857930496114e-03 -5.165561692047585668e-02 2.450414663515787170e-02 -3.537774088716474225e-02 3.431074287784320609e-02 2.924470524751394268e-02 -5.323015074421540843e-02 2.908661015606477107e-02 6.842854205623791208e-02 4.038456680951609673e-02 -7.437829049653134871e-03 -4.375361740439319413e-02 -6.294919968548787562e-03 5.326197888571445466e-02 -3.964966959777495303e-02 -2.879781386962442652e-02 -7.475988974020543291e-03 -4.566705733829402175e-02 3.544169919515899325e-02 -7.629690739576500125e-02 -2.218078711543403428e-02 1.234586449689047405e-01 6.921186470952690739e-02 9.812808965623416591e-02 9.194875430360636981e-02 1.076703988806308604e-01 1.036731652214240573e-01 3.353349378220198823e-02 5.342199593424262760e-02 -1.252293131856695857e-02 4.247875835144369894e-02 2.999139959454366622e-02 9.825907744412680500e-02 6.304481225147103018e-02 3.445446371398364765e-02 4.516773211227543411e-02 1.901232229483410668e-03 -2.538142362097215929e-02 3.382871843257774513e-02 5.364658904691123331e-02 -1.159390808767862963e-01 -1.162912409096782673e-01 3.596071740178212461e-02 -1.050865103451430888e-01 -3.279909165845160124e-02 -6.442920895509754442e-02 5.225859989129759409e-02 2.791081155283360246e-02 3.553291192369656404e-02 8.281421057694020316e-03 4.668961151609744842e-02 -3.451463938246220834e-03 1.031330839290451815e-02 6.822906331600700133e-03 5.255058938227259724e-02 9.653269611390265237e-02 9.340750531507640078e-03 9.433687949720324928e-02 2.259848846623058530e-02 7.005431390565451666e-02 1.048396295184746974e-01 -8.383292656934009102e-02 4.540316868790623267e-02 1.037949860579200217e-01 -9.809696492978869919e-02 -8.250708766828514229e-02 3.593624973242666443e-02 -2.314736570472898658e-02 -1.607532413560131511e-03 2.693392021095313699e-02 5.572740271066262824e-02 4.351711555792726893e-02 6.834121175126262049e-02 7.419296651607355797e-02 6.854424892582396123e-02 -3.251964144346756319e-02 8.383956879586851318e-02 3.603479999437739917e-02 6.795526321555006577e-02 1.994006113396119828e-02 1.279903627348140394e-01 1.258438916124870674e-02 4.642878349362237513e-03 1.944624125644064602e-02 3.717067051425314989e-02 -6.279319322271735559e-03 3.149735321821754697e-02 8.196193748192445727e-02 -5.652398970304263470e-02 5.025501763027206276e-02 -7.496583520932258160e-02 -5.488905801191665962e-02 -5.994016484028152902e-02 9.304769922584885111e-02
-2.976183721836599821e-02 7.952239618260500964e-02 -1.525245126796418160e-01 -3.229113800575163923e-02 9.484433526991635499e-02 -4.268815911101406235e-02 -8.159271445904996145e-02 4.116642981290016823e-02 -5.765220775223164895e-02 -4.590738881514858094e-02 2.551729989886688046e-02 -8.104609796088009521e-02 -2.581376538758812372e-02 6.100919289155287001e-02 -8.139582001205211692e-02 -1.464884909251480336e-02 -2.802754761016107085e-02 -4.624837274970990120e-02 -9.171723502985573012e-03 8.709328010433338429e-02 -1.469113945016928824e-01 -1.606819863911825852e-01 -1.320678254306409047e-02 -1.553511624252297274e-01 -2.613562590182196346e-03 8.775695045662228189e-02 -8.273471390791109492e-02 9.461595569638493741e-02 1.026384941092169101e-01 2.036291670364296161e-02 3.107417466704617826e-02 5.271256868820493879e-02 -3.433718471809100309e-02 -4.416481611205394509e-02 9.263397807424296471e-02 1.814064344284025548e-02 5.473751103163153331e-02 1.410176415175646257e-02 5.227509012666696486e-02 2.876612058539471106e-02 5.322604021946481662e-02 6.277493615083639712e-03 -9.296727255992912053e-02 8.902326906853365307e-02 -9.077882173010567990e-02 -9.124436970670452007e-02 3.242841593646580891e-03 -5.303915869797200255e-02 8.089164911113681800e-02 1.221267535190423553e-01 -5.075732433435809626e-02 2.147940525822026464e-02 3.825760617908883360e-02 6.048281107660014033e-02 3.265058880627490223e-02 7.665051035873978250e-03 -6.769272918028568231e-02 6.067315173782877186e-02 7.634063730502427259e-02 -4.930727947775895986e-02 9.208085352962012970e-02 5.815971111937417309e-02 -2.919758349066217326e-02 7.931414468793170081e-02 6.156500149633700042e-02 9.116491681071814401e-02 1.266344377916240292e-02 3.841240091915146954e-02 -5.305066396942599571e-02 -5.831439050957618053e-02 -4.667239715461518612e-02 -1.815668417213054178e-02 -2.063133867314911191e-02 3.216669030828857301e-02 7.375314331013205563e-03 2.604893335102992369e-02 1.212028377967610954e-01 6.984306323704045361e-02 -1.057618873097754958e-01 2.118575484935732514e-02 -7.810215902241499086e-02 6.624461749628170410e-04 2.969906698959486405e-02 -6.469240483459362534e-02 -1.770500446613702122e-02 1.084902786527103674e-01 6.602601727050066982e-02 7.314500529025218245e-02 1.616896897366648933e-01 1.378913210964907710e-01 -3.919094124022035053e-02 7.609480562840205409e-02 8.721722828591911558e-02 -5.717718814236321528e-02 -6.227504359525899529e-03 -6.936295379154683305e-02 6.959837376139818566e-02 8.701885299115839911e-02 -6.139604626479605587e-02 -8.089811164623700313e-02 7.093429840180962009e-02 -9.052887507200242656e-02 -5.490564651744128666e-02 -3.867695166040039517e-02 2.822270621121575340e-02 -1.747359990656932247e-02 2.485849123761006696e-02 -5.661323832353084423e-02 2.857608374885587180e-02 8.002173930440892313e-02 4.550395370773797216e-02 7.773843040571311314e-02 1.190276750557276164e-01 2.387226291425512473e-02 5.835477160624501225e-02 6.394930421116029606e-02 1.182390269178264092e-01 -5.533615259397418884e-03 9.654159011875798613e-02 8.544184732009615924e-02 9.996850920662046162e-05 -1.760077904943238916e-02 1.362591239129125678e-02 -1.517797749564266455e-02 7.731626298299841549e-02 -8.728545399741921562e-02 -4.996141148852235175e-02 -3.776204945724803003e-02 -1.722097249309608585e-02 -5.556714059128469579e-02 1.492499090553017251e-02 -4.363652212868029956e-02 2.892991452565021882e-02 9.401251639774012292e-02 3.414405262759086235e-02 -1.169278248134013494e-02 1.294305866382831627e-01 1.061701923994754588e-03 6.781374435645855063e-03 1.245478704134818787e-01 -2.165605256739153509e-02 -1.272513314702392907e-03 6.152005125599657731e-03 1.048310636054359743e-02 -6.922156902556100833e-02 5.654855229453357307e-02 -2.027077935452511678e-02 -1.691474417372870742e-01 -5.888145685024408910e-02 -8.802039713099818474e-02 -9.721542561049628661e-02 4.767006161485733834e-02 4.325090516194258529e-03 9.422042745698118102e-03 5.965146860225751385e-02 -5.279657925278044561e-02 -3.674502542683834305e-02 3.454038271591328146e-02 1.894636982802943778e-02 -5.780105624973469469e-02 -1.940207684465128368e-02 9.864056835925753830e-02 2.222868074240599151e-02 9.496596040945709527e-02 5.374699844311777580e-02 3.076291941595551277e-02 9.326628296853226030e-02 -1.304906107521246021e-02 -1.491662998155970921e-01 -4.502078576382214509e-02 -1.069115255923698132e-01 -2.041340894761692337e-02 3.874568709213755541e-03 -7.099697801797937025e-02 -3.920974823040115215e-02 -1.607456744338729704e-02 -9.721920510266948701e-03 -2.527013322597173803e-02 5.960818916300176899e-03 7.124430615114045462e-02 -2.005644426852517398e-02 8.250096585316317064e-04 4.033618412736074584e-03 4.256248746821088280e-02 8.858658307710778890e-02 5.891647022659680932e-02 -9.468310405056133694e-02 1.078335856544475474e-01 -3.631745778660507018e-02 -8.021249008297554051e-02 -5.671475681978648507e-03 -3.293310426664152607e-02
-6.101398829785832645e-02 -1.284977223987590067e-01 -1.792724809835557209e-01 7.958263364312689533e-03 -6.482062855646192334e-02 -1.507048234860764446e-01 -5.423568033275921046e-02 -8.656312142310712554e-02 -5.125806618140917037e-02 -2.705489658528722335e-02 -1.771411327492733168e-01 -8.916092356698757104e-02 8.324692413695732041e-02 2.698943124446157027e-02 6.760345033802152986e-03 1.277990625090618948e-01 6.576938920524982857e-02 3.491956485624030104e-02 1.466056022239150269e-01 -2.069212953314940664e-02 8.596777885214521020e-02 9.516353444675597351e-02 1.913335038195197735e-02 -2.507788292110120498e-02 6.569131934450737897e-02 2.204345327763593612e-02 -1.636511486134973881e-01 4.098484998302525523e-02 -1.663411282152576012e-02 -9.913878487661353933e-02 -3.902128893146268596e-02 -8.288036945777271791e-02 -7.756087103958234433e-04 -4.388721592268618465e-02 -4.689326265367579211e-02 -3.494515813790807779e-02 1.186949340025279936e-01 -6.341547758514093358e-02 -9.355971419642902798e-02 1.103338512720513920e-01 -4.813912464268634006e-02 2.794689567841321387e-02 8.640836066253337888e-02 -4.715225306562129820e-02 -5.567961400730726124e-02 6.491271191778812122e-02 -1.044836858348042324e-01 8.009633602516547449e-03 4.732740193977083565e-03 4.087644201252794290e-02 -1.141150175343747797e-01 -2.405918528909219839e-02 -1.918412490591197769e-02 -3.098359292238694884e-02 1.020660678591452791e-01 -6.949774440937979414e-02 -9.485267663606752886e-02 1.973357121059288524e-02 -1.047490244100886952e-01 -1.033332922560952355e-01 6.450137035417091713e-02 2.305214484779754755e-02 -2.700914166968584190e-02 2.119143080332846346e-02 3.354452608446171352e-02 -6.447849309007383511e-02 7.320959140937631504e-02 3.718645462162489812e-02 -6.513802781308213052e-02 8.106979777803473286e-02 -7.396469237763751703e-02 5.006776327601364374e-02 -2.841273589456969409e-02 2.301938677683229573e-02 -4.146866656709972260e-02 9.629067108958208610e-02 -2.565878711434463680e-02 -1.090736797709404016e-01 5.713117683080153053e-02 -8.128375953969264878e-02 -3.739686132750082159e-02 -3.751387438093523735e-02 -1.020346379504490919e-01 -1.336248806435938741e-01 -2.542989843510721701e-02 -1.367012223562551476e-01 -1.518266531406798139e-02 6.899098232975892087e-02 -2.881455365564407692e-02 5.630137057269306820e-03 1.304978159912437152e-02 -3.413371794956082672e-02 3.165257715325267562e-02 3.349303996384762894e-02 -9.065716793353360836e-02 5.654634438201323193e-02 8.524618459903209045e-02 -8.103144406895712928e-03 -5.624254588434327712e-02 8.114809790597049544e-02 7.182292305165012547e-02 3.466858674379193206e-02 2.634161181478137867e-02 -1.086852166635782213e-02 -1.195517076124839699e-02 -1.195178604775778454e-02 -7.010068598372243623e-03 -1.521289201142496106e-01 -6.094401681302494267e-02 -1.049573235575028823e-01 -9.656699020990545945e-02 -3.262372323686010128e-02 -6.605226210091272310e-02 -4.776156849638588803e-02 5.313570474492380208e-02 9.942891291960342763e-04 -2.264258294330877969e-02 5.107950994286670349e-03 -4.301340779803018016e-03 5.960927521054044942e-02 5.011915711084475450e-02 7.644487717343718958e-02 3.660786698979171666e-02 8.885462610656177929e-02 5.972930841711539263e-02 6.434900950332210490e-02 1.148818572775474750e-01 7.201883652739821118e-02 -4.167873736576581389e-02 1.807202046826001871e-02 -4.641765080052188963e-02 -7.775834115743235353e-02 -6.524457030596349238e-02 -1.132286729459322655e-01 -1.124206637668246217e-01 2.273379236916470147e-02 -6.954773641649482363e-02 -1.148390927097287517e-01 1.335847530643052561e-01 5.574023387293136622e-02 6.770730199468370791e-02 4.386620793840970839e-02 -5.692443669297557463e-02 1.083886479039082584e-01 1.533741789713859160e-01 7.242359682277452193e-02 3.304736805996271592e-02 1.278717267257139800e-01 8.049970033900404054e-02 -7.772654327872711988e-02 7.409530718836876417e-03 7.850140349384036875e-02 -7.858884612689460980e-02 6.581685152818832207e-02 6.915282126098127626e-03 -1.358209287651646405e-02 3.822063174566081578e-02 -4.909079896752742422e-02 -6.524569265204081814e-02 3.475544848422395389e-02 -1.212903974552801412e-01 8.344393757478849039e-03 2.141853843905415500e-02 8.857591298089894510e-03 3.194540218928414166e-02 8.333511904912592472e-02 -4.021038668756451301e-02 7.597212521110088823e-02 7.062321118852095403e-02 5.929391617014281857e-02 -3.843477438146526703e-02 1.052332073795589490e-01 5.194963371764571569e-02 3.488700421362522786e-02 -1.535056143636099463e-02 5.588584246123696683e-03 -9.892426445992874573e-02 7.583755431964808724e-02 -4.476206654713652672e-02 -1.143781623997437713e-01 -4.460185049762225434e-02 -6.733045274233072364e-02 2.130328516810667955e-03 -1.883145337870706024e-02 -8.074588156456544152e-02 2.301867964642517403e-02 1.474755721732622267e-02 -2.181364802247872867e-02 -5.258611648021579987e-02 8.242641425076208117e-02 -2.870537317141541589e-02 3.981372498923541753e-02
-5.995789028993017905e-04 -8.876206016680006361e-02 1.282279434146142358e-02 7.427520369220620700e-02 -8.182644799868414587e-02 -4.375034837937544913e-02 5.357050919003548267e-02 3.168848998477324930e-02 1.740363797647067820e-02 5.622937218190166703e-02 -6.128363769607293211e-03 -1.087888124895476372e-01 -7.858753346617600166e-02 -1.394559019678065226e-01 -1.026084520182272974e-01 2.402550526754212643e-02 -2.246399577760506069e-02 -1.062884061481354780e-01 8.009300975498719055e-02 -2.345147271674023412e-02 -2.689800026709731132e-02 7.854058045301615110e-02 2.357319618337958347e-02 -4.875399686105789249e-02 3.001400371291275751e-02 -3.946050339902532761e-02 5.693545155155631254e-02 1.134493896736713109e-01 -4.740770559686531549e-02 6.226278159602891688e-02 1.079146189264812428e-01 -5.662432366652082882e-02 2.742118151062541628e-02 6.610286347548120778e-02 -1.052735258665311036e-01 2.487357140292641849e-02 -3.846066418297924144e-02 -8.383008128588297081e-02 -8.750548095760900258e-02 1.008246348336707364e-02 -7.111753529275149921e-02 -2.019073223741428558e-02 5.859178070462889298e-02 3.430327121892950276e-02 1.248791435127565366e-02 1.225313420328521669e-01 1.217930093756578597e-02 1.771953220673393517e-02 1.507241289632568759e-01 9.479580102165156841e-02 1.174683672491975417e-01 7.771658497710076663e-02 -8.062981183434476257e-03 -4.924785109872853103e-03 8.844661491565332379e-02 -2.786061312351942321e-02 1.186563757566341387e-01 5.894894783677426947e-02 -8.011896168849083275e-03 5.827167081394537401e-02 8.379685491999733227e-02 6.827575461251626961e-03 3.702120768647437082e-02 2.492509754672559558e-02 -6.070737876716648940e-02 -3.126911846992665861e-02 2.304517048001897619e-02 -3.734249827808282934e-02 2.564127239097475919e-02 1.448860568457489839e-01 -3.658711934758855644e-02 5.946527663037751502e-03 1.339385884218660117e-01 -3.453574766860025708e-02 8.472278796460748496e-02 -1.908394605989821927e-02 1.371365520444459141e-02 4.985684586455461226e-02 5.182930393917265649e-02 -1.053095709571357126e-02 2.124159439156052265e-02 3.025913928600379790e-02 4.525234849035011941e-03 -1.459784734453808096e-02 1.300994490010985716e-01 -2.918483979417567029e-02 1.965298362776544787e-03 5.526049217683184911e-02 -2.919703395744472837e-02 -6.997080756083075628e-03 1.346153177781832522e-01 4.292998125242255408e-02 4.467698190056761109e-02 2.873665970005674294e-02 2.373039801820846922e-02 -3.190446024026235422e-02 8.784776837821124326e-03 -6.261049511580350779e-02 1.131934660129984421e-01 -5.941665725029388057e-02 1.766584108540673534e-02 1.986481439423089593e-02 2.239436911329254973e-02 -1.640120200428656430e-02 -8.194775664870346255e-02 -3.841334566212305929e-02 -1.127201430022373579e-01 -5.617119151984072307e-03 6.516846470656856294e-02 3.376753161934776398e-02 8.823449380254126673e-02 5.668195847338859672e-02 -6.644630312325978776e-03 4.611272519499842043e-02 1.613317429470219333e-01 -2.989827493476447662e-02 6.111030142881055532e-02 1.682317640564491845e-01 4.156925760699364293e-03 8.324230065232969544e-02 -1.474486821770215617e-02 -1.462504089402086871e-01 -1.434326707804762374e-02 -8.105948947190180776e-02 -1.000895010751447906e-01 -1.033798934059044911e-01 -9.719496482828066108e-02 -9.826150567414161652e-02 -4.651320357267432759e-02 -1.527768335097082555e-02 -3.832691820557485723e-02 9.607892957050494231e-03 3.630139384866665209e-02 2.532173987631222006e-02 -5.128795006988461254e-03 -6.577090253827276578e-02 -4.440400355658404713e-02 3.818441887101516746e-02 1.340358639823328590e-01 5.971842240833909882e-02 1.048769283423779536e-01 1.160326920497567194e-01 2.555916801584228598e-02 9.995407483080501199e-02 -8.506131738355682259e-02 -1.448544865786048075e-01 -7.152432524532317815e-02 -8.256758232669111908e-02 -1.346236979315228732e-01 -9.514893188345924235e-02 -1.790681685389945710e-02 -8.132692811754037299e-02 -1.276789823787545346e-02 -3.236905967890141289e-02 -2.916000849926284402e-02 4.124942881268486849e-02 -2.913408534481875048e-02 -1.060990175674548647e-01 -4.837638953871808284e-02 1.419667623297962179e-02 -2.833358834064274995e-02 6.889064121578976352e-02 1.169553679499996945e-01 -9.355296452594587253e-02 6.889280792450326596e-02 1.318192841902985080e-01 -3.393019857615265505e-02 9.247509678989079829e-02 4.097669265845961528e-02 -1.099520084638268974e-01 -1.512713587248133706e-01 -1.231075660788879395e-01 -1.196417305387279389e-01 1.857143116068860414e-02 3.247190024017443388e-02 -3.708975538891935014e-02 -4.285600810618003798e-03 4.675846688161400255e-02 -6.884636079903949657e-02 -5.982249373542429007e-03 7.021418059046077853e-02 3.006705196650492559e-02 9.662169641075572801e-02 8.243595859420602134e-02 -9.143274821131419650e-02 -5.303341387072411928e-02 -8.090721077651127219e-03 -6.935418753437885830e-02 1.713968321739938599e-02 2.277429245061817625e-02 9.310112506594398971e-03 1.008441394324310486e-01
1.106950565482788112e-01 1.581548927377748603e-01 1.706244120096539751e-01 7.690010781228295844e-02 9.237164306732567609e-02 2.740564083548167884e-02 -7.952683837489558927e-03 8.103501468098374405e-02 1.125036852623223227e-01 4.382595062967536981e-03 2.915730474105463280e-02 3.090725213545818598e-02 -3.163711528505090687e-02 -3.994229716395988200e-02 -6.381380008850193186e-02 -2.081810966682353520e-02 -3.761615152067210310e-02 5.381640614928704519e-02 1.078498929785933272e-02 4.800192125383128533e-02 1.134227515164182160e-01 -5.110030546329855095e-02 -7.087151941538964717e-02 1.229365511882785089e-02 -4.186476763373622040e-02 1.136455124639374759e-01 1.052770533696150701e-01 2.316991582344616815e-02 -2.073676257455633193e-03 4.024026695195643405e-02 -9.348342582230076414e-02 -5.078004957614240533e-02 6.766516932558785946e-02 -5.882853080977011595e-02 -8.219184976629591299e-02 3.819455104555435909e-02 -1.566513680146488507e-01 -9.000921071592662970e-02 -2.368909396143581425e-02 -9.536263011003304202e-02 -1.136128065677635274e-01 -4.790360374011016359e-02 -9.439020846249647489e-02 -7.001376262554383223e-02 -4.943944890972694350e-02 -1.338636263994779085e-01 -8.024074970668312878e-02 -3.529221658207805368e-02 -1.531750235106773411e-02 6.212767722110348195e-02 3.784325503580915524e-03 -3.631949271853598255e-02 -2.853113114342680640e-02 6.594914371216159706e-03 -1.050415653964874713e-01 -5.932841259198720629e-02 4.437407374293979474e-03 -1.096006856690254633e-01 -3.801048813888688316e-02 -8.628773161028621685e-02 -9.275574902316857662e-02 -1.258440648803466587e-02 -2.396046566553750382e-02 -6.872800012288300675e-02 -1.464552029783438292e-01 -1.401483218022240018e-01 -1.498999556975995906e-01 -1.883061818318641778e-02 -1.389891896971970076e-01 -7.952466825010415241e-02 -5.392941878356172919e-02 -1.363119353441724635e-02 3.609956948362605389e-02 -2.291275889910136809e-02 1.062413489060273514e-03 -8.244042840025986307e-02 8.868991034513687421e-02 2.913678823094432296e-02 -1.979846968527117571e-02 -1.995675756342189106e-02 7.953892866917814178e-03 -4.624076404025671133e-02 1.309366225366693018e-02 -9.812681940732229102e-02 -1.763791595460789327e-02 -1.626593103783278375e-03 -6.284425819353318954e-02 -8.913810636824691380e-02 -4.888716925288022486e-02 -3.524054455392749280e-02 -6.817789609580535148e-02 2.256815778546919504e-02 -1.847641230101896431e-02 -1.064790545001403493e-01 -8.478361009444884688e-02 -2.523684862604827495e-02 7.180485260561350613e-02 2.391222141613802421e-03 6.652976176249096596e-02 -5.875340261871290007e-03 1.044611999221841392e-01 -5.805417414616582256e-02 -2.777350929341054417e-02 7.975624019488548877e-02 -1.035164358395637696e-02 -8.381064805593328726e-02 3.412156752789252331e-03 -6.184600501692075203e-02 -4.222514671717064738e-02 2.205675319789269975e-03 -3.951693435321139425e-02 -4.711667477493647338e-02 -1.033358179898999224e-01 -1.437130738849783651e-01 -5.753118383830523042e-02 -4.933391117106158963e-02 -6.767235810135036056e-02 6.054856131891496809e-03 2.500773420789696028e-02 -3.150325133989141657e-02 3.085910944220202762e-02 1.612772964908202114e-02 -3.136735882292456846e-03 -1.282963439236231573e-02 1.009397127633731954e-02 -3.892343542762897492e-03 -1.534443545144526140e-02 6.087226168513325264e-02 -4.624090898221695084e-02 -8.057579725458749453e-02 -9.056662890829261098e-03 -6.778841729968131113e-02 -1.000960816383073826e-01 -6.426102660662669219e-02 -4.358826115056342598e-02 -1.540698178563531529e-01 -1.389802193156965682e-01 -1.778942521060503379e-01 -6.358573256288874154e-02 -1.697468082942458177e-03 -1.264188700416466193e-01 5.253940517879466393e-02 -3.239639196576895447e-02 -6.861378147821152245e-04 1.651834702346829942e-02 -3.139524765189324884e-02 -2.630285043245865137e-02 -8.820282250807344460e-02 -7.627325325345811480e-02 -5.124699529637825185e-02 -4.791757988999612722e-02 -7.386655417724700967e-02 -1.132730012230123012e-01 -3.301616937471712337e-02 6.237630811398440708e-03 -1.102716184118676113e-01 3.602982363513644593e-02 -2.162997829574933757e-03 -1.391250311369288117e-01 -6.103342212230716129e-02 -7.488280484165715789e-02 -2.112765894350543405e-02 4.907639552980117698e-02 5.264729386454372606e-02 -2.541385778022695052e-02 4.617933428604244911e-02 -6.211501985497685542e-03 2.093781065262455277e-02 2.601609496816375405e-02 7.324390347677324498e-02 -1.010840982945727662e-01 2.729976764158209210e-02 1.656551953051843898e-02 -2.624196983835438979e-02 -1.442294553674661195e-02 -1.683126553144042442e-02 -9.271997817806890141e-02 1.773457013969140586e-02 -2.828010639436239967e-02 -9.666962160576135499e-02 7.355697664053456597e-02 4.250967598142725568e-02 5.996768305528457632e-02 1.219130535087456224e-01 -4.707217000917090707e-03 -9.728108161357904016e-02 1.065163918727399378e-01 6.363425563920192818e-02 -6.967302547641916061e-03 3.961552502101619438e-02 4.944077169912895753e-02 -4.193351017509627104e-02
-7.486841870829175202e-04 -4.105698884844158347e-02 -5.058536046153313398e-02 -8.947117250656668255e-03 4.631867641463256052e-02 -9.015479770383960645e-02 -8.161822770098810242e-02 7.369640374844381447e-02 4.396196663588044368e-02 1.104422221831127121e-02 -2.428386550919960085e-03 -5.129265396638644364e-02 3.963416622898228991e-02 3.345325684558744794e-02 -2.048708278614448999e-02 9.893181334326489260e-03 1.175673818642505863e-01 -6.337723260989885921e-02 -4.096006113698782980e-02 6.590651806102178212e-02 7.202304218383259737e-02 1.304324230461108812e-02 8.297194535553877037e-02 1.119108470838143798e-01 -3.866940441365009778e-02 -1.043254494763204421e-01 -1.640883967633587626e-01 -1.196000072244821077e-02 4.692271978382794861e-02 -1.234246942159892835e-01 -2.724889792167601091e-02 1.010218777458787992e-01 6.289021697909303807e-03 -5.618375680018132534e-02 7.031479747488203480e-02 -9.208352185386627434e-03 2.325291394625071326e-02 6.145051309570358916e-02 -7.819534091483551497e-02 -1.149863246144408324e-01 6.121154498857483278e-03 -8.576245002243206017e-02 4.627337745313962747e-02 9.769065717875180521e-02 -7.102426979761757020e-02 -1.553060317999729704e-02 1.336071990812623053e-02 6.841895496642547148e-03 -4.365051270629287383e-02 -4.578453139843623176e-02 -2.068944374578898446e-02 -1.226526117563996043e-02 -4.437585397676717391e-02 -9.529834830765766818e-02 8.845577015411246191e-02 1.052904191700039654e-01 -3.825744262042268112e-02 1.574502486981526478e-02 4.337260249566508158e-02 3.133812159465436398e-02 -8.114490422740552877e-02 -2.955734163108869952e-02 -4.534216529158163755e-02 -9.985398256546025586e-02 3.307488297349932271e-02 -1.288656227381852759e-01 -1.535530680665313837e-03 1.222270522872194315e-01 1.017100496764827416e-01 -3.191521087591644990e-02 7.196834539911473039e-02 1.056401798456271246e-01 5.647807263768118285e-02 6.884621546168773198e-02 1.637808877968926699e-02 -7.502252759594693621e-02 1.754351709281458740e-02 2.342747625944147094e-02 9.560441969706408305e-02 1.146235755787569296e-02 -2.333432807749149379e-02 3.360525286171773401e-02 2.494062600020498233e-02 6.480612220301758264e-02 -5.736615619599964161e-02 -6.547542034741565820e-02 -1.144744382150327672e-01 2.379692902161308077e-02 -3.523136395715668195e-02 -2.082692494770169503e-02 4.324652700057655952e-02 1.427366566463037223e-01 9.475293912113390282e-02 4.316846124595036249e-02 1.226625762003420717e-01 1.309161238253869486e-01 -8.379735967238836902e-02 7.130322272624094182e-02 -9.217433264674872173e-02 -7.229358952690764784e-02 5.778993668154779051e-02 -1.166239073232077234e-01 -2.397409133228506004e-02 -8.266614107795272615e-02 1.490119692686097102e-03 -6.275609093128442506e-02 -1.811668701683622276e-02 -6.552850760722037093e-02 2.508466665235144222e-02 9.313690247008646339e-02 6.167296703406590502e-02 -9.506845849702674767e-02 2.044014746964109303e-03 5.135185723709507349e-02 -8.469194849810243730e-02 9.723554607629435187e-02 -1.312554717457945982e-02 2.420798769610734910e-02 7.612358168948359094e-02 8.645580429591928628e-02 5.843322190987081111e-02 -4.677627572116087318e-02 -4.658682729949110979e-02 -1.833376679208268897e-02 -1.903356747496978002e-02 -1.169141616302773884e-01 -1.452436518182043668e-01 -8.599262851517996617e-03 -9.558967543156726698e-02 -8.106354836293079569e-02 -1.096995175459137412e-01 -1.082839556130868464e-01 1.853325532451752938e-02 -9.724831827857415012e-02 6.821066480448402178e-03 2.147954239241082336e-02 8.780534686067984970e-03 -1.195760676064907928e-02 -9.958160812685826202e-02 -5.701594208468310776e-02 3.271600103505746537e-02 -3.938178384131311993e-02 -5.514163606177975574e-02 4.449763647071892231e-02 4.536993043507786538e-02 -2.687143808639566936e-02 -7.500900370052696053e-02 -4.506590737669945862e-02 -1.329080018916521493e-02 -8.083174148785114699e-02 -5.115588920804445966e-02 -5.660083016485518981e-02 4.156987375994171396e-02 -1.590708618852473832e-02 -7.744761342815244254e-02 -8.110385190670894862e-02 -6.973824260568871336e-02 2.589151877763325865e-02 3.837760826273925452e-02 2.312688869465657701e-02 -5.138562021730457008e-02 -4.405143312849190557e-02 -8.257741209679031469e-02 -7.395851357095578615e-02 -7.356084480414590288e-02 -1.178492589725563672e-01 -8.313275937446767960e-02 -2.757339329230423797e-02 -1.858354896591248029e-02 -2.747901121111510220e-02 3.745339953992761484e-02 3.440742512063953151e-02 1.621347014149753180e-03 1.578613732624053329e-02 -5.047004326551612213e-02 7.624417259405481817e-02 -5.047511236732438872e-02 -1.952119840916625645e-02 3.412644753814895321e-02 5.459123035772450727e-02 4.143428513860399759e-02 9.378860716438174039e-02 9.988487745019006270e-02 -7.588297169148652474e-03 4.316680553338713561e-02 5.892935126687308400e-02 -5.186342811379241607e-02 -3.025567081213562798e-02 5.439801669983587024e-02 -2.437842464293347652e-02 -9.120993272379107619e-02 -9.278381306955650609e-02
7.461559261781802732e-02 3.853459500850837851e-03 3.368466372944483450e-02 -6.475974776231092911e-02 -3.794245134341758807e-02 2.126699800859882181e-02 -3.277719999454759524e-03 4.458302248009481106e-02 -7.033471565107992859e-03 3.377042981288673473e-02 7.637923850636407774e-02 9.446390652572428381e-02 1.174361565371952049e-01 6.444461627617616151e-02 2.650432493240055011e-03 7.598535017967916749e-02 -2.847848657694162849e-04 1.412997721512587179e-01 9.107710896876891615e-02 -1.333809135046269169e-02 3.897546416732822205e-02 -3.877690536190125242e-02 -6.852489133219259732e-02 6.326832877734908656e-02 -4.050641366103663321e-02 -5.473207117762154093e-03 -5.723133044243224055e-02 -2.300535241449622181e-02 -2.481578623324455155e-02 8.862793093807770639e-02 -5.140263162479399850e-02 3.754684502820894443e-02 -1.976858463823758221e-03 -6.955280164229706019e-02 2.754161985727152789e-02 1.425485457610877089e-02 8.726753353046755313e-02 -6.541348992018333752e-02 4.431646167999519353e-02 -6.210776932474549455e-02 7.527914116267939854e-03 -2.781738505393352087e-02 6.117138413615701847e-02 -6.919371942001119324e-02 -4.421799428804640275e-02 2.839265550898955118e-02 -3.579567423321390607e-02 3.233476545860167889e-02 7.008459381849777015e-02 -3.094883817796343500e-02 6.812242546737094784e-02 -2.931720059702313044e-02 -4.257331255235183992e-02 4.890411370588366308e-02 -9.446774561893075267e-03 -2.320895956207173760e-02 -3.914444984092063651e-02 2.373628545460769110e-02 1.348405804955086877e-02 -3.030063921574794282e-03 6.090072675270396391e-02 1.321151723091925148e-02 5.557023263566096549e-02 -4.969070440990022014e-02 -4.379195974899972865e-02 8.838773914578887392e-02 -6.603983218467479599e-02 1.469065302284008195e-02 6.258394074478433600e-02 4.397552988448473477e-02 -5.730359932606456791e-02 1.146413618055543565e-01 8.257972840231005140e-02 -2.387324292724583852e-02 8.657366651192789642e-02 -3.097334548419171385e-02 3.734866570205239850e-02 6.336526866640497524e-02 1.052490554162138492e-01 1.225457420168834036e-02 -8.958318175961745011e-02 9.308548072762783121e-02 -3.663659161563388722e-02 4.581599801778087934e-03 7.770655683328375751e-02 4.062296032598407269e-02 1.905600102217982691e-02 1.133910873900519367e-01 -6.016126413746818169e-02 3.089077892915776530e-02 6.117540739116080623e-02 -1.784521741350165655e-02 1.123432747395965714e-01 7.786925740790351380e-02 -5.491023517458687442e-02 1.553200416900046496e-02 -1.819464769750437153e-02 5.433043117574691550e-02 -6.742911403391467495e-02 1.131694268191054398e-01 9.462436129709057842e-02 -2.801302912016514352e-02 1.451728677260345213e-01 -8.304165414333870843e-02 6.833072534627820938e-02 3.615557143294754680e-03 8.392193479872969708e-02 5.628285996536144115e-02 8.204795055712499341e-02 8.033304206609646891e-02 -1.144991720182462688e-02 3.946841113485906327e-02 -1.856827888502848856e-02 6.110709208169038190e-03 -4.385231598657987617e-02 -4.852709999934412544e-02 7.531435562372040815e-02 1.077635636410325254e-01 -5.756781357782185700e-03 1.147958093357360904e-01 3.809359896635883952e-02 6.869045810970028643e-02 -2.581436616837998882e-02 1.615735296688099731e-01 6.225870130768530047e-02 -1.201983126529616690e-02 -1.036859781957978274e-02 2.959486385568377981e-02 7.743726998947864787e-03 7.901028744021827699e-02 6.818590519092466995e-02 8.626745943608313261e-02 6.269876321715717182e-02 -6.231590807559765632e-02 -4.321968793359443062e-02 8.214612610105392898e-02 8.211289220155014446e-02 1.328589123596847776e-01 -2.608125782934928374e-02 -7.805461555782287897e-02 2.660481843354967416e-02 1.034449506123112650e-01 -3.674089894636069177e-04 1.049623227266072156e-01 8.535684132346584019e-02 -3.398040676958635764e-02 -8.314676991825205310e-02 4.080846094437427102e-02 3.041636229121070720e-02 -2.731479584405167513e-02 -9.923951169656646670e-03 -1.234252825872452497e-01 -2.780880783898835584e-02 3.995212071620010685e-02 -1.155422168823341117e-01 -1.565024346472787264e-01 6.949004145021438206e-02 4.460216573070847207e-02 1.678187129310436052e-02 7.801989182063970296e-02 -7.542981288794846362e-02 6.479167700322475965e-02 -1.302171880750195229e-02 2.612390866885942048e-02 -4.776295094465076579e-02 -5.320730384811916784e-03 7.534677549363288929e-02 6.668836693793202264e-02 1.191912703093756937e-01 -4.003680629343427805e-02 -7.641078290084162006e-02 2.384207508948555168e-02 -9.509533021977617517e-02 -1.519977970659429911e-01 -8.441763893129125562e-02 -1.639528257127862432e-01 -5.286237218048242537e-02 -5.793986654480090537e-02 -1.397012952044902334e-01 -1.456986956897949048e-01 2.268175833086311100e-02 -4.547245307271739409e-03 -9.051571012659043181e-02 6.764281063836832808e-02 -1.733453289229478639e-02 -7.947143330849613940e-02 2.282579504133994130e-02 6.375497330155222020e-02 3.457837523799743573e-02 1.941948766038092272e-02 3.040775479165189893e-02 -3.678694274233100525e-02
