-9.578634792710723211e-02 9.597269939287760010e-02 -2.694513323050373374e-02 8.217890455374285419e-02 5.830377732036333416e-02 -2.133741480761050524e-02 -8.465008930970840950e-02 1.003032231152382048e-01 9.081567703030664351e-02 1.007890535210148077e-02 5.194916827988761004e-02 -8.626259044454380465e-02 -8.805153889062636297e-02 -6.723292377957874877e-02 -4.437340919354041541e-02 -5.527667155360089374e-02 -5.529069615203147797e-02 1.031591893352416800e-01 3.477049006290780508e-02 7.873685672367967958e-02 -8.643831727516199104e-02 6.138549198299467213e-02 7.753255997096730745e-02 -1.083990930943074110e-01 -3.496703379005319801e-02 -4.411311578697994784e-02 -1.566389580671662674e-01 1.705539161349819977e-02 6.165489792529976754e-02 1.168217100767991595e-01 -2.697349092022057436e-03 -1.471715042692083898e-02
-1.033207625920511824e-02 4.587829537486552700e-02 7.162678919846182657e-02 2.721696376436676459e-02 2.803097965863056689e-03 8.044045633014716701e-03 8.036132204770227161e-02 -3.795477155533667768e-02 -4.912078151943579524e-02 -1.313153124480274658e-01 -6.960055219380380243e-02 -5.491860283573488793e-02 -5.749685793808316514e-02 -9.317732855582280815e-02 6.132299789953356978e-02 -1.028081221861434774e-01 -6.133164993383560110e-02 1.205016628527427747e-01 -5.704458490131270043e-02 -2.727950111281518542e-03 4.899997752576818605e-02 7.482240135292660133e-02 1.746481285657788037e-03 -8.836717746425544473e-02 1.357738638983856919e-04 -1.063103342087325376e-01 -1.519823170884041230e-01 5.906055474750328965e-02 1.619802438053806470e-02 3.248440360055317860e-02 1.753700191423927454e-03 -9.705924638392136872e-02
2.458260863695158668e-03 -1.166375548408595947e-01 -4.593376410013007283e-02 -2.451750846109553364e-02 -1.294810415875906617e-01 1.553441312643006125e-02 -1.375279786095714475e-02 2.256740372647485920e-03 8.240864180448383147e-02 -1.051746025643934962e-01 9.661197339005943600e-04 -6.515138032703061792e-03 -1.253101482645096187e-01 -9.634325829087388160e-02 -1.059332870369200236e-01 -1.615962225976424194e-01 1.502727958267398994e-02 1.260360705619857358e-01 -1.170174572804499186e-02 2.723476693401848808e-02 -1.941926672370491297e-02 1.249932607427575587e-01 -4.649140214762390033e-02 -7.984044231264643410e-02 3.597371841521947167e-02 -8.131488398936524697e-02 -5.315906141344679814e-02 -1.018053872392591860e-02 -1.788958967989439167e-02 1.009125807844614281e-01 -3.148738974988429112e-02 1.215239138427601923e-02
-5.401013540849899930e-02 -3.913058301587720583e-02 -2.435366138537755146e-02 9.528210718566273996e-02 5.626783597092671965e-03 9.164594743911470831e-02 -2.458765407585257121e-02 5.501355432034351484e-02 6.917948505904894518e-02 -1.163200483218000403e-01 3.328937427008171746e-02 -5.243107776500648132e-02 -3.262999354172015087e-02 -9.441038096511343569e-02 -1.014458695071440708e-01 7.125151275059780909e-02 7.271725304809176227e-02 1.087865224235424061e-01 -2.722567409036933880e-02 -1.552743329470880444e-02 -2.401603855189910625e-02 -3.044216907910519097e-03 8.129253439157499428e-02 1.983221221118228877e-02 -1.381414220378295726e-02 4.871131436085213151e-02 -1.455510369502935608e-01 -2.167912082445730415e-02 5.878380905367755482e-02 -5.703186249395231222e-02 4.155634713099397304e-02 5.510757054647405506e-02
-6.950183370853810216e-02 -1.365202281738790713e-02 -1.125312071737549491e-01 -3.393569626505051756e-02 8.633466262742284236e-02 5.373192272563269423e-02 6.965854613531195783e-02 7.963231627617843589e-02 9.522939163386341666e-02 -6.909212453433352663e-02 1.041689784489087944e-01 -4.179215250081988464e-02 -9.375401487551827950e-02 -1.318578134782863800e-02 9.448392555106951973e-02 -9.828231100037684853e-02 -8.779276450067720339e-02 8.195533397999622827e-02 4.836544260083036617e-02 -2.866578779611806543e-02 -6.601851820315850217e-02 -4.893783497723600689e-02 4.243711378744673829e-02 3.570043232805626687e-02 -1.128474553811270598e-01 -6.880004300293693364e-02 -1.463613952803927143e-01 6.030759494794530468e-02 -7.563548752658751095e-02 7.604897880123787091e-02 -8.588220850910972815e-02 9.498117846581220769e-02
-5.378602693392229434e-02 3.888526687678252325e-02 -6.852949590100897159e-02 1.000749645265144594e-01 -2.490594552444961099e-02 4.539460550072396683e-02 8.270225238181159663e-03 -1.521515327886921454e-02 -1.055797873823483835e-01 -1.975159399298775584e-02 3.698037862113531110e-02 -4.925026979633000124e-02 4.022179914652027066e-02 2.964525773289841334e-02 -2.474202987650971769e-02 -9.012597412769340899e-02 -3.762689485914338938e-02 -3.603217508286235549e-02 -7.665088665038187477e-02 2.802350216574528083e-02 -7.126121951217000150e-02 -3.206052161045754717e-02 9.164932713309546786e-02 -4.561448844146179238e-03 -1.264569712723574435e-01 6.676179998832425244e-02 -1.355718557738835872e-01 5.457928379169080246e-02 -1.129044857028166926e-01 -5.231235692295816558e-02 -5.929518511077862264e-02 6.933659336994024702e-02
9.777968859194569040e-02 1.540262186685509814e-02 7.256544945444212691e-02 3.709855130469249390e-02 4.887023452670906376e-02 -2.036347750653962410e-02 6.580749271756343444e-02 -5.805549418390789154e-03 -3.108385401159704728e-02 -1.135942514428380651e-01 3.759062980307320556e-02 -1.275098202643564216e-01 4.711741144760016320e-02 -1.221103810586743194e-01 -6.556355831857760275e-02 -6.053720379852441102e-02 2.127831560054101179e-02 1.449405193383412373e-02 -9.860124019740924839e-02 -1.221253488249665967e-02 -4.008191542183153766e-02 -5.096942666869841432e-02 -6.104134882395186035e-02 -4.101963285889852900e-02 -1.154366420613722050e-01 9.787304466685653459e-02 -4.059342976875731507e-02 1.407236089073729268e-01 -1.132355318124956059e-02 -3.673255522978381704e-02 -1.616423939915921648e-02 -3.377303933972080566e-03
6.336799338007133298e-02 -1.096547185389235880e-02 -8.860723395906310029e-02 4.905508100402630051e-02 -6.428238770011521740e-03 4.289713063630504197e-02 8.224556961580548053e-02 -9.782483777480185938e-02 4.489042831939831640e-02 3.497983015209034374e-02 -4.554417355283885485e-03 -4.836191981795683048e-03 -4.554929580214291812e-02 -9.153089542786180255e-03 4.179611563373539229e-02 -1.118750401049159460e-01 4.199195360623497741e-02 5.756625247825331027e-02 6.892604699588981976e-02 4.772465561397415401e-02 -1.061372048548344799e-01 -9.200653425302342259e-02 2.183439731601776942e-02 1.002080115020582418e-01 -7.524578792349935485e-02 -4.462533107166596902e-02 -6.600840192008294860e-02 -4.082614235589222124e-02 -9.151110397985508238e-02 1.195371232351727930e-01 4.943080886939399399e-02 1.841390694942774894e-02
-2.784191547841466732e-02 -8.134631320816777811e-02 -1.207395699839360764e-01 4.894351653206855529e-02 2.671305761212036667e-02 8.328480049278165487e-02 4.484112540092971555e-02 7.886186368749370512e-02 7.768771419431770575e-02 -1.598514018243616872e-02 3.592942545536222110e-02 1.141928805470402430e-01 -4.640383628085270606e-02 -1.019087774786488348e-01 7.795738399011070685e-03 -5.872485404520862845e-02 1.764135487562235732e-02 5.295321322682403076e-02 5.504021228617902994e-02 2.068934770702273839e-03 -3.713771894725456657e-02 -6.460249379568193395e-02 -3.608594126002483832e-02 6.786045452143939227e-02 -6.534526568293013912e-03 9.281024177038951772e-02 6.468247496699764537e-03 -9.665802168644967163e-04 -1.128231968453747430e-01 1.001716355206055120e-01 -4.149992833293252026e-02 -2.665383381588690235e-03
6.326709355779973343e-02 -6.541946749588115062e-02 6.024368338931970074e-02 1.160706076772642127e-02 -8.905801020232357104e-03 9.010216296939577152e-02 1.146763284713273739e-01 1.348566927256931829e-02 -4.590036604281170357e-02 3.565280865888422607e-02 7.492311462894996055e-02 2.968614649193575608e-02 1.038222265139576578e-01 -1.647558880076039067e-01 -7.415119947948220491e-02 -4.459628960772996781e-02 7.407578201472472812e-02 -1.625471092321194994e-02 4.806149024405239993e-03 2.317664327304299818e-02 -1.154974128548174189e-01 -3.456075883074755106e-02 -2.670639359143587438e-02 -7.818223525435955001e-02 -7.674845955595041916e-03 1.086724393156922597e-01 -5.924310756195148159e-02 1.479194417507050108e-01 -1.024319502073959415e-01 -2.982989236568094234e-03 -1.935479121590426982e-02 7.353255822742810199e-02
2.018072872399412007e-02 6.522161652580778235e-02 -5.807487380058930920e-02 -2.413891834319065871e-02 1.061047498357741981e-01 -2.169270380570130843e-02 -1.964636615309139217e-02 -9.587347554333679189e-02 1.677601060670281044e-02 2.379388306502450146e-02 6.892547279342513267e-02 -9.170901191388042273e-02 7.248478214427324894e-03 -3.036670348292581575e-02 -2.068185087037312242e-02 -1.082217130594193416e-01 2.290875407959695742e-02 1.405474839263275849e-02 -1.599341782566600020e-02 6.590739768624678807e-02 -1.526542997419333414e-01 4.842573188008066076e-02 -9.125328075237292003e-02 -1.454684141403479042e-02 7.285766196751949919e-02 7.488897010981675206e-02 7.699811447471812190e-03 1.453743210059623148e-01 -2.306689564834069062e-02 -6.268418820654270140e-02 1.160365602629542109e-01 9.789035245764411697e-02
-8.423039224644075784e-02 5.151715133332153418e-02 -7.880667779944677820e-02 7.176242552911561712e-02 7.510964549803942139e-03 -4.842212029301718595e-02 1.867108513491523916e-02 8.043920454147912569e-02 2.122667987627760780e-02 -1.218674279582267067e-01 -5.255677225077970850e-04 9.776680820592721644e-02 -2.230136690074298669e-03 -1.633665647664015730e-01 -7.194983074136955536e-02 -8.374848070121598820e-02 -1.203331658535848336e-01 4.669436152578931160e-02 -8.475225155680637945e-02 8.922856339486838484e-02 3.462224441848030937e-02 -6.896364898653305209e-02 -9.433941923019299389e-03 -6.141254372314636917e-02 6.016541931520851677e-02 -2.302878991880824219e-02 -2.031535133261837874e-03 1.473788808867818045e-01 2.002911970121940347e-02 3.118811418514428127e-02 3.107257931594448186e-02 8.222006087305271105e-02
6.232352460743057626e-02 -5.488726034745355226e-02 8.532930640292721303e-02 -2.041109784170680452e-02 -6.857601759814266340e-02 2.562729626648270476e-02 2.228846739551566727e-03 6.294095430090151932e-02 -2.612741853636972589e-02 2.379304778012498317e-02 -9.685082661947768540e-03 9.187946797681466674e-03 7.416880123381050516e-02 -1.687695168475270846e-01 -4.768655291600083822e-04 6.487564648944194046e-02 -7.192108914655889751e-02 -3.680329171714166042e-02 3.467839371256739578e-02 1.245860353887907473e-01 -5.513905164995608343e-02 -7.032300984428034585e-02 -2.521399536252968282e-02 -5.869553025537094237e-02 6.899901584084483508e-02 1.140697317666871935e-01 -6.737292893223149892e-02 3.000670349211970178e-02 -9.648490464519708654e-02 1.004796577836590682e-01 1.137213671798921744e-01 -1.188796378866555960e-02
7.346752548672981498e-02 -7.745032845853797032e-02 -2.658458262790433166e-02 -4.480349154510011173e-02 6.277183859062335225e-02 -9.880066577101995207e-02 6.541065203044832410e-02 4.259075196386442885e-02 -2.896930552604838616e-02 -8.240349167163030231e-02 -3.245996051875914279e-02 7.997044130278520291e-02 -4.260290450041756549e-02 -9.958850567892511829e-02 9.724587714117567672e-02 -1.506691230326165885e-02 -1.483859328962838786e-01 -2.074938669527118945e-02 1.138097147423642458e-02 3.875901436409863454e-02 -4.949137786790247517e-02 1.893926688301851916e-03 -8.403237218284148602e-02 -2.939086714351711940e-03 -9.534869832783064714e-02 1.191080446568981016e-01 3.104070110664039137e-03 6.115923610198677890e-02 7.921377759997036416e-02 9.053890812262448129e-02 4.952769385019716031e-02 2.296078940377834637e-02
-1.335037477725424804e-01 -7.794215661049846977e-02 -1.258411797021476985e-01 -5.074620887272987026e-03 -4.717363874358807690e-02 -5.342652168811925367e-02 1.432176627260365875e-01 3.678803345408627329e-02 9.075468796574914787e-02 -7.002883143594727799e-02 7.204849151347636482e-02 6.537283060790972933e-02 7.732819332051038552e-02 -1.383364315072493911e-01 -7.137006941232446056e-02 5.269846111937656966e-03 -6.035773995646236123e-02 -6.564379058487476715e-02 -4.307689236403296901e-02 -7.027210832196661289e-03 -4.919408575887247725e-02 3.193492491000109092e-03 -1.277219836659626052e-02 6.125058129435383136e-02 -1.821117484966680924e-02 9.742537120333223666e-02 2.560526803693999320e-02 4.457039644241760079e-02 3.850024179566971516e-02 1.181579927617842744e-02 8.136947266893294894e-02 4.912376887586969443e-02
-1.754921975172160295e-02 -9.926672744495035339e-02 2.351313353051092108e-03 -8.225299430918082966e-02 4.778297187420502828e-02 4.145732296407658724e-02 4.860316178010751914e-03 7.388890091752382816e-02 -3.498539013385215668e-02 3.750759277032570272e-03 -1.449372322641395011e-02 -1.281599239929088752e-01 -7.668136393710348053e-02 -9.912610722243375694e-02 1.528787521769674196e-02 8.978331403906353314e-02 7.739654718298764891e-02 -3.463114274863416525e-02 1.487601601072142780e-02 9.302441961119695124e-02 3.131172705536802714e-02 5.365690505734702076e-02 -4.346227747350038528e-02 -1.077819625007305770e-01 3.844445492249353585e-02 2.324280943653662945e-02 3.242544025624798099e-02 7.553560908444077737e-02 9.944728544657908953e-02 9.433763915042242543e-02 8.678384503713535217e-03 4.096876626130547400e-02
4.068097221844473727e-02 -7.141396797666995332e-03 -8.667753358395215157e-02 5.490244888095996423e-02 -1.070588553694352789e-02 -5.815977805792327260e-02 5.984577959277042475e-02 -1.026702330199061042e-01 1.193443808475235096e-01 -1.081662006847348007e-01 -1.936033152480275826e-02 3.904299355062170601e-02 6.220087468760008426e-02 -1.454657269975991318e-01 -5.803887678265667871e-02 5.203709896865216927e-02 2.830488880295013721e-02 -1.789736461739599438e-02 9.132625499342514330e-02 -1.318775508646738773e-02 -4.932280820738444566e-02 1.573798293513692381e-02 -4.974436998431452234e-02 -2.722282645439690757e-02 2.711294858024324017e-02 -1.482607377871917112e-02 4.472250892050937121e-02 -2.721350306425064647e-02 -2.443777707766527085e-02 9.745664797101473431e-02 4.283613571538733011e-02 -1.691565387382302707e-02
-8.239498860248112289e-02 -1.004793848632849346e-01 -1.278427543283943146e-01 8.116537151298956754e-02 -3.530626343859393900e-03 -7.637552019193835640e-02 1.444212545002607206e-01 -3.979972097598766245e-02 2.771719208275498156e-02 2.070155091630825409e-02 2.914849090521183170e-02 -6.991782189579799980e-03 6.219126349034497653e-02 -5.084199433336675927e-02 -5.467250892928398470e-02 1.440896401750383672e-02 -1.229869610904656962e-01 6.932320931524452168e-02 -7.545488392598603822e-02 1.286637676499190197e-01 -1.224214662631651906e-01 7.939412618446263503e-02 -5.491838097470290447e-02 -5.992210265209322456e-02 3.097634913178766783e-02 5.427779253794472875e-02 1.095053705462035593e-01 -3.489372944284917233e-02 -3.669175556858884912e-02 -3.103130267316078772e-02 8.165505941035813842e-02 1.017867837819769472e-01
2.589160547785048644e-02 4.747018909719709356e-02 -3.895057340471484719e-03 8.077689885433235462e-02 1.198789059552208963e-01 -4.545298926192086614e-02 -7.635786968043027992e-03 -8.493902461702852388e-03 1.981745881131982689e-02 -1.817714238738835433e-02 4.964205020889956438e-02 -1.027523032674359516e-01 -1.371289487090501281e-02 -8.409706001983477397e-02 8.282700492021458777e-03 1.134377712141827754e-01 2.375529645331672310e-02 6.144036539988053519e-02 -5.255582794265677149e-02 7.848903047717670223e-02 -1.074590278804396087e-01 6.335297883522504614e-02 -2.628388001584011299e-03 -1.452021730405764766e-01 -1.007403060002503015e-01 1.210997740345256396e-02 7.104505243879194465e-02 7.368350353780846185e-02 9.770056935772458706e-02 2.225406437377070931e-02 1.505770976291873064e-02 9.961264174401091281e-04
-3.192142142435169805e-02 1.459067053080671979e-02 3.390355279444002418e-02 7.164391749488804861e-02 1.246762524451009851e-01 2.321526980666108186e-02 8.372516854036644862e-02 3.655891148034600552e-02 9.572570395994144110e-02 4.921505565742922278e-02 2.940049057456309289e-02 -1.129434766533082973e-01 -1.145308521009530678e-01 3.064399038137667966e-02 9.357411373974813817e-02 -5.004061362207549990e-02 -3.825877037771708601e-03 3.535140980554842688e-02 4.032568020188230518e-02 1.138853402962810603e-02 -3.317274583912864505e-02 -7.508902350746346488e-02 -1.938460872582383268e-02 -1.171370809785802353e-01 -9.977708422838200975e-02 5.520763285093829159e-02 4.842594484964824614e-02 7.645868215097818138e-03 1.127379562103910104e-01 -4.474563824413403841e-03 2.623898543451733123e-02 8.222388127510645017e-02
-7.228921915096331308e-02 -5.734506317137360448e-02 -4.994845144549266841e-02 4.895712604427954195e-02 4.009775822895732950e-02 -1.057341142752217661e-01 1.582011704784773987e-01 -3.517956485864774663e-02 -1.858336761983519006e-02 -2.969647210449829697e-02 -7.822222024148493824e-02 6.214892413150438499e-02 -9.323138694932271708e-02 -7.293929431501937344e-02 -1.221229926286543088e-01 7.804157925865524981e-02 -8.997138924218853195e-02 9.080443749617669869e-02 8.376705495631908693e-02 1.459465919930596871e-02 -7.540347741879570298e-02 -4.760878538075999367e-02 -7.241051501055735529e-02 -1.051276882018127162e-01 6.109724184314152540e-02 -6.298149364925495486e-02 6.390842604986438080e-02 -1.200643472952842988e-01 6.984192702695485311e-02 -6.193911350454887194e-02 4.663712102477669125e-02 -5.925756830936648387e-03
-6.912455280389138979e-02 2.180849873240115269e-02 7.335797036411197646e-03 -8.902100336013460402e-02 2.368181234920375619e-02 -2.795830258583958949e-02 -5.031126918354153488e-02 2.632582869433902975e-02 -2.120462581762126361e-02 3.026203543918759564e-02 -7.014613806352595904e-02 -4.299735951466576028e-02 -3.121474089425371051e-02 -6.655583473705138642e-02 -1.389344513737000852e-01 9.863923451223316485e-02 3.624111296765595430e-02 -5.286280567643072276e-02 2.247954555450245445e-02 -4.993780524469989407e-02 -1.136335378965694504e-01 7.432594370032478970e-02 -1.072751569864766191e-01 -1.150592072678636724e-01 -9.282048488423236265e-02 -3.451162913734993204e-02 -8.670556045337771134e-03 -5.684010110327352566e-02 1.142909549169653649e-01 -6.079790083407890511e-02 1.566392337063075499e-02 2.397791372483214223e-02
-4.782650314965548703e-03 -3.064468847409645980e-02 -8.306561951696349311e-02 2.374845118707583774e-02 1.170018790353972438e-01 -1.755803819396885204e-03 6.874105782696668387e-02 -1.358062019509602703e-01 1.819507294852893559e-02 -9.161411409947078921e-02 6.725115640744938617e-02 -1.497559208163822542e-01 -6.918188837078341480e-02 -9.791958821754184750e-02 2.695812705375430496e-02 3.554968034641535664e-03 3.568311554788108908e-02 -6.420705977082023785e-02 7.208086991187218073e-02 -5.347651402339162474e-02 -1.039593549726508942e-01 4.714758195918201250e-02 7.504378520906572134e-03 -5.469234041031321904e-04 -9.314543291486104826e-02 2.178127335991397046e-02 2.857493010050049173e-02 -1.053968552405286779e-01 2.130196395015010111e-02 6.498406666796868736e-02 1.712619956986592348e-02 1.115177227476035066e-01
-2.851594872538681935e-02 -5.762452925521662633e-02 4.201185802462811814e-02 1.285700991704235574e-01 2.974902633367348948e-02 4.077510163642029256e-02 1.003881630719913182e-01 -7.520995163853435965e-03 7.172749187900583946e-03 3.753286891482261051e-02 7.735213633719796589e-02 -7.678218537189618331e-02 -1.509648880086794098e-01 2.579362243748916511e-02 -1.112506434391904026e-01 -6.720095305971633681e-02 -6.487178998959233778e-02 -1.234259477759716561e-02 9.801592806005551828e-02 6.788103876345884247e-02 -4.911783114720009308e-02 3.941504798757294176e-02 -2.299408070554135458e-02 -2.057062715783074605e-02 -5.198580824501257414e-02 -2.322439346576713262e-02 4.956836912224673458e-02 -9.394731848695957177e-02 -9.259331552022334599e-02 -1.372539739309542595e-01 1.129860804968158550e-01 8.926406274747997194e-02
-2.110845029739295831e-02 -1.193128168254395938e-01 7.919939196352336619e-02 1.903345416474764087e-02 -1.026444610205430596e-01 -2.796140936911652164e-02 4.286708479176808834e-02 1.350296370142016478e-01 1.732011873728281706e-02 -1.324582718051806329e-01 1.013281802330776582e-01 -4.771846767356022201e-02 5.607079769640656297e-02 4.275967474180659977e-02 -7.034303676383241947e-04 5.930749821245301368e-02 5.326969375368666854e-02 -8.574173624504405344e-02 -5.473594605569438720e-02 -2.461014438525910286e-02 -1.100551493835127438e-02 5.188867911917328241e-02 5.131563678426048075e-02 2.441588005775296305e-02 -1.282601320035331449e-01 -4.010663734567831290e-02 -2.666082581638827553e-03 1.001598082659291844e-01 -7.126852457698795718e-02 -4.749413433401347695e-02 -7.305512214764493806e-02 -6.018936021379267531e-02
9.334113117932459069e-02 2.110385252710176088e-02 -9.611563285904616005e-02 8.392054579685016835e-02 -8.110299835909605404e-02 -3.641631535998723218e-02 -9.069663431052274460e-02 5.644046070010340366e-02 -8.754981834413323727e-02 -3.748623171137420440e-02 -5.931213830622530936e-02 -1.168410649157144710e-01 -1.202809386938192004e-01 -3.189185395014656338e-02 9.719691538636286710e-02 3.561804669118545652e-02 -5.733894033941291934e-02 1.114368405027087588e-01 -1.092478683062284572e-01 -8.161212481838444623e-05 -9.587309306132144049e-02 2.378760268833203517e-02 8.068922781043194603e-02 2.660402698192108895e-02 1.006313445036507472e-02 -5.788610116767916453e-02 -1.006837817423023168e-01 5.501564712250756745e-02 -1.227339830831459221e-02 9.583443520166716467e-02 -1.601097227919175484e-02 -7.361357067117982322e-02
-5.110267585360751819e-02 3.792709090830123642e-02 -9.264875269765740495e-02 1.742244944026236086e-02 -1.238489277609875344e-01 7.081713426747358875e-02 -7.012204125051553494e-02 3.906542511396366574e-02 -1.952106373811451218e-02 -1.143876962324036906e-01 2.966951697957682238e-02 3.522521035966005853e-02 2.563486240647305098e-02 -3.352953554800397473e-02 -1.187398497199916719e-01 -1.359861746747116629e-01 3.798611879204390890e-02 1.158884199220399647e-01 -1.516631289610048117e-01 -6.839876004267274323e-02 -1.133756083645315674e-02 1.423871260969093444e-01 -6.684718865568843593e-02 -1.121884865173621987e-01 -5.413760161101185270e-02 -6.045795502798814031e-02 -1.016210384002941558e-01 9.754220765513767905e-03 4.307839265792699768e-02 -3.134103200799392367e-03 8.634821851740545617e-02 1.177129868608823432e-02
-2.105653378257165212e-02 4.762025384611353468e-02 2.867844258390591511e-02 9.962597372161759168e-02 6.755752882765465872e-02 1.106108795339751372e-01 -1.916594560882111525e-02 5.253257652570939712e-02 5.139483547583374723e-02 -2.895813922106787314e-02 7.602316385034639523e-02 -1.191204245042606497e-01 2.213227979382698801e-02 -6.155610624163812550e-02 3.005737707916046261e-02 8.896052500284663822e-02 1.345697591773239166e-01 -5.577967535329700355e-03 -1.348192643611352375e-02 -3.852771236009840203e-03 2.624131674733400435e-02 6.793912575259915265e-02 4.168488811258384830e-02 -1.098504188547748117e-01 -4.220417230505066342e-02 6.789068749985843754e-02 2.325875165982899465e-02 9.949133948763247415e-02 -1.959278501037774178e-02 3.729531116108291550e-02 1.007343752430676781e-01 -3.680449633582337510e-02
6.954457152298100520e-02 -1.045852054915646923e-01 -1.215543192050981824e-01 4.641760856224316084e-02 -4.459260452633308225e-02 2.243937509318794099e-02 1.570054285479014627e-02 4.115313357825554560e-03 -9.853915641089810995e-02 -5.990185105940440402e-02 -4.561410972078083770e-02 -7.608197922375714572e-02 -7.612249372371543421e-02 7.902378686196045998e-03 1.101417530963770819e-01 -5.964154940669881555e-02 -7.820287382843983670e-02 -2.697907151567887490e-02 4.968559022742494863e-02 -3.103714270019693883e-02 -3.777754405372756030e-02 -5.249269994292184854e-02 1.059023033807958147e-01 7.822688828842780384e-02 -9.501726495976885178e-02 7.614273156027012712e-02 8.836048919386531308e-03 5.870445810323300651e-02 -3.600001959432478499e-02 7.772546175296048479e-03 -3.336073308487220307e-02 -1.544348604926067473e-02
-4.600838029192880901e-02 4.109058371639272983e-02 -1.344889411914035882e-01 1.589186980417711323e-02 -8.651791829498464703e-02 -1.717248807306844677e-02 6.162224235729954480e-02 -3.148199653252594515e-02 -1.459822340291800323e-02 -9.927886285623828411e-02 -4.093302627590791193e-02 -6.152396340796333074e-02 -1.613718155867989446e-02 -2.690470713430712004e-03 4.125548019387100668e-02 -5.380610995673913016e-02 6.905906348853300958e-02 2.061701681225353369e-02 -1.027761498706540044e-01 1.087008877053075584e-01 -5.032398442034533709e-02 7.541682302859767373e-02 3.828784312306547817e-03 -3.568023800119766997e-02 -3.614834909995258416e-02 1.378955358610071957e-02 6.132171845318715869e-02 3.173125711486429745e-02 8.085763696928403854e-02 2.006697108685302072e-02 -9.518785932079348866e-02 -6.834308742137233661e-02
6.370256358996836954e-02 -5.966637484558336840e-02 8.189127505727430978e-02 1.137825064322270929e-01 -4.906215454540608506e-02 -7.588735422727555316e-03 -2.401955141511014427e-02 -2.534298751589534118e-02 -2.566874396082053852e-02 -1.857191744460614732e-02 7.058457253103244712e-03 -6.218083630170421344e-02 2.491921910769625409e-02 4.152145098945456136e-02 7.852522729340023766e-02 -8.406368014517393017e-02 1.153584528089635491e-01 -8.940255881420564044e-02 -2.915557363788583850e-02 -6.716032479989672566e-02 -8.459307129193001373e-02 2.356099994833089125e-03 9.145408851964380303e-02 7.224981679877927332e-02 -6.736579260074856967e-02 8.133133781198471912e-02 -1.215851929530320646e-01 -2.639682419350335152e-02 -9.311444675605856647e-02 3.686074084009475366e-02 -1.315766107183060155e-02 -8.049984981471323964e-02
1.216458402899541907e-01 6.045403028322628852e-02 -9.676561037974483470e-02 -4.497315623329237178e-02 -5.053335000971242302e-02 6.617306330013977833e-02 -6.369950805647595082e-02 6.604027263152381644e-02 -5.638710221725296012e-02 -8.669587261568177661e-02 -4.780292406908365904e-02 -2.226089021123799777e-02 -1.379411997008209156e-02 -7.769071081549362712e-02 4.671994600466118641e-02 -8.362014587728845705e-02 -7.328195042581620022e-02 -4.361116373460401097e-02 1.012472917576177217e-01 3.463317944374054436e-02 -6.997114698742923355e-02 -4.182167341264169357e-03 1.237295409947459894e-02 4.562594423146949449e-03 -7.846302610945210532e-02 6.122053954807556500e-03 -1.024060986726626904e-01 -7.038665006254961332e-02 -2.354746625172828706e-02 2.683496743959928182e-02 2.329735901888608032e-02 -4.858780625485674583e-03
-1.646526413155452451e-02 -7.792909937339115301e-02 -6.114313706099772094e-02 9.266749799005080668e-02 2.356206577820509421e-02 -9.626925487327912118e-03 6.398478907480799338e-02 2.038099724103181395e-02 -5.475870258922335698e-02 -6.072330300307873970e-03 1.226542742096098718e-02 4.749514073781274659e-02 1.056062925461692670e-01 -1.193252490599999438e-01 -3.035238812233514993e-02 5.395777593401763356e-02 1.395942115948963294e-02 8.375090655779669768e-02 1.135111082475113303e-02 1.777187278484382987e-02 -2.617593427020045022e-02 -6.205312442815962004e-02 -5.519377700162843292e-02 4.193850340893823248e-02 -7.475744836216131894e-02 -2.310363890888228466e-02 -5.418328271286065867e-02 3.891168672236201137e-02 -2.889361914130684356e-02 7.243510867003423448e-02 -1.447697592477816680e-02 -6.412681559662199160e-02
-1.738268167702868364e-02 9.806515632696459484e-02 -3.632907043758309973e-02 5.411836435697461173e-02 1.011261423533875436e-01 9.456170478151675052e-02 -4.098259960445538308e-02 3.096044108076777615e-03 3.701816428903365042e-02 4.279301010832205210e-02 -4.170235396643347942e-02 -3.843683112623010739e-02 -7.339794044085239111e-02 -1.128643597735438098e-01 -5.263836976878234070e-02 -7.647307294976517233e-02 5.244141611477982218e-02 -5.110549178008228638e-02 -7.661566838820767222e-02 -6.850144651147793695e-02 3.406230473509731099e-02 -7.005211133470158613e-02 -1.047622963707229085e-02 2.675968045580193883e-02 5.866954773503760961e-02 1.544477454191740817e-01 -5.450810760129898985e-02 7.240472266326203332e-02 -4.981182981325607551e-02 5.145540606926602561e-02 6.979697319511130038e-02 -7.218661809428850162e-02
4.206037444213478471e-02 -9.906461317141066966e-03 -1.174680489045395737e-01 -7.631637215116878446e-03 -2.531006332812872454e-03 -9.852338526258785922e-02 -2.713760987914228678e-03 3.594998192629234035e-02 -5.874470430642898811e-02 2.230305720196069930e-02 -5.491833844065694553e-02 6.895269439968851159e-03 5.044814689087065082e-03 -1.395107005665513766e-01 1.241721782843208527e-01 -4.634396055580043694e-02 -1.181196263469668634e-01 -8.596537539509442605e-02 8.516221192086377567e-02 3.327499163236664198e-02 -8.657270906743354255e-02 2.447082544744343460e-02 4.302064138968421381e-03 8.754624346320956374e-02 5.056262961198544972e-03 1.176758978508653797e-01 -1.178314164801839148e-01 -6.598916650762021163e-02 -8.671913356365150427e-02 6.431270623170562417e-02 1.121263095685980649e-01 2.203841651086748971e-03
-5.806109304312053604e-02 -9.796517743870418460e-02 -1.419589834390371508e-01 3.361816516068370092e-02 4.111802782922564792e-02 1.020854841730187978e-01 1.157954396346273090e-01 5.314113672702035912e-02 7.193720332346795199e-02 9.018063856575340986e-02 -1.135532285934187091e-01 -1.843724212045743868e-02 -6.079393183369267983e-02 -1.976166805504523186e-02 -3.082177145008257318e-02 2.542702380283460781e-02 7.127707635778686435e-02 4.533509024281360406e-02 -1.391473640385772377e-02 2.466711996332006385e-02 -4.173512108404968043e-03 1.027027574951532296e-01 1.129565696368753785e-01 -2.362869373004029133e-02 1.776897914526244515e-02 -8.809158837822340243e-03 -4.119240993969028319e-03 4.743168065772403880e-02 -9.884595657835475169e-02 -3.592043311169339226e-02 -3.077266349218581512e-02 2.950204251659824944e-02
-3.991711718599386116e-02 -8.125604402770852941e-02 -5.757940465677043734e-02 -4.645044445930290172e-02 2.409032585241908941e-02 -6.966681927460162405e-02 7.597763397329639068e-02 6.458267408309723012e-02 1.197312956986860549e-01 -6.660067866626366573e-03 6.988717954058042137e-02 4.562782621322428178e-02 -6.332108790705739954e-02 -7.101899324756510978e-02 5.108080837362354715e-02 1.121844938233863831e-01 -8.156631046926754447e-02 -1.424313574277955574e-01 3.727460633155908060e-02 8.736839671883131486e-02 -1.033046731109340116e-01 6.913118821960943794e-02 7.053176259123856984e-02 -1.070572197674395619e-02 -1.416331249958041258e-02 8.766687694851475754e-02 7.969719005246776733e-02 5.458390601518715857e-02 1.970782357652681518e-02 -5.575461696124724836e-02 -6.066108939401854833e-02 -6.477211454370791072e-03
2.517404109520251718e-02 1.047252671671534685e-01 -3.682536343562667347e-02 -1.038719509697066529e-05 6.101967537063636426e-02 6.992516828399589213e-02 -3.321115433061415097e-04 3.987924604519933747e-02 -1.763525896916868022e-02 -4.854049256195751283e-02 -5.333056391609859725e-02 -7.998143993293208021e-02 -8.730801377150509968e-02 -1.219932783126893433e-01 1.636653914339965613e-02 -9.745371592300289265e-02 -4.737097791860440943e-02 -7.915051444486612131e-02 8.057474109905078674e-02 -7.290635266764687594e-02 -1.255372649821732134e-01 -4.428064634250867410e-02 -8.691822511314400979e-02 1.021443678322573739e-01 3.091396369995634552e-03 7.171535646529665631e-02 6.114000234917636029e-02 -1.780185141675616478e-02 -3.127538602257463884e-02 -1.133071784810920669e-02 -2.444701732238920705e-02 -5.492081615456947952e-02
-1.271670809360853360e-01 3.722563504899445430e-02 5.225748120792380463e-02 1.321004457399808235e-02 9.194641286656597690e-02 4.221891634194679943e-02 5.026148133125042661e-02 4.399972038762058058e-03 -6.483241244448666174e-02 7.176474469695190428e-02 -9.007039576368430778e-02 6.112768528220588471e-02 1.477920227065324631e-02 -1.184551020713673353e-01 6.515121320460573462e-02 -1.184780015568389078e-01 -6.095375416975392507e-02 -5.022507861408918167e-02 -9.647951774407372005e-02 1.794570584004184094e-02 -3.583617101680255934e-02 -5.850798907785654396e-02 8.053886308874075306e-02 -6.066886109452115233e-02 -2.167729169860199440e-03 -6.149120095694859955e-02 9.479041651038150329e-02 1.891141398846743482e-02 -2.269749688459382284e-02 -8.659758084121138566e-02 -6.492601760660519916e-02 -7.778169022772381258e-02
-8.264465480923464946e-02 2.590762534591615693e-02 2.026470736279805188e-02 -8.891095764992384964e-02 4.572461037141942186e-02 -3.619251399094587651e-03 1.233677804641422071e-01 -7.112971869389560220e-02 7.295687228400428437e-02 8.523876944262877287e-02 -9.328184312116265253e-02 -7.642627887177226575e-02 -3.255916398255161853e-02 -1.197638455805650759e-01 2.886060716306128315e-02 9.804222657982429590e-02 -1.519231426873099595e-02 -1.049185520250255632e-01 -1.003453822517933192e-01 -8.264083026144961042e-02 -4.313530447207328949e-02 -5.061088218979647307e-02 4.219095828131754627e-02 -1.124575500531692085e-01 -5.008302176995722832e-02 -1.645328242831151089e-02 5.667842760387074158e-02 1.793451307469133213e-02 2.760491695210311180e-02 -1.090039615032016400e-02 -1.374400623564557555e-02 -7.142700572564827932e-02
6.343623256313153658e-02 5.363082177733487915e-02 2.637519964244477641e-02 -4.961149902248269267e-02 9.477554927965906040e-02 -6.669210430949472357e-02 7.828252368424322427e-02 -5.818205497180294755e-02 1.962699102466534951e-02 -1.165746406192313565e-03 5.806844840914862291e-03 2.568224651053864147e-02 -8.388228646340595285e-02 -1.491445385731767215e-01 7.198816028678906020e-02 -6.947833919288148863e-02 -8.553467777248451032e-02 -1.003357788911407034e-01 2.708925151002449308e-02 1.730083389252741466e-02 -4.716550943005050345e-02 -9.166668755752661185e-03 -7.959943057859084070e-02 3.061714299603252032e-04 -9.182929860797853228e-02 7.134650021259039687e-02 -8.746085487709497064e-02 -9.453337486736224093e-02 9.320270540719483021e-02 4.125381975194005596e-02 9.083007652355055972e-02 -1.890127962095660905e-02
-9.507988098407609001e-02 -8.639789933428798641e-02 3.820003574977671318e-02 1.057235994843415405e-01 6.572480621815157686e-02 -4.339204329623022605e-02 1.488682804324773790e-01 -4.273831146581051621e-02 4.717651238940323913e-03 3.788655529308651571e-02 -9.287008006968507090e-02 5.800735262703346495e-02 -7.124077261678407602e-02 -4.375783210497027897e-02 1.453113031927207033e-02 1.023241041253439981e-02 1.862020085187088281e-02 -5.712519441194364306e-02 -9.318762468389399367e-02 -3.027056458001362721e-02 -2.225820841377859627e-02 -1.589826418716564632e-02 7.162958314615269773e-02 1.510308944895721178e-02 -1.170120569336939543e-03 -6.218219894638554041e-02 3.560789589625305840e-02 -5.436317420114629428e-02 6.140106738771779205e-02 6.553883036974358402e-03 -7.934691788376127541e-02 -5.162197119980859589e-02
-4.062361810252849981e-02 -7.969952096985766232e-02 -9.324009656667017754e-02 -9.065279854944997828e-02 -4.043699645767222933e-02 1.775203496478859957e-02 1.181615546529248550e-01 -8.810427131457204686e-02 -4.985307679519216523e-02 9.329608957783092071e-02 4.858883790335685043e-02 -1.219479907794892570e-01 7.948708579870031321e-02 -7.427565612384054439e-02 -1.031843837752340898e-01 8.844192090249231031e-02 4.639421627229720763e-02 -1.036335944341483656e-01 3.169009335297594265e-02 9.522247114049971206e-02 5.476792858897999022e-02 -1.984325253352120164e-02 -2.601501568530470519e-03 -5.410725308570935727e-02 6.879954077011919689e-02 -9.038784847312121562e-02 1.340388276883957425e-02 9.233673033561533294e-02 -2.803165468827241089e-02 -7.801179507219806186e-02 7.603544440396189930e-02 -2.698232510321206881e-02
-4.369517937148578030e-02 -1.028091990501138892e-01 -5.384712115752139650e-02 2.912565046423156931e-02 1.279736074412596014e-01 -2.327444710808419109e-02 6.270422251728491672e-03 -5.807346359122336071e-02 1.407454310465731939e-02 8.739322647349408169e-02 -6.873964243910177241e-02 -6.410389465243285234e-02 5.964684065051843731e-02 -4.021996806177229045e-02 7.004522889605296898e-02 -3.508780573033564582e-02 5.660257214429018080e-02 -8.507366777109624800e-02 1.169564258922512756e-01 -8.144268300011742179e-02 -6.879169176891201942e-02 8.675577481959020898e-02 5.231567367153350939e-02 -9.325872878609743621e-02 6.157223066382966348e-02 -1.139623094141876680e-01 -4.526016958513712912e-02 -7.808862635940053143e-02 1.291732699389380457e-01 8.250314869918184968e-02 -3.626921305953781805e-03 7.842588347809049953e-02
-1.194523924247817559e-01 -2.795750067062216862e-02 1.937450129977362273e-03 7.372369231460056127e-02 4.023390085477525357e-02 -1.059301236880631075e-02 1.717248221782451401e-01 -6.381360183738030156e-02 -7.904701249243763217e-02 -1.037014080200406203e-02 -2.597323898384049090e-02 -8.044036787968512903e-02 -9.319583911621534544e-03 2.606009419447904291e-02 -9.543026913509401743e-02 -2.688394647269084711e-02 4.998690761284795003e-02 -4.595286169464772585e-02 -8.078910756350196620e-02 -3.045844147453555945e-02 -1.139662329783301814e-01 3.820555443689552244e-02 2.854505220825644032e-03 4.426380773115511785e-02 5.293637930906443245e-02 -1.030421400587487081e-02 -9.361099762599535412e-02 -1.253713710379473767e-01 3.857533808924156621e-02 -1.078241436703525347e-01 -5.160123629222876374e-02 1.953112624433437500e-02
-4.187983550862204966e-03 2.257569815920927245e-02 9.845824376353183582e-02 -4.264788969916239597e-02 1.472551105442755637e-01 -6.512384852099555033e-02 6.561512426067497850e-02 6.845459287589622521e-02 -1.826962477692399209e-02 -6.492247592952178625e-02 -5.064946483129114524e-02 -5.847205275758823179e-02 3.569016880958925976e-03 -8.779331494956529869e-02 -7.050345951688941071e-02 6.149733200941034233e-02 9.404028863035221453e-02 -1.362507681010090843e-01 7.220875980095295367e-04 1.812786092110992009e-02 -1.499473010365106329e-01 8.337999481486194076e-02 5.108321388826010667e-02 -7.432785507145521497e-02 -8.162228157681253315e-02 -9.681959631499863217e-02 3.004008960624394292e-02 -5.568268457141505728e-02 6.564899189096333985e-03 -3.750334932480171857e-02 -4.704369573020493467e-02 9.061782426327373574e-02
-3.018782939461607528e-02 7.241412290987228606e-02 4.972123816497752390e-03 -1.659533006120360310e-02 1.561250940187122460e-01 7.279019351593921106e-02 8.132636901697498297e-03 3.186853005095135333e-02 -1.333682929463872735e-01 -4.803961962103237004e-02 -6.446996357383918963e-02 -9.517677298763588256e-02 3.356085775684625877e-02 8.424215528012403420e-02 -2.519953139369002140e-03 -1.087021160253022617e-01 3.168301149836479091e-02 -6.942767686940487515e-02 -2.702127663399613803e-03 -2.607218403174881710e-02 -8.202599344867679554e-02 1.019473700316498449e-01 -1.238356657888408513e-01 2.867321986383342472e-02 8.157153113837430081e-02 -1.144785648640662679e-01 -9.732501298464470152e-02 -2.902891063393334137e-02 1.389630123054069397e-02 4.241020462759193671e-02 5.433845396744899081e-02 9.031104461944200468e-02
-8.424940887747181528e-02 1.736135498094039387e-02 9.135139719332666108e-02 2.716742575674626833e-02 4.012580019482230032e-02 3.919086293497064943e-02 1.281044584385512275e-01 -2.962991256188098749e-02 -9.454686474206622226e-02 -1.210730078464869811e-02 -4.588469359789892205e-02 4.399708327109269623e-02 -2.396937570043077351e-02 1.201765921970499029e-01 -2.959222263307661679e-02 2.821072951053541986e-02 4.041894367391494353e-02 -5.504397828891346295e-02 -4.506695152521204839e-02 2.802502195727065923e-02 3.068290249923331242e-02 1.411313206239101468e-02 5.367950654020379325e-03 -3.351480480435573700e-02 -1.064322043891667846e-01 -1.047719022218523838e-01 -9.404041728783231469e-02 -1.321938388492447658e-01 -2.354760940779851083e-02 -7.277458606803201280e-02 1.023050366565432107e-01 -3.553771587129922471e-02
-3.533034323204772842e-04 -1.031666011227193314e-01 4.588477091302629873e-02 -2.463654780624487117e-02 -3.579006311477284791e-02 7.044169206238576342e-02 6.111588898327074970e-02 3.604894376644865450e-03 9.519500814970861813e-02 5.838922153330749869e-03 -5.592894465283924227e-02 3.873023940722791075e-02 -2.022364432159512448e-02 -1.529583678943294625e-02 4.648854048346694190e-02 8.635903655026090989e-03 1.259938995639617587e-01 -3.864146325918042801e-02 -5.262539625866882037e-02 7.856747778281976402e-02 -1.049156030960099323e-01 5.526471963570159240e-02 1.105682584530571777e-01 1.062952583421462732e-01 4.712636133640060732e-02 -2.434646781581311509e-02 -8.903773076959095589e-02 1.296749964533780164e-01 1.109690405647009576e-01 -4.715619559300783525e-03 -1.805281114984334453e-02 3.384170734070239550e-02
1.113651366957656985e-01 5.551790171843972235e-03 -9.190905118546631447e-02 9.990897951156997581e-02 2.569537506298915849e-02 -1.316410530654226474e-01 3.900343983276809839e-02 1.146523833415227650e-01 6.345386945028141934e-02 -4.091308058962721955e-02 -6.329655930230604355e-02 -8.208826407736916075e-02 -1.133137907601475675e-01 -4.723100260765222130e-02 1.164144426684233652e-01 6.619268239501964468e-02 9.204330549325726030e-02 4.968570998333801669e-02 -3.994387284550206252e-02 -5.859790817624648679e-03 1.992995736389574155e-02 -5.159055152169601810e-02 2.716706774084905879e-02 1.069318794260041422e-02 -8.265151672474947697e-02 -4.891144374160660618e-04 -3.256618144258447561e-02 2.663688982530285770e-02 8.807796166369784296e-02 -8.290285225913869571e-02 4.830432692135930295e-02 6.794468187022505157e-02
6.253863419410475577e-02 -7.804908964657997217e-02 -9.913448751707295420e-03 4.446212616166723280e-03 -7.332726112750344305e-02 1.419886291632056242e-02 9.639567000884773085e-03 1.422014713666856778e-01 -2.715824926607034867e-02 -6.458010191484084284e-02 -3.551226872740258222e-02 8.854023287508866469e-02 -4.064637547339437773e-02 4.204570166501977319e-02 -4.694167036177559343e-02 -1.117004161344629237e-01 9.973254471246284503e-02 -3.391582419565983275e-02 2.222304718153319831e-03 7.307392167593368404e-02 2.812006274353594237e-02 1.402475372975636458e-01 9.126189243278327867e-03 -2.710891664887399907e-03 -2.986693254748348098e-02 -7.859233280746781569e-02 -4.813540407237211494e-02 5.207710777378246614e-02 1.333274604806330976e-01 4.642232501621673668e-02 1.932792369888516101e-03 -7.742441097476535083e-02
-6.504452427211711296e-02 -1.092069592518439686e-01 2.597944696745330129e-02 -3.852856233556102572e-02 -9.306013079286440393e-02 7.691530657527542725e-02 -6.022079585491638132e-02 -3.419430721829717912e-02 7.878026874040643113e-02 -1.003127873126137687e-01 -6.959999010288445143e-02 -1.345870399482433644e-01 -1.051370634619682443e-01 5.536221927957860750e-02 2.244223580297579484e-02 -5.689923103337404808e-02 5.658893478257372156e-02 2.899451143906895192e-02 2.743125466086765874e-03 -4.191145189057132042e-02 -9.696167819308698643e-02 -3.603652577972169414e-03 8.965260998669891124e-02 3.866510512674155992e-02 -1.297158596398438057e-01 1.056941770543294301e-01 -3.908953341822148791e-02 4.910291446265912380e-02 1.110330012723017290e-01 -2.288035003761140773e-02 -8.744515455901402667e-02 -1.293554844143026891e-02
-1.725352160817492098e-02 -6.112142624614088499e-02 -3.236241989934774549e-02 3.644354176395805944e-02 -8.299231919153653159e-02 -6.739588171112721737e-02 -6.068591999510881962e-02 3.282227018317096512e-02 6.640751093729575782e-02 -9.995934273626583266e-02 -2.883038848170479257e-02 -9.313679753378940884e-02 -7.184672738418401705e-02 -9.629770484962298788e-03 -1.235815460319122580e-02 -3.559862718528237352e-02 3.382469821707114604e-02 -5.531029234817056231e-03 -7.282965518194894905e-02 -3.483539585475892153e-02 -9.373883756722682647e-02 6.231948328788816660e-02 9.190950392091680465e-02 4.189329158464536601e-02 -9.734962718866425890e-02 4.058981825216792516e-02 7.963563888217127518e-02 4.804095676576558560e-02 -5.000416003279477967e-02 8.926527583912760577e-02 -3.017182147880843532e-02 -3.802085195049854927e-02
-3.959000584926570393e-02 -4.356982825927902675e-02 -5.635108827477926935e-02 4.531057136311841815e-02 -1.077982636234233599e-01 6.121762004147426883e-02 9.974517542524555247e-02 9.166695022429267870e-02 3.684740141728165379e-03 -6.580411309244058038e-02 -1.026356953401607319e-01 6.266947768716608913e-02 6.905435656840341885e-02 6.744168199787993478e-02 5.757142711617756897e-02 -2.155013068245686947e-02 -6.481240044230614228e-02 -1.419480644104458188e-05 -8.360972885366915741e-02 5.553410562787606392e-02 -5.886502134394366176e-02 6.571917604910905431e-02 -7.874800317008230632e-02 7.437665611092984796e-02 4.243682985613227154e-02 -5.238769548263225162e-02 9.269606399861565760e-02 7.792159151060013000e-02 9.351215247390737284e-02 7.637591807541689592e-02 -3.582455314839872590e-02 -1.186374191939355144e-01
-4.579385150998628584e-02 2.498046611605594242e-02 -1.079122272955225087e-01 -3.615266418284691224e-02 1.193668931013351364e-01 9.160849857554463627e-02 -4.856319541595075645e-02 4.481734477056517618e-02 -2.177924990909354055e-02 -4.834069200181771025e-02 -3.474757710808708960e-02 -2.655287383885796730e-04 -1.208964734276778662e-02 1.490395593775461179e-02 4.792320903256322429e-02 9.433193962699343293e-02 8.023312358043852011e-02 -1.257950327356014975e-01 1.075788222711718534e-01 -1.466393047928952337e-02 2.091024045629098424e-02 -1.930592704784548155e-02 -1.355007931539227613e-02 3.624327037690350077e-03 -9.624630516644461231e-02 1.102117039743756577e-01 -5.600083823119912131e-03 5.638094426215829735e-02 -3.513785494277912175e-02 8.548498700944494322e-02 -8.676655701452133662e-02 -6.369393985413919490e-02
3.017914564932644775e-02 -1.158399025398932219e-01 -6.338144395213168858e-02 -5.518763856111750382e-02 3.199150567016078445e-02 -6.120916692937244941e-02 -9.431027050352443208e-02 -4.959814842388124423e-02 6.445034872127780243e-03 6.223621791937983261e-02 -6.135288343946723039e-02 -3.888390468777182946e-02 -8.113479616032951910e-03 9.048294114392443563e-03 2.161468847811218522e-02 -7.589902983916066437e-02 -6.736122958001262984e-02 -3.830252792121545402e-02 9.479040979203931516e-02 -4.496614296592147536e-02 -5.675932984577158891e-02 -7.890418710606229846e-02 6.876523190475788971e-02 1.012517033415879925e-01 -1.229346948726587480e-01 3.307218493307653023e-02 -4.888901929772485055e-02 7.690376423788924942e-02 1.648352580285709565e-02 -1.794029759493167729e-03 -5.202656100662915450e-02 -1.378663220057646244e-01
-9.731807995715761883e-03 -1.194866451314309796e-01 -3.381561310552063174e-03 1.067848379718831231e-01 5.323181422052784134e-02 -5.523207902951904336e-02 3.709096053931778408e-02 1.289842948408238543e-01 -4.755072914565748599e-02 -2.180000588415611715e-02 -1.037464543557507363e-01 4.625628079607885246e-02 -4.992412846351853076e-03 3.497435540718754621e-02 -8.188099156681194479e-02 -1.007425268327565571e-01 1.319873626426013302e-01 5.412869902518144954e-02 -6.058923070907951125e-02 -3.225768205486750917e-02 5.223282094571956441e-02 4.258566142353969325e-02 3.828908241817158969e-02 3.488291341259557032e-02 -1.402718257451476824e-01 7.800523403579769088e-02 3.847825118037934838e-02 1.044607988764640477e-01 8.734777179959704596e-02 1.867751176951014391e-02 1.586592485425556212e-02 -1.259686280097155331e-01
-6.645622536122264279e-02 3.119039082264541199e-02 4.383854605135305282e-02 -9.887647629039136854e-02 2.420864379290429622e-02 7.737265630337332445e-02 4.585883444743622112e-02 -3.732101588181045010e-02 6.487946398359707711e-02 6.123136614248027819e-03 4.192549004695851622e-02 3.158565514541590222e-03 -1.019856823013794017e-01 -5.322754350663992662e-02 7.804674074765934055e-02 3.861780211695582665e-02 7.491757410722821309e-02 -1.326969316029087964e-01 -4.925820758612803676e-03 2.449623274639329412e-02 3.909477652848185325e-02 -2.023876869599374601e-02 5.196119237062962054e-02 -3.171261691913751513e-02 -9.353167862705256963e-02 3.748837210902705025e-02 1.951802103611216879e-02 3.448694541545579278e-02 -1.374376955354030157e-02 -8.340545872761127855e-02 -7.137273093029791737e-02 -1.506555734890748788e-01
-5.716999296009838555e-02 1.276269381098256786e-02 -2.625635393693824191e-02 -3.940775368417582560e-03 9.053727565652082421e-02 -3.865092976049749190e-02 -1.842390901019960725e-02 8.776054510899569672e-02 -1.143714658513554638e-01 -3.631265519560807065e-02 2.967814945610307287e-02 8.385439052543035635e-03 3.545411308178936238e-02 -3.825346020828445520e-02 4.913379816923067051e-02 -1.161012607366538330e-01 3.250468675066654767e-02 -1.498994928551899627e-02 1.679505461935572319e-02 3.328893156154665717e-02 -1.522982392757474442e-02 -1.872226925150891064e-02 4.621775813004808109e-02 3.749929795318066722e-02 -6.330233766851786625e-02 1.110991621975917170e-05 -3.642243278023392372e-02 -9.018857185874201710e-02 3.122088963270889389e-02 7.810340187443534643e-02 6.380691960123945072e-02 -1.187876382626768118e-01
-1.312928375292186645e-01 -7.062484363117850494e-02 -1.130902615972522590e-01 4.945065393556000166e-02 2.422281289303672772e-02 -3.528597658999530623e-02 -8.280641859329161691e-03 -5.879681027830705592e-02 7.108169542012345021e-02 4.331391898294361525e-02 4.011019858347932010e-02 1.282110908337374677e-01 -5.959076563589010139e-02 -1.465330156225336938e-02 -4.119517523497816247e-02 -1.252129680724116956e-01 3.267370417559455065e-02 -9.312268134547968534e-02 2.718789997124736874e-02 -5.258216623775420658e-03 2.422085458566165458e-02 -1.110963096087779489e-01 5.441109145163934568e-02 9.909658550946195965e-02 -8.065931517647091653e-02 -2.430538630844325879e-02 1.014760521068035493e-01 -7.032193943852403650e-02 -3.627053932077491105e-02 -4.406601663160315124e-02 8.357161115447364619e-02 9.184473207803325184e-03
-2.497670908374806029e-02 -1.908175480640484159e-02 6.248873092819747649e-02 5.013529934847668623e-02 8.529317078944353980e-02 -4.888007581093151144e-02 -3.388730428390063915e-02 -5.617407990003258494e-02 -6.395253494046658493e-02 1.172734734729646705e-01 -7.923893078622262776e-02 2.244915612745997102e-02 -1.189368277139093814e-02 -1.234174039056722127e-01 9.140248300170372708e-02 9.633517547911650547e-02 1.172332061603354736e-01 -9.265955325402716602e-02 -6.526610460321986829e-02 6.651623419212737698e-02 -1.136802311686963413e-01 3.491958156333328095e-03 3.961769910268925221e-02 5.124464634567382770e-02 4.361525899629938030e-02 1.014758877564891082e-01 -2.859900863529608872e-02 8.889149440733759566e-02 -1.121763834824166389e-01 -7.151296216449816445e-02 -8.158242403348471561e-02 -9.184780480062089067e-03
1.685801613875124658e-02 5.346696457713035616e-02 -8.356550261927567225e-02 -8.143020414796052486e-02 1.108208946159718739e-01 6.614550854672704427e-02 1.012971134099713150e-01 5.428301167878531175e-02 -3.335205977042017978e-03 -4.545259894971818981e-02 -9.604049002077981456e-02 -3.435984255174776014e-02 -8.412220647243665028e-02 -6.759312388595734022e-02 -1.029587209036245815e-02 7.110808307847547860e-02 5.887483222821194434e-02 1.856441776623422380e-03 -5.972313414544404980e-02 5.149073109789163716e-02 -2.032858719632561068e-02 -8.741985444414389350e-02 -9.789254863963444894e-03 5.310824479135207304e-02 2.116600080338057466e-02 9.297673447777109190e-02 1.050589590334124745e-01 1.496055930135378395e-02 -2.234154050331304403e-02 4.781540918351998015e-02 -4.164698036255472940e-02 -1.336978686170112729e-01
3.662767352016558370e-02 1.152981593177676914e-02 -6.613008853087103123e-02 5.277322581661405415e-02 -5.368770246555946979e-02 -8.725940614035062118e-03 9.116886040003430169e-02 9.344246951819189240e-02 -7.660983043883039245e-02 -6.779797679361346426e-03 3.318694907918602610e-02 1.110434957140978146e-01 2.211612062993178682e-02 -8.790967158890330979e-02 -1.193979716916425231e-02 -4.632378526426651766e-02 7.059543448306204727e-02 1.590508296853284861e-02 -5.485639494961654788e-02 7.750316436258254671e-02 1.878499998460620877e-03 -5.207695186773732970e-02 -2.697514357726340725e-02 7.408925514591728489e-02 6.513868025989119626e-02 -3.606548031240730534e-02 -8.966553057287755812e-02 -8.998154414779872823e-02 -1.039343694752284386e-01 7.000622962581116125e-03 1.897580552689941396e-03 -1.578283890608140339e-01
-1.261101775522853463e-01 -3.582903554963931536e-02 -4.447765589365371142e-02 -2.076099531004991713e-02 1.888812602439264576e-02 1.145118389482697591e-01 -7.719142768869366455e-02 1.097786884507427098e-02 1.011425696793996354e-01 1.119086025382308863e-01 5.567392689705200071e-02 4.929353376757609345e-02 1.777091752218284623e-02 -1.125013804955758562e-01 6.304525120892448542e-02 -5.983508020667459293e-02 2.769046623953342820e-02 -9.884256113233260560e-03 -1.271914345786427925e-01 -5.732555782820538542e-02 -3.151808463688750023e-03 4.777927491106545577e-02 2.167092419002041720e-02 -4.550250345275655417e-02 -2.408443873991105745e-03 6.335599896184346269e-02 -4.060871154646621128e-02 -1.983978027688718115e-02 -5.881146472872551004e-05 6.802235704773799962e-02 -5.212377224334342057e-02 -1.281370975404748924e-01
-4.883586807427486853e-02 3.985167416992375922e-02 -1.284542198609114616e-01 -5.848609025449304222e-02 3.998398320952075563e-02 -6.386267277876241100e-02 9.224046325530829704e-02 -4.145405002304407976e-02 -2.556270293521475945e-02 2.471968354256156263e-03 3.201765388261541834e-02 2.613673316034054520e-02 -2.371096114638583663e-02 -5.260246363552197046e-02 -1.555235859131340152e-02 7.095003931381747841e-02 -5.924574751604366751e-02 -1.437507211929932582e-01 4.481814550285139614e-02 -5.651966663990193318e-02 -2.565883289276353965e-02 7.530386012733480960e-02 6.363581453254989195e-03 -9.214635112293374786e-02 -1.116634814793874934e-02 -5.149646948116031603e-02 -2.965266218231685930e-02 -5.684230698549601335e-02 3.048440863062523015e-02 4.492250574504026706e-02 -3.524614114801184056e-02 -1.204867211640933133e-01
-2.724173625153548245e-02 5.992187059436423352e-02 -1.008115190745350054e-01 -1.486426012505138831e-02 -6.600128390436332815e-02 6.341308667502347507e-02 1.184995398043041104e-01 -7.767173774522198593e-02 -7.396982318820055635e-02 6.527115184945347925e-02 -1.136160661454264503e-01 9.267111571488069466e-02 -6.841726749991916545e-02 7.941856966247201610e-02 9.373331926246604440e-02 -7.789799084284790287e-02 -3.018909228367244735e-02 -1.425428395769613166e-01 -1.105372486509679369e-01 6.717559919639916333e-02 -3.980316114687560552e-02 9.408760334068373699e-02 -9.542967908575286651e-02 -4.111610800230374591e-02 -2.425879634667553117e-02 5.454674117513771958e-02 -6.900233273696487757e-02 -9.765699118445399229e-02 5.927315621133159851e-02 -7.788643559849454945e-02 -1.003035064646983637e-01 -2.190802712541407762e-03
-1.301495952367441034e-01 -8.431775241377272023e-02 5.287548992126078762e-02 -4.313335358163324779e-02 1.041542156688505111e-01 -4.391600581197425968e-02 4.341407068385640111e-02 8.318639168431690711e-02 -3.369157381156448472e-02 3.319492518816119508e-02 7.544654401403577682e-02 -5.234119084501973745e-02 -4.199493607621900687e-02 4.282792943658075835e-02 3.639151217481318562e-02 3.260627087976598198e-02 -9.841180758419169200e-03 -1.463094527891602437e-01 -3.788481448860763455e-03 -9.128500448839324544e-02 -3.440474924951795327e-02 9.893708438509415948e-02 4.824529688669592503e-02 2.988338970119682608e-02 6.751088531459557840e-02 -3.948618858292227835e-02 -1.139437246539688059e-01 8.153223699331606233e-02 -5.912681752379207734e-02 8.228126567110174983e-02 4.668253482466783177e-02 -6.786128028768258214e-02
2.988035530163129366e-02 -4.739841394599932783e-02 5.102818419736900035e-03 -1.101669512298498327e-01 1.138279845299879495e-01 -7.853634060280442752e-02 -1.250276347564019484e-03 -1.083336865463371303e-02 -4.530408125056814561e-02 3.118849771350043140e-02 -6.818043158983630447e-02 2.925752493203908483e-02 -8.001595170353455189e-02 -9.831471609387489041e-02 3.917329370521008269e-02 6.377802955644103211e-02 -8.781575440422971501e-02 1.458704068314446538e-02 1.292173890250941926e-01 -1.386568917551835381e-02 -9.778053952442336549e-02 3.779967049391694256e-02 -1.300182449087556313e-01 -1.054019632834882203e-01 -6.218376693845380221e-02 -1.263652332643286358e-01 -2.713083710065845346e-03 -1.640601362555131311e-03 -2.882060541923849636e-03 -6.188172712275467197e-02 -9.061816201737099563e-02 -8.667082586344054471e-03
-5.746499332207165300e-02 4.948152648627884148e-02 -9.176739153945313865e-02 6.255446128091554647e-02 -6.377505747046249840e-02 3.956898841834731451e-02 1.103020221587395489e-01 1.804733445773158348e-02 1.701243704179430591e-02 -6.942335231907363104e-03 -4.968307971805477341e-02 -4.801456184320296305e-02 -1.391767938653169431e-02 1.829316812506334711e-02 -4.792291609107473399e-02 -8.456261260082698072e-02 7.060000347545486443e-02 -1.211803833273740333e-01 8.275727514095852777e-02 6.214805497514747784e-02 -6.163480296307158324e-03 3.347875793704302438e-02 -7.692135960033054040e-03 4.025720205345321295e-02 9.292477959205512617e-02 -9.405926485175319929e-02 -3.152941599189506422e-02 1.344671914830375750e-02 3.870859735072720853e-02 -8.458213150781113132e-02 -1.049895798824048432e-01 -4.080091712706882673e-02
5.373452374899030659e-02 -5.394662909503653014e-02 -9.324499298595056995e-02 -7.741170762803482874e-02 4.402361457341941869e-02 8.999726394026577592e-02 -2.155223053483165674e-02 3.375229817832738066e-02 -8.516704732404375977e-02 7.102241813111384583e-02 -4.969886036202216667e-02 -1.535179432044050662e-01 1.021836023259139192e-01 5.105653004863799221e-02 -6.113538522408382136e-02 1.198461747557197643e-01 1.044628743783335978e-01 -8.323846926504920030e-02 -3.444988020915219773e-02 2.396420002872761551e-02 -1.153572614174102895e-01 1.189807849121267136e-01 -6.701718587794606996e-02 -3.881008950744886665e-02 6.588920282937882344e-02 2.514145468017365062e-02 -1.290698563829217362e-02 -1.845673165544859176e-02 6.623850258569395633e-02 8.016652909517313352e-02 7.557474674644253099e-02 8.653662804597117564e-03
-5.119794377780842454e-02 6.652872213576127569e-02 3.739613866578160497e-03 -1.179545058663183238e-01 -4.927702586774485027e-02 7.592002910254495515e-03 -4.583492665895335522e-02 9.842665464495826966e-02 -2.122757757846698359e-02 -1.380410969052818515e-02 -5.991264133023788130e-02 -8.675531384383972089e-02 2.878210264518751837e-02 -6.305552262094781500e-03 -3.766430550807375183e-02 -5.336489548606305339e-02 2.640510149758765277e-03 -4.390164332455077922e-02 2.764316260670077879e-02 -4.816581588422542970e-02 -5.416438006910605230e-02 -2.358720910424749739e-02 -1.387323381666080990e-01 -8.418789401438167563e-02 2.092229872246739730e-02 -1.170904397945388281e-01 -5.897852461116333961e-02 -7.293102528494793679e-02 -4.767510323421210450e-02 -8.540705678552681923e-02 -5.996630054101454582e-02 5.790294444994271116e-03
-8.164406763267731404e-02 -3.961420178010457288e-02 -9.243887239540936329e-02 5.630738470252764916e-02 -8.104019006643056744e-02 5.897322702651877635e-02 2.656647374238781806e-02 5.624982890799615221e-02 -5.489555274912075872e-02 -3.298478154589490341e-02 -1.215491375831923848e-01 -8.839173109382092441e-02 -2.933514594243107759e-02 1.021758485117452708e-01 1.277467115985209123e-02 3.302714018439635579e-02 4.192305871932692357e-02 2.636597210462721108e-02 8.735472812541966725e-02 1.173199211672984188e-01 -2.081997334999886526e-02 9.537893671707453613e-02 -9.994195412384095090e-02 -8.398364140902826042e-03 -1.646419347613100942e-03 -6.255172308259480951e-02 9.491739158877915070e-03 -1.226649225662269083e-01 -5.041194791213208376e-02 4.154514829242945961e-02 4.611014921216011198e-02 7.399261058208853048e-02
3.269474854933162450e-02 5.462436465591984439e-03 1.126808071903647249e-02 9.058662258040849069e-02 2.214593792393258070e-02 -5.734563877810133423e-03 -2.873736922090542462e-02 2.835108506521579266e-02 7.958814134776993898e-02 -4.860840366016028202e-02 3.427374051277333900e-03 -1.092629403993289755e-01 -9.690062032305710171e-02 3.258683438648518615e-02 -7.543789399757457569e-03 -7.306240662632423888e-02 1.093068301650696877e-01 5.094721815131954962e-02 7.117632489586890598e-02 8.842428589499828906e-02 1.721498368622462541e-02 -5.828395861924667160e-02 4.142953724124605330e-02 2.041930474122995165e-02 3.282714405798322493e-02 -5.115112527586306024e-02 -7.729889430245334703e-02 1.155468917785959157e-02 -3.556322456990553688e-02 -1.421462772735502533e-01 8.688268887006402041e-02 6.317992335209765553e-02
1.221984524516580572e-01 -7.832387698765007344e-02 4.713777088696382428e-02 3.560676804432415243e-02 -4.831384495331397105e-02 -6.979252968822304004e-02 -7.940335446747875947e-02 1.162674574324684823e-01 8.314297932202806274e-02 -7.886380397998948855e-02 1.359561016352494635e-02 4.003402493138319418e-02 -8.862407657450506460e-02 1.188854718708214214e-01 3.435734874246677405e-03 5.863577538334319855e-02 -6.206797891692324848e-02 -7.564315817950270637e-02 6.276383611503233428e-02 -5.442726318172762950e-02 -3.922755614567671051e-02 8.535133871403666195e-02 -8.986927444418786604e-02 -2.269974765198457325e-02 -2.056523786865444708e-02 -1.484185801920033694e-02 -8.057540505531672267e-03 7.991594259589288041e-02 1.287306493330790148e-02 -1.540634171649922779e-01 -4.108889264734419400e-02 -2.042307835195348101e-02
-9.754781529333451939e-02 2.197574120395081806e-02 -1.206808839271175660e-01 -3.455587545111873937e-02 2.903688362664211611e-02 9.898697705438073979e-02 -1.218342933530130040e-01 9.470216746933560192e-02 -2.694427109556761166e-02 -6.730467554725411139e-02 -7.176679605780582338e-02 8.584588259496207796e-02 -7.037287455260757274e-02 -8.534024886994860670e-02 -1.050657353800623674e-02 -3.881993190205985933e-02 1.057039810637634830e-01 -3.917762681503434395e-03 1.287242793380096242e-02 1.074947289677912476e-01 -4.115517791179151841e-02 1.236369427071278698e-01 1.005120103535228349e-01 3.185424394887044139e-03 -2.762092966051358719e-02 -1.005761578992768884e-01 1.175126620403253372e-02 1.312976245825845656e-01 -7.647444052619727789e-03 -2.466833459718754257e-02 -1.064812896643204526e-01 7.785205445353127196e-02
3.931641489217390512e-02 -1.326728609912075085e-01 7.578811221938143439e-02 1.038402246650342031e-01 -6.088512866724793415e-03 3.654788599220146206e-02 5.657457218847285196e-02 3.187236373632686137e-02 -7.416148042094809767e-02 -8.413261816257593118e-02 -8.257569603521619506e-02 -1.120926078679199134e-01 1.905819509790728991e-02 8.304118746584368202e-03 3.420193948331183564e-02 9.629880220700307025e-02 -3.575763005993434079e-02 -7.862868092421319843e-02 -7.209521118321404742e-02 -3.763393481746631075e-02 3.726027453823476526e-02 -2.470336797723859598e-02 2.170539203832603375e-02 5.486370049866494403e-02 -8.015252732542728353e-02 1.833296924732619182e-02 -1.176221530366829277e-01 1.466278203944317536e-02 3.829707285826060986e-02 -9.755394538796204051e-02 -8.518845735900174021e-02 3.351170494734560107e-02
-4.349303324873166759e-02 -6.336574703392772179e-02 5.729380632015976249e-02 -3.189632377320218704e-02 7.583156194173100439e-02 6.594130504788239810e-02 -5.504947759349405195e-02 -1.757477685888304830e-02 4.844630648558610753e-02 2.155440866301463337e-02 -1.312984944250103307e-02 -1.879145666037033632e-02 -7.399164897126769835e-02 3.650658991260184033e-02 5.529809185096582619e-02 2.105813774241000955e-02 5.087260124098809400e-02 9.069907001481859743e-02 5.446834442545892517e-03 6.218906799295681465e-02 9.832033886425155939e-03 -5.129432972413056069e-02 -6.457594947605763136e-02 -1.039155419778660036e-02 -9.296828746066539140e-02 -3.487476005961305525e-02 -5.957662902718730003e-02 8.749928418812789876e-02 1.333951686312177531e-01 -4.963684394382281845e-02 4.171242868328148279e-02 7.281153747019999956e-02
3.152789853318455765e-02 -7.978021754892389295e-02 5.565829017896139347e-02 1.142259585210875228e-01 -6.069370556109994486e-02 1.158337886759039370e-01 1.976852899976526759e-02 1.126075577132651384e-01 -8.025358915105261504e-02 -6.635778896628774515e-02 -8.885025904689337894e-02 6.158956909820847286e-02 1.016490175280403141e-01 -1.349415975033898055e-02 7.900968314465760256e-02 -1.051978059610953059e-01 3.536557536982305044e-02 -2.112703160863473734e-02 4.799671047626545561e-02 7.819524211861109131e-02 1.226820592862304903e-02 -4.781934654332854057e-02 -4.145805602516133143e-02 -3.938396672548270111e-02 5.597800552629605270e-02 1.424109007868840614e-02 1.458483108561736408e-01 -1.618297001740149482e-02 1.424024351857792470e-01 -1.115448136725649408e-01 3.516965648312270210e-02 -1.623673105389845462e-03
-1.273354181691149500e-01 -6.137711504957039238e-02 -1.107085300387196936e-01 -5.567527530830373994e-02 1.355330785226578627e-01 -5.584033695742520592e-02 -5.474743260177118015e-02 -1.818163381026280390e-02 3.421608600464374345e-02 7.069618469650221226e-02 6.532193843005543177e-02 -7.728253500841722468e-02 1.340371722985639856e-02 4.250179350304501835e-02 -1.013855540436901792e-01 9.532210502910909433e-02 4.065935415970131639e-02 -3.265969895716670096e-02 1.034378259808061695e-01 1.253625566024633153e-01 -1.227295396678861582e-02 -1.153493255419508895e-01 3.700701484776094258e-02 5.145897864574167785e-02 -1.890115742594094053e-02 6.715493932953266187e-02 3.328354968914191969e-02 6.793809746587921305e-02 -4.385256255070018455e-02 -1.669009126108320779e-02 -6.506779961586672822e-02 -1.357369706321371883e-01
-1.395180787776819330e-02 -1.126313575263537398e-01 -4.332061911173985813e-02 -7.526764202647091839e-02 1.031833972030765656e-02 1.853572173681826765e-02 -7.859175560812411976e-02 -5.783098984149745436e-02 5.936114552340058387e-02 1.228351244325903181e-03 -4.094932221178986670e-02 2.125339752032634824e-02 7.726205830264346736e-03 4.153682758189323337e-02 2.640152785947139438e-02 -9.304025334549431703e-02 5.894014245571807184e-03 -4.540969962461270659e-02 -6.691793387163275965e-03 5.978792622609496211e-03 -7.493544348314909453e-02 -9.978031234065269650e-02 -3.285889838495539839e-02 1.017395650714429112e-01 -2.565854832730498150e-02 6.208655517855784373e-02 8.084113315914578934e-02 -1.898730718823908939e-02 -1.201846747223934281e-02 2.402463708256779781e-02 -1.099272538790397637e-02 -1.000446422217832372e-02
-7.441001025801449731e-02 -1.151302604517571576e-01 -1.201974159109583766e-02 3.132603601082942224e-02 -6.438275523785107202e-02 1.172335033131501614e-01 -5.090354935302391498e-02 -1.792479315127493839e-02 -1.338335524084128814e-01 -7.934883636606475388e-02 -1.367035029545514771e-02 -3.076429689143150153e-02 -5.300864423501019246e-02 7.632450476996117950e-02 -5.969083665586868981e-02 -1.466388996494077685e-03 3.730407224510372960e-02 4.328898983452048738e-02 -3.208446930618846782e-02 -8.072331902431822970e-02 7.072709094097687221e-02 -1.101109482316075944e-01 -5.650309568268318400e-02 7.376203868953631893e-02 -6.544876913172043009e-02 -1.394859000002595176e-02 -3.846968355175633264e-02 3.253665109680124734e-02 6.973650077785631396e-02 -4.486224596173293486e-03 2.027470572740704136e-02 -8.670934458046918036e-02
-5.864478076467731504e-02 -1.482806098999574496e-01 -8.358402062612593081e-03 -5.841422089589200922e-02 -4.666669546807870189e-02 -3.044377878133981349e-03 -4.934797983448293429e-02 9.977988810477733672e-02 5.805504613530783342e-02 -3.480748950184595070e-02 -5.386002326633768100e-02 -7.496074062610930122e-02 -1.507510703801524105e-02 -6.538702937637859251e-03 5.280445485174981024e-02 -7.379492711380554459e-02 5.318905097719485442e-02 2.296824384380516740e-02 4.606092246050105116e-02 9.014755187033342276e-02 -8.703791947140621793e-03 -1.951582635495483636e-02 -3.150396260235275442e-02 7.417177147425541017e-02 3.398116406164670977e-02 -8.865479051703589741e-02 -3.668987640508240833e-02 3.558107693570771585e-02 4.414607243606357562e-02 1.364404403865774815e-02 -7.005116733081616365e-02 3.020009222896003973e-02
1.760242364421642572e-02 -9.916053989533751833e-02 -8.658103861094237907e-03 -9.400138691040263450e-02 9.774143910061662555e-02 6.768064594397989187e-02 2.614779866605462799e-02 1.227648620620360245e-02 -7.179696661165860076e-03 9.741379233326506737e-02 2.314614975042018560e-02 6.012670927373788129e-04 -1.615105230712562956e-02 6.013946100182908372e-02 -1.507630710555957036e-02 -5.501869974924505219e-02 -1.084812260469387307e-02 9.254239267132346666e-03 6.167399836397078824e-03 -6.007247140565224325e-02 -5.891435341311175578e-02 -1.587755017601293062e-01 3.941127242815897075e-02 4.393678677754933593e-02 -5.628283250713634472e-02 -2.486862034809569563e-02 -5.150730611442267542e-02 -3.957351479929208798e-03 -1.350977394621881954e-02 -2.708406810743918536e-02 6.819137403422970145e-02 -3.690765682113258256e-02
-1.282376884573817322e-01 -1.086561963679623724e-02 -7.788219381531645558e-02 3.480074805404515664e-02 -7.308829833453696356e-02 1.042669057551911110e-01 1.074695878927596493e-02 -1.999712044931758678e-02 3.305125442331185992e-02 1.074619657466515527e-01 6.849522684889444712e-02 2.030948210324552347e-02 -1.070066986401535802e-01 -5.769288742713892144e-03 -5.647123810161770036e-02 -1.302061298795725575e-01 -2.888656273234217753e-02 -1.174239365857978890e-01 7.596174438943904816e-02 -9.256181253542999574e-03 3.498788794277690045e-02 -9.739840225218217296e-02 -2.272338507984533393e-02 8.021797461008382812e-02 -5.844205245805485227e-02 -2.348514635385444242e-03 5.381167138144433287e-02 6.019066022022550450e-02 1.006535087176419069e-01 5.059089776170311303e-02 5.407519458042674837e-02 -9.525862192938920614e-02
2.129724855350809132e-02 -6.329756210819012519e-02 -4.524287921868429957e-02 -1.092813630367600736e-01 3.723570736546163995e-02 9.555595382614835709e-02 3.999718197665808744e-02 -6.329240989913621773e-02 3.982190309608480555e-02 -4.184871365135549022e-04 5.240395279496361941e-02 -1.028926840300579959e-01 -6.906974066548024482e-02 1.461496318354033735e-02 -5.466441925969389715e-02 1.762162123110424389e-02 9.391400338544324267e-02 2.453217959384791994e-02 -4.895326665579448344e-02 7.014330227237459969e-02 -4.420733798123906155e-02 -9.902014390736120497e-02 5.931345841565219962e-02 1.947179762340327594e-02 7.062400566732202067e-02 -5.056480406259639127e-02 -5.233697430985110449e-02 -1.052746953201021129e-01 7.148848813532814039e-02 -1.490736028589595939e-02 7.461443662425957732e-03 -8.622287651778590134e-02
6.006142109486645175e-02 2.697794267945281821e-02 -1.262551451750526174e-02 -9.405435448036889023e-02 7.153726803193916073e-02 7.582092254630512507e-02 -6.521765610023642912e-02 6.391124204257038477e-02 1.874999110798198851e-02 1.221306684670368375e-01 3.006447443645847428e-02 -4.887108036200834421e-02 -1.072382097913856525e-01 2.564342429982057175e-03 7.621266693197945030e-02 -7.820661620675971315e-02 -6.879721350873142793e-02 -5.950105092412727448e-03 -9.970539783906678943e-02 3.579450945736822876e-02 -6.203218219482954654e-02 -9.388922611953759434e-02 -1.574285050247132764e-02 5.570957706281452065e-02 1.133033937187864493e-01 3.820265543058383451e-02 2.514761665895137027e-02 3.858156729264237972e-02 5.887061136514040727e-02 -9.428106224555617143e-02 7.646979639576979848e-02 -1.314055600184236283e-01
-6.057717895907391466e-03 -1.059216779452225032e-01 -8.585557424562342832e-02 1.175727621112043486e-01 2.651800777795950553e-02 -2.424329334285789395e-02 1.139182557356144820e-01 3.648238358096598383e-02 -3.160628757141528689e-02 9.519600828051630326e-02 -8.993084925307111288e-02 8.491996384068357939e-02 -1.242550718691060041e-01 9.125814365070183953e-02 8.948702566570652939e-02 -4.106608868991627748e-02 -2.415077351330179034e-02 -1.100913302922391229e-01 -1.025158964710670834e-01 -1.390578450380225428e-02 8.993184638620982385e-02 7.854249948300563722e-03 -8.551319424754938447e-02 -7.989052342958286729e-03 8.827553601743103051e-02 -2.452075806167420061e-02 9.782401054410203023e-02 -7.349965540061335900e-02 -3.739333217090134304e-02 8.112580044379491540e-02 -9.037362603665217986e-02 -8.426713798854798543e-02
4.032043976661772028e-02 -3.972233773387764261e-02 3.349677269956631565e-02 -7.498711619013806451e-02 -7.755944339984538645e-03 -5.313768239953579886e-02 -2.019090319906314407e-03 1.198000739609499932e-01 -9.160481731201017275e-02 8.623280597883289933e-02 -8.787010766244723881e-02 3.174423812139428452e-02 2.689774928764088451e-03 2.700394293302267948e-02 9.117875496138536096e-02 7.322622036961720648e-02 5.706352428493262352e-02 -1.400213563612468792e-01 3.464075557132026417e-02 1.046536223287635042e-01 9.170484291173630620e-02 -7.211937299721504768e-02 -9.478309781173802073e-02 -1.199507104598823148e-01 -1.309842009745149777e-02 5.689294270342039328e-02 3.340563316093336094e-02 5.310693621321154606e-02 2.231476272161301427e-02 -9.747023394461964974e-02 -8.477127939470381623e-02 -1.154794772977837808e-01
3.731740371966377895e-02 2.880484869649495641e-02 6.158393576284492549e-02 4.000737509202165199e-02 3.893937726395947652e-02 7.261029077765380514e-03 -6.853654252891709653e-02 -7.039517670774560198e-02 6.691031925902940491e-02 1.251137731828110278e-01 8.130375624593499939e-02 5.504163852828806297e-02 -1.257757652771341605e-01 -5.200269090561727980e-02 1.203973882806581019e-01 2.567258436838092475e-02 -4.864628799806338527e-02 -4.916860991567800765e-02 -5.739023549129251833e-02 -7.836043963450742278e-02 -9.152063368942714439e-02 -9.712004084678896310e-02 -7.742629412208157369e-02 -2.898177217484499552e-02 1.184252307350626421e-02 5.240470204128926113e-02 -7.640866474821804422e-02 5.174450878987012920e-02 -3.459361064650373629e-02 -8.685954124647082830e-02 -8.918469376219460842e-02 -3.696426989839114025e-02
-7.400075793703052296e-02 -4.305194787947454714e-03 -4.472387798903267736e-02 8.304901201619489803e-02 -4.148300196606591328e-02 1.212199550793840400e-03 5.456917321594395576e-02 3.736016103021965601e-02 -1.134623655836024085e-02 -1.104799949852059565e-02 -6.803171555443981999e-02 1.233586405929986557e-01 -6.697529136079162504e-02 -2.552139121059764093e-02 1.168887569944644794e-01 -5.548554604568970219e-03 -3.559118119795706692e-02 2.192162104053443222e-02 -3.045746345778387390e-02 1.904110738496163358e-02 3.117120126195716771e-03 2.466277422670183801e-03 -7.615053274206080858e-02 2.881774020825667720e-02 7.434750053892989763e-02 3.569760204800247888e-02 -5.661726735158061768e-02 -1.992393984519587324e-02 -3.738020625454085977e-02 -5.232943952756759914e-02 6.187698493441148861e-02 -1.217359227460497635e-02
1.095019596940043256e-02 -1.629322790079019631e-02 -2.213637962128538889e-02 -8.881324744317173336e-02 -1.547790109469731820e-02 8.386106609769539491e-03 -2.255484644744849484e-02 8.998614862398060521e-02 -8.954819072900251087e-02 -1.090827791070114565e-02 -6.675671280314647571e-02 -4.794127654048436528e-03 -4.934671924711077351e-02 2.802481042776728409e-02 -4.801861206365162782e-02 -1.879135028334660016e-03 1.237845427498757006e-01 -1.162427338403582838e-01 3.000663722736343630e-02 5.495579830029909824e-02 7.043284801744828516e-02 -5.553735491043582800e-02 -6.086137884901258316e-02 -1.218972107191668153e-01 1.152969942675917958e-01 8.097997276618836004e-02 1.643164986677823555e-02 -3.951226508013763739e-02 -1.015431195566871524e-02 -3.532557612042055983e-02 6.641192355471423059e-02 -5.105521244255440544e-03
1.970746393794061899e-02 -7.278937145041219914e-02 1.065951521550793923e-02 -4.425117523892115046e-02 -1.444403808784331181e-02 4.357898095695116047e-02 -9.935566976941136164e-02 -4.060852528652670462e-02 -1.021522689868252232e-01 4.717609514433576678e-02 -4.862877867965434420e-02 -5.055481641056500802e-02 -8.480369289179839898e-02 -9.383655925893928662e-02 7.671529523904369041e-02 -4.388806118930830419e-02 4.737268277302659342e-02 2.887697856929465415e-02 1.147993932816953888e-01 -4.090765474470911545e-02 -3.320505409080348053e-02 -9.082115353657359280e-02 -3.857969592942214754e-02 -6.809530535640798132e-02 -4.457496500646648124e-02 -9.290906273575293139e-02 6.680845059325196678e-02 -5.753583667349496805e-02 8.502223578293388595e-02 -8.837198270855592397e-02 -9.456415466926076929e-02 -9.165324142856610956e-02
-2.189498648128742741e-03 -3.502975075848178271e-02 -7.180255509228238020e-02 1.124747488027881687e-01 -4.211464523794290760e-03 -2.084687299651504996e-02 1.020363404994050066e-01 6.910174233118382414e-02 -1.067068249664974711e-01 7.425539428121465113e-02 -3.828360360666954731e-02 -2.417176338590261431e-02 -1.324257409046123400e-02 2.429405420811496172e-02 1.014416558339841234e-01 -8.359144863863856960e-04 3.608584307855127599e-02 1.020667099537775520e-02 8.489715548442752779e-02 1.009043176879173276e-01 2.440654404137706027e-02 -3.858508038589902184e-02 -8.999829477574412817e-02 -4.489569772401766357e-02 -2.978454437846614605e-03 -3.289539131072217321e-02 -6.506123101939206843e-02 5.859842139623190616e-02 -4.722433937656362116e-03 -7.757830945470276136e-03 -3.440949418165602930e-02 4.225201659278471356e-02
-8.710379665851805675e-02 -1.925971338809379790e-02 -2.799573843475613305e-02 -1.278554421990368839e-02 -6.347739599555850265e-02 8.264994508777583071e-02 3.547781727534774637e-02 -1.062403863718835995e-02 -1.454911141398512742e-01 3.824676979700245352e-03 4.036165228366386110e-03 -1.251446169077830017e-01 3.586773767554832758e-03 3.968366444652091096e-02 -7.887916856921967090e-02 2.017540267033324231e-02 -2.818334566640205707e-02 -1.131368142639426616e-01 2.397418472460724481e-02 6.298462549710669156e-02 -3.534315786402952159e-02 3.544688824291566259e-02 2.161809360344046568e-02 -8.646848960161707467e-03 7.843701622191290301e-02 -5.634081376118620609e-04 -7.172144117603825031e-02 -6.332566708447909254e-03 1.032590772026789894e-01 1.075119988486995526e-01 7.568631401391014146e-02 -6.200276330783732748e-02
-4.119243097918039859e-02 -3.976246761523122286e-02 -5.911318988980251293e-02 -2.598002093354096560e-04 -4.613084025096392260e-02 2.355652770181056524e-02 -1.005597442814229053e-01 -9.613252616327823061e-03 3.198303704886319709e-02 -6.729038968900369344e-02 -5.055678622320038118e-02 -1.288997342126138035e-01 2.232113127853664961e-02 1.004337533606415589e-01 -3.802400975355915008e-02 -7.758636211384628556e-02 3.678978553255401324e-02 -7.672203673420988079e-02 1.114921440575046691e-01 -8.620591367786259451e-02 -7.410685068795108688e-02 4.130929266489474089e-02 -1.325837753930420027e-01 -5.853784772378966411e-02 7.948049904628523565e-02 -8.373197939995899453e-02 1.576684584205502448e-02 -1.030487223340702807e-01 9.923248555532496185e-02 4.059361628505454844e-02 -3.104716712662410408e-02 8.274410935603744577e-02
-8.770046293573886820e-02 5.291636618947895276e-03 9.327974384315025624e-02 1.244758004162010434e-01 -5.315886366724312251e-02 -3.898972200756466253e-03 3.272613969288323821e-02 9.821865356192858998e-02 -6.489888674165066040e-02 8.238993640281138883e-03 -7.357898460092554549e-02 7.772414223454338078e-02 -9.936246661760612942e-02 -4.464221219474914099e-02 -9.321398817356947586e-02 7.921633268656327886e-02 -6.247551302462377165e-02 -3.139665114520097389e-02 1.121002064279534999e-01 1.514907357437036799e-03 -1.227246832234487051e-01 -6.904418350393799753e-02 -7.388410433061724791e-02 -3.315806670697893366e-02 1.202322861213212099e-03 8.016031374732496273e-02 -1.014157873308549895e-01 -1.104135554882820919e-01 -1.526972741721995160e-02 8.626430278678595687e-02 2.066212194098062879e-02 5.352505399997327384e-02
-6.233857426873348762e-02 2.900758933598320682e-02 9.480909467165334059e-02 2.428857017725747497e-02 8.996750655371180128e-02 8.154309017398982118e-02 -8.147669376069498204e-02 8.930977926432583092e-02 6.848828759806159516e-02 -7.649261951368335755e-02 -3.135741861503368172e-02 -5.625083396548807152e-02 -3.878033669358448010e-02 -6.229037057885391387e-02 9.485294192533384738e-02 6.039775617671071933e-02 3.888064074519072006e-03 7.137288783869340236e-02 -1.006675315117701724e-01 -3.111773595486544419e-02 -4.226110164422918619e-02 3.209376907648551699e-03 3.956056898826152725e-03 1.919355916000399856e-02 -3.677625641852410449e-02 -1.773322560699662487e-02 1.748918763376025934e-02 2.774917459945015676e-03 9.364814532268481845e-03 -1.648182445760652537e-01 5.536098243077671593e-02 -2.273544073659634901e-02
7.225923201316428179e-02 4.695774291042004861e-02 -8.607312174731564236e-02 6.107419432420669800e-03 -1.433800374879257329e-02 8.719202539401965657e-02 -4.754287195682951016e-03 -3.115836237206623741e-02 1.161045973100136436e-01 1.848202409696785009e-02 -3.798115152640711288e-04 -1.358154935546530134e-02 5.700572029954028425e-02 3.055002620467401828e-02 5.702001128258232798e-02 -2.105391016106969090e-02 -7.683245547791497931e-02 6.026119483827873492e-05 7.629039023582223633e-02 3.907733413697448560e-02 1.222519234699252950e-02 5.845744834974534593e-02 -8.463446329172226446e-02 3.977400066806140166e-02 -9.036156944807659241e-02 -2.534499390769062027e-02 -9.855002698120977900e-02 1.043983850926982898e-01 9.514687715263880907e-02 -1.622056670615321661e-01 7.370099614369868268e-02 -6.256042055515294298e-02
8.056432291219325914e-02 -6.754665673586146557e-02 -5.040183408805023330e-02 1.255348684139005466e-01 1.156078169150201174e-01 6.206434669651287456e-02 -1.321196700344126340e-01 5.985708520086858303e-03 1.364219001870720094e-02 6.933921673462682678e-02 -7.701924512184933624e-02 -4.255882759309369615e-03 -3.513471456506635227e-02 2.862469200460940246e-03 -2.462555845613910444e-02 -9.780642750898135840e-02 8.670240936754347594e-02 4.937164352960754510e-02 -5.726524736994943743e-02 -7.924151028058987190e-02 -4.919234754856729314e-02 2.471732552717058676e-02 -8.232297501489931058e-02 2.606514516801339623e-02 -9.123755218132899303e-02 7.203561359492121653e-03 1.119702623254566209e-01 -3.909241387062920015e-02 -4.569647883963202928e-02 -1.414429446858634642e-01 2.169725305846467375e-02 4.508825677498706774e-02
-3.318220720314848937e-02 4.553295644416945759e-02 8.078140673557848705e-02 4.180627629196816825e-02 1.226163143852329052e-01 -2.458383447281231940e-02 -1.289969136409252204e-01 1.252492674598785494e-01 1.104111414591430439e-02 -1.298666630252841570e-01 9.610151484597287408e-02 2.896805082503543446e-02 2.649877544222233039e-02 -4.729902807111913826e-02 -8.316113287614410043e-02 8.611207379013699481e-02 -7.108000411334490509e-02 -3.241854986607316941e-02 -9.490437210480741348e-02 1.179488133240819830e-01 -3.181505007132433976e-02 -8.788895912129664895e-03 4.698450757451783436e-03 -5.804744999825964778e-03 7.681383740231603752e-02 -1.690166187034943326e-02 2.829896233347467538e-02 -7.528677420968278577e-02 1.889898969247841808e-03 -1.008706017676199301e-01 -2.732128946358220942e-02 -1.196686667280093125e-01
1.077071609686849202e-01 -1.095970381200288835e-01 -9.047293568612625736e-02 4.498632023730995272e-02 1.166001779311923447e-01 -9.628141627253579415e-02 -1.302467861336574148e-02 7.648670224396243722e-02 -2.246346321641113156e-02 -3.954914139493045933e-02 -3.124010491294795799e-02 9.544357922292428034e-03 -4.603676080756272104e-02 -2.064802031232033930e-02 1.209280013037368345e-01 2.471391460637245227e-02 3.559554019969321526e-02 8.255781852632630702e-02 1.007442287098386652e-01 9.828862046457619017e-02 -5.289551598664683080e-02 -7.086391982886737495e-02 -3.328781527431925666e-03 1.929577582321594098e-02 4.589521732676635907e-02 5.946443179051239154e-03 3.777147706670268973e-02 -3.805857216465379639e-02 5.802014960432762963e-02 -6.526869412032593187e-02 -6.205399221973965929e-02 -5.969285046033865477e-03
9.221323848038988011e-03 -9.294085408213156874e-02 -1.044970148092934509e-01 1.988238127393196497e-02 4.731397041966652756e-02 2.141228043944938195e-03 -1.487371346045132936e-01 1.360588220838466478e-01 -6.332781148182542452e-02 -8.950524692976008501e-02 -1.105464620768151218e-02 1.185933560708349876e-01 2.180676352361683029e-02 -5.668854303634389413e-02 -9.106411696441596426e-02 5.079753505868823266e-02 3.568150719727412185e-02 -9.748454492054074716e-02 -1.116622782347848619e-01 -2.034403634609261574e-02 1.404204067658509740e-02 3.417753273242260525e-02 -4.747238304315729018e-02 -6.606214420517661501e-02 -7.853002919589555098e-02 6.467772755522854800e-02 1.107694837192771259e-01 -4.952743632702257676e-02 1.218300969303837272e-01 -6.350359813348785409e-02 -6.122715984310542203e-02 8.513415885489859780e-02
3.383667560056845269e-02 1.230442263235741879e-02 -9.996985170564855194e-02 8.215130653258444909e-03 7.732873204235571341e-02 3.914169495904205182e-02 -8.151801401695403515e-02 2.328299288444130727e-02 6.864927364378796415e-02 5.241573332124383616e-02 5.709417628635221620e-02 -4.872430548112333809e-02 -9.556767979545031932e-02 7.346811389081092658e-02 -4.089385240258411325e-02 -1.454097466498772669e-03 -1.954034220151392234e-02 -2.795138061104218696e-02 6.709452307817897771e-04 9.953686661063605723e-02 4.818358858966745317e-02 -2.267695597936352295e-02 1.030362376809693531e-01 -8.308653912107517858e-02 -5.848502103361416862e-03 -1.010244650166629149e-01 -5.430433287621749122e-02 2.740698941922704857e-02 5.890359708227661112e-02 2.167064447807198063e-02 8.628179727172112512e-02 -1.125570316243326534e-02
-4.840448098106591573e-02 -1.122589032428295414e-01 -1.209271620207314768e-01 -3.479875811746419023e-02 1.259420209124435530e-01 -5.104229047816268017e-02 4.247936992271741236e-02 2.398199338178681403e-03 -1.119388737974086750e-01 -6.857634867746904318e-03 -1.487645069064671803e-02 1.436257357376093807e-02 6.554965584929081657e-02 -4.002266952228217961e-02 -6.830089254182945824e-02 9.369153614513674178e-03 2.390212355680141482e-02 5.160662526406067235e-02 -8.826005903716195589e-02 -8.042555700686340736e-02 4.858083026217537709e-02 -1.295484887019514586e-01 -3.631945080691562078e-02 -2.452422177840902009e-02 6.237203073955852745e-02 5.828814653288020425e-02 -2.939479944765353847e-02 -4.606014820687767686e-02 7.471967616647197385e-02 -3.745505017776996209e-02 5.126556485863869098e-03 -6.487237972868746538e-02
-1.036968664160176495e-01 -3.275029851677747905e-02 1.145094707273403012e-02 5.405841711521822829e-02 4.027572517978539324e-02 9.304253995902975194e-02 -1.032971391632982183e-01 1.526104482742241843e-02 -8.846957814726240377e-02 -2.314108257159039686e-02 -5.550792735866524885e-02 8.595128697110689109e-02 5.166961672410930184e-02 -3.325331573650558425e-02 3.492786651014220811e-02 2.606867407942296821e-02 -9.041650715219962109e-02 7.625595819224392086e-03 2.763356618288745088e-03 5.831891663408610149e-02 4.980219330521611087e-02 -2.206253015698179248e-02 6.411264646391130750e-02 -1.562850497954015178e-02 -1.179998194927993765e-01 -9.431057251307239930e-02 5.088059396419079145e-02 2.495310248914717893e-02 8.613639135614198361e-02 -1.134012139156345272e-01 1.424507806924387582e-02 -9.518697366152813200e-02
-2.094400043766752109e-02 -1.435737341599511163e-01 2.795221588793892625e-02 4.701861782811261187e-02 1.325945016864326850e-02 4.648507007184929374e-02 3.828759219072445930e-02 9.702674981431526346e-02 5.500570312869679929e-02 -3.121803919102412485e-03 -9.148328013140931761e-03 5.870679494948576049e-02 -1.484280556082184961e-02 5.134543701712762642e-02 8.102797514914853935e-03 -6.370731263937146061e-02 -6.251674838036519466e-02 -8.890189483715432717e-02 -5.855026869030682812e-02 -3.140054016534939152e-02 9.146079521409018753e-02 -1.292953124434489676e-01 1.675598230950356080e-02 1.382487545079475952e-02 -3.568969261152011435e-02 -1.926801870241450984e-02 -6.227715041350408848e-02 -8.639385940623327265e-02 -1.459736052364456194e-03 2.635903466918111671e-02 2.464853032140976521e-02 6.183513206924866334e-02
9.136573648526623292e-02 -5.700364120145876012e-02 -1.123231341867895333e-01 5.318627356312446985e-02 -3.849363666399123474e-02 6.619073654272084051e-02 -1.492268352341703970e-02 7.514469223939279630e-02 -8.081756273760319631e-02 4.371497323435892535e-02 3.846936128371643282e-02 -2.932761920074343845e-02 -8.192502390165476434e-02 9.161272415321565499e-02 2.741008471489849233e-02 -2.693012363927987235e-02 -1.061558716632119842e-01 1.993794442689032081e-02 -4.493502601221145004e-02 8.284452550197596299e-02 1.042170919713062138e-01 -9.674962217706641054e-02 -7.387746364622575779e-02 3.620856292095055856e-02 -3.585426240192239600e-02 -3.845402744502375569e-02 3.029969965083138470e-02 4.352320704897304909e-02 -3.636229480104918171e-02 7.879698592936933144e-02 6.725643876680703626e-02 -8.424954169257081737e-02
-6.693634977440532374e-02 1.143247406066982136e-02 -1.006044465922881631e-01 5.390854563582841291e-02 9.403839761712788625e-02 8.645414480745505781e-02 3.730297458798498278e-02 -1.899983656469318716e-02 3.442690348484616497e-02 9.631580023889850517e-02 1.200738189464356093e-01 -1.077857602094695923e-02 -2.811907060094880669e-03 -1.194871915455124854e-02 -8.482002345340509952e-02 -1.242542685339894648e-01 -4.138374621647839674e-02 -3.812468367436672861e-02 -5.002895658656521249e-02 5.408511330222198071e-02 -3.434239521031086373e-02 -5.386907457474550409e-02 -1.406153334426587164e-03 6.391425671254202800e-02 -7.146106338889215981e-02 -7.408409640100703519e-02 2.626554235532275669e-02 -7.344072240892912662e-02 -6.980286424528647955e-03 -7.668462764417818822e-02 8.174000368113869264e-02 3.161831710042330851e-02
-2.784894642061934780e-02 9.501504842528603334e-03 8.056551648849472058e-02 3.305175790223289362e-02 -6.356624358167918543e-02 3.193833623616396805e-02 -6.441137603212461482e-02 1.026127138409328454e-01 7.334855284646683848e-02 9.483360420807361579e-02 1.216854291430689849e-01 -5.421194512594360027e-02 -7.088682005863339297e-02 -1.142927743728171415e-02 4.818006224108433572e-02 -7.012185441231473526e-02 9.417526164111025833e-02 -5.397032500663519888e-02 3.643599862454943022e-02 8.381980718668975705e-02 -8.105846225857007026e-04 -1.337171623463125625e-01 -1.557344974412893518e-02 -3.330669835949687935e-02 3.847724649846835047e-03 -1.975148077044517475e-02 -5.502139066999700567e-02 -5.887509045099632854e-02 -5.930634724292530024e-02 7.719853409852249493e-02 7.793283803995496029e-02 1.463465659017872990e-03
7.606584062251595113e-02 -5.962484949815852892e-02 4.734660831862742142e-02 6.169116136110165682e-02 -1.010216619525084944e-02 7.847706620518168918e-02 9.538353705905380786e-02 -4.916820695919467410e-02 -9.234382462493477550e-02 -4.465103554272474053e-03 6.697101806680111347e-02 6.206966827789413971e-02 3.947727359934456726e-02 -8.469190150699773545e-02 -1.694767902135437682e-02 -4.204400741976090095e-02 9.310804386355267526e-02 -2.291177476202617847e-03 6.750511593287494838e-02 9.424494840893030134e-02 3.496105681016954680e-02 2.849710806740126529e-02 -1.378102094328133298e-01 -4.758581416353803439e-03 1.025830335140559962e-01 -1.090147580159960168e-02 3.414924067525899887e-02 5.443099516462327619e-02 -2.339471210337884521e-02 -4.349252746993762658e-02 4.659012338886594357e-02 -8.877814779713502635e-02
-1.991185710426865776e-02 -8.957742303948168505e-02 -8.641545354957855252e-02 1.155954373988081763e-01 6.216486050040728045e-02 -7.315011248519488751e-02 -3.999633499567130379e-02 1.161746409845364342e-01 4.070339147291748144e-02 1.256986058892888558e-01 2.214113841196206633e-02 -4.276804127096472258e-02 -1.197593605790806502e-02 -1.190881754654123277e-02 4.793521364490403724e-02 -7.881795998551280324e-02 8.996900704778822144e-02 -3.119182827987770218e-02 7.689218190817032061e-02 -4.929517577641000237e-02 4.035393691560245494e-02 -1.099118862246547569e-02 6.078794786128345617e-02 -1.094771192371090385e-01 2.674248724759535970e-02 -1.196052731784453121e-01 8.674878534454648349e-02 -1.515401187927211887e-02 -5.260714161295004798e-02 -7.546238521574506752e-02 -2.323279974677055701e-02 -2.680910833835236512e-02
6.426079434967546695e-03 -5.295159296872409271e-02 9.597533145537942567e-02 -6.815564856710665254e-02 -4.775788187650656380e-02 -5.629667703959046095e-03 7.231972098827053885e-02 -5.863877398489531064e-04 -1.045031176731693948e-02 1.164116199883405943e-02 3.967016829260761046e-03 -3.728268508298852868e-02 2.987197336627356314e-02 5.645308827065381729e-02 8.278182721085836082e-02 -3.299941687452484507e-02 3.584380828629694926e-02 -3.537030528861649648e-02 -9.141571495742512043e-02 1.018180994338046749e-02 -4.816533733229939190e-02 -8.628262248696896841e-02 -9.747380961395896160e-02 -9.281800174815443838e-02 9.368142775773370678e-02 5.651649543616122512e-02 -1.068384465449951221e-01 6.569091906266433245e-02 -7.941107933544097608e-02 -1.890366740271260532e-02 -8.076154284829061003e-02 -1.935097535586509376e-02
-7.560167983707484843e-03 7.122112521798057774e-03 -1.161238494189466008e-01 -1.208688449799351881e-02 -5.159236102177235800e-02 -7.956801594670419309e-02 -6.989966348856875566e-02 -3.120023431300792197e-02 8.205230768642775285e-02 -4.366091322243840361e-02 3.294272249125606861e-03 -8.705555939384075625e-02 -7.057581584684481657e-02 -3.760133480823770608e-02 9.516347853079809571e-02 -4.391327107015109699e-02 -1.560046678381778011e-02 -5.517401042986401494e-02 -1.739666468503505564e-02 -2.191833332131047640e-02 6.456753963491472514e-02 -1.033490321318829008e-01 2.103897490616759777e-02 -1.403016807412167492e-02 1.248378823510035984e-01 -7.684737970892117909e-02 -5.397028117943845904e-02 1.130481337487824816e-03 7.060343970303006866e-02 2.971201018521500009e-02 4.755927495652675918e-02 -5.670888240079971325e-03
2.080254245318606705e-03 7.780658053780625805e-02 8.461515899581248390e-02 6.462732224727607555e-02 3.210910596980857262e-02 -1.111673504825165006e-02 4.543337631473081534e-02 6.321607402276202547e-02 -7.873141779654174721e-02 -4.741555576093827579e-02 7.424699173340894905e-04 1.185885344181635270e-01 -3.588408301064600209e-02 -7.907988715244176903e-02 -3.371206627037667131e-02 -1.231591658812295972e-02 4.589831864660959965e-02 -1.638700420453371442e-01 6.264086392007503501e-02 -4.624976120136084501e-03 3.274980060106869734e-02 -1.167934389165660725e-01 -2.754225113353749727e-02 -1.003662994778420497e-01 -1.451319680762434144e-02 2.560127466824681577e-02 -9.879515954410431067e-02 -7.161625924091225004e-02 -9.263455146417762243e-02 3.177287302696746307e-02 7.960070112621375760e-02 7.740765690153231238e-02
-1.131648703150930219e-01 -8.242768710789516451e-02 -3.249213335124386676e-02 -6.013118572496889414e-02 9.109836636184857894e-03 -7.313380853885982635e-02 -6.055820599580114677e-02 8.796110040866873814e-02 -9.682893044590730469e-02 2.328729512151720641e-03 2.380709683650826872e-02 5.631469949781827550e-02 2.531081870771908354e-02 -2.149491418868646961e-02 8.364506633475102260e-02 -2.077052974180388072e-03 1.540901930386285312e-01 -8.562707062562624483e-02 -9.792040117283619394e-02 -4.555183560743268634e-02 -6.291709459622069935e-03 -1.081581330801664603e-01 -7.870636143037434973e-02 3.397467680301426846e-02 8.856442709102509137e-02 5.836491552870071153e-02 -5.429388048689959972e-02 2.928390293686708098e-02 2.422416823311120387e-03 1.892272541392965579e-02 5.528015729152838814e-02 1.015762361008247100e-01
3.032905783199836905e-02 -5.864259555775763744e-02 -2.239931057264093334e-02 -1.328369055066411404e-02 -7.747505458810866052e-02 -8.122926149083042890e-02 5.380885984291091523e-02 8.289201496348373721e-02 -7.179379368813756067e-03 -8.560511392173351941e-02 -3.506771632954840557e-03 -6.231589543602511494e-02 2.696750021594831320e-02 -6.005173015408138415e-02 3.358264227652674877e-02 1.981966815027951662e-02 -7.913521535356306258e-02 -4.103692734423055460e-02 1.102416556999400860e-01 -4.907512335469897680e-02 -7.870660741493955281e-02 -8.619040711186833070e-02 -7.400430673062520504e-02 3.193693854570352209e-02 1.268415092387459864e-01 -5.426312578247774292e-03 -1.914855742452648696e-02 -6.878920430393366259e-02 -9.298691701917308206e-02 -7.771299268016032546e-02 7.570952252454482556e-02 1.192905171195700852e-02
1.535880874335142539e-02 -4.810011314455906600e-02 9.639550935403631837e-02 1.055473438783623569e-01 -9.668661174029408167e-02 1.776301995370238238e-02 5.516132722929699417e-02 -1.057875864612116933e-02 -4.982096420451090357e-02 -2.927087155438691090e-03 8.911317334234755694e-02 1.145324890754450264e-01 -6.112975635416111747e-02 4.638252895231095851e-02 1.068173477873896049e-01 -3.507557166736898629e-02 5.950408877589881407e-02 -7.680386929590145295e-02 -4.195769280831909004e-02 7.224980997234103919e-02 1.969253500767537135e-02 2.833379897539357525e-02 -1.159991352227576489e-01 -8.745680916987190467e-02 -3.321375047342950415e-02 -8.239381560485779799e-03 -9.254699624028868421e-02 -1.244330883610817451e-01 5.540504025725417198e-02 -3.265325325591017513e-02 -6.124436039129543818e-02 9.616939021704747287e-04
-1.917106376106956361e-02 6.933670569061069211e-02 -8.435583377457275822e-02 -4.209364179436208414e-02 -1.869807939781246639e-02 7.336033333590109839e-02 -1.277834253516055840e-01 5.573922766502658471e-02 1.888158479853708008e-02 9.291199830543563076e-02 -6.076245699781053500e-02 5.731402026303394209e-02 1.696282387837340366e-02 -5.293048196559112240e-02 -5.950621156618661305e-03 -4.974490619018438059e-02 1.438340829315946368e-01 9.293141911724901727e-03 3.033611197114647381e-04 9.128836020535151252e-02 7.136874872031390149e-02 5.795920204881312848e-02 -1.506356334048792878e-01 -2.612349858930120006e-02 4.449690642330900864e-02 -4.898731155491151817e-02 -1.196541641207277545e-01 4.824049060429080188e-02 7.364833514278684191e-03 -6.269091486176264771e-02 7.330705516428663582e-02 2.130224268882328735e-03
-9.762292547802926823e-02 -2.222735497706578023e-02 3.032169707201162745e-02 8.225529665137362723e-02 -2.176799686989041444e-02 -5.380884448883287152e-02 -9.723640398543098584e-02 -9.835702130272783172e-02 -1.161260536341625488e-01 5.075270267953812392e-02 1.068278791197810745e-01 -1.076856588339968890e-01 7.248957831078743641e-02 -6.380642702141620104e-02 5.615048904912774141e-02 7.177733570421972187e-02 5.549855094376830028e-02 -1.800150207094139941e-03 6.047066984268857637e-02 1.323865814040233683e-03 -6.902755425694868940e-02 7.749706498111037789e-02 -1.476586685103169483e-01 -7.867250677439159567e-02 4.724717297825740264e-02 4.769329946424301359e-02 -6.971833665946634839e-02 -1.272734023206472005e-02 -3.364730588252580479e-02 8.824670358351415986e-03 -5.782016852910621535e-02 -8.613721527937429068e-02
-3.445292504803289940e-02 -2.183231978714741950e-02 -7.412567882541355735e-02 1.411601488273202809e-01 -1.009820397281971927e-01 -4.226162476874891633e-02 -5.586414257811819772e-02 -5.860938487284502590e-02 3.993479711339333743e-02 -7.828476100440318053e-02 9.318297249030456364e-02 -6.716569305403431722e-02 3.412407181982571314e-02 1.262956927256833339e-01 1.013166609856347017e-01 9.823473619137225443e-02 7.637962769326350765e-02 8.277475481253864301e-03 6.400988629417359022e-02 1.147278633904071782e-01 -9.240265627150660854e-02 -5.012396569766332938e-02 -5.297162372798688845e-02 8.481003979849259869e-03 2.527398236502640880e-02 5.326408297890523197e-02 -1.093434128449577714e-01 -8.683129527483075816e-02 -1.829841721499536264e-02 1.833537271081124576e-02 -5.976074830531202114e-02 5.032870320311504109e-02
-6.161215400187938090e-02 3.238901364508703362e-02 2.781457202101390858e-02 1.119624566988652870e-01 -5.499504812747201682e-02 5.443665339586294116e-02 -1.421261043425969817e-02 1.114960216873303323e-01 1.360089422140311755e-01 4.574628548478164303e-02 2.409469744119635201e-02 -2.727420696830610419e-02 7.730081551233178305e-02 4.769882150836340928e-02 9.118477300001329167e-03 3.922556138445670859e-02 4.336889062465047046e-02 6.034762023705444014e-04 7.938957332991880556e-02 5.086705911871819419e-02 -1.154208521881648769e-01 -7.314008317152224936e-02 6.588646005950447859e-02 4.790713269040162287e-02 1.103299378832476862e-01 7.113810042303764236e-02 -1.365940515363859298e-01 -6.897901035297980543e-02 8.552840804502741257e-02 -8.381993097781083313e-02 4.577063695972698881e-02 -8.280270905022144023e-02
6.032814905692582275e-02 -5.747913199910862497e-02 9.968799810097380212e-03 1.119701139845850624e-01 1.294701468209535911e-01 -6.571992909092488899e-02 1.329957882423888488e-02 9.804358031479863678e-02 -2.259283101182911827e-02 5.161336287706582565e-02 -2.072624699979103841e-02 -3.200659541968033615e-03 -3.530412899371923596e-02 7.438262000608668323e-02 -8.520044740907069258e-02 7.013728078053853288e-02 -1.359959497073015000e-01 -4.716668472667778431e-03 -3.959993538443729727e-02 1.015772723088645690e-01 -6.574911307410293004e-02 -2.768265496819041771e-02 1.146170923525582572e-02 6.573439901806538144e-02 -1.201927583758718304e-02 -3.447340517991883541e-02 -1.158083719687009461e-01 -1.503140391388245456e-02 9.161501278938843917e-02 2.604256493237777637e-02 5.603247684215046515e-02 5.669757996736309730e-02
